108.0
150.0
216.0
-0.704336738724452
-0.18463904735877695
0.0511443497524986
-0.08037706023365856
0.41567477862624236
0.356662050399545
0.4255689031528075
0.580332825981194
-0.05419142095979215
0.12009250432906828
0.12920618948772142
0.43995393712073183
-0.5781121382609251
-0.22815975763039573
-1.0150631300742592
0.5659075412550189
0.06946075284515076
-0.15413151542880818
-0.9165483303669605
-0.42434614985619273
0.14379241712769458
0.44795961157892406
0.5650543864168006
0.7643309595841684
-0.9863256139748047
-0.5891642542978711
0.5424993755140182
0.13142700149002476
-0.011518625700902691
-0.49489278695441774
-0.506167726009124
-0.740690054046887
-0.3136163711074328
-0.5047204396585079
-0.5192966279756398
-0.41358830901461485
-0.03773584535688815
0.48619408906984435
0.28880746365702525
-0.467176100080983
0.1670453301600963
-1.1130532702915876
-0.6257515552272013
0.34769223831548435
-0.29972063065140114
0.6915359879221417
0.4774715289286917
0.4130423119363449
-0.20950575181558284
-0.7640450185193131
-0.7269133405612721
-0.9576006095748926
-0.8007755671122407
0.2837821051243709
0.09315361270836446
-0.8559028737308911
-0.8188301752048843
0.4567419114083357
0.9134167577847129
-0.2540772305813825
0.6471379381702455
0.275093770537629
-0.21470848771366388
-0.9410102700856718
-0.34246821056502763
-0.9616886471121209
-0.8457516651407635
-0.5064348732090113
-0.1704092081909504
-0.15285085078846647
0.5282758894409826
-0.33088026861850134
-0.5666859600568428
-0.6999067273364371
-0.7152876871842635
-0.17313101546580806
0.07745112241902508
0.4059213678765432
0.17692635998113793
-0.4115439759997498
-0.6263661643275832
0.30548216643374587
-0.5141866051567636
0.05916071188953988
-0.4174122215129983
0.359213709387699
-0.7656872557401818
0.4296038073810318
-0.9546182881721387
-0.7941658428980256
0.05422561290241483
-0.9254649122916183
-0.05703457764740708
0.870822348740835
0.09536831561508845
0.056468847396110716
-0.20885037640960796
-0.9745780638943924
-0.4572836867255312
0.20386259207075927
-0.3239399937967199
0.6080864201926857
-0.7451345811271588
-0.8024122309564465
0.4655967383437788
0.19109859846267943
-0.6929856604084306
-0.26050673417410003
-0.783884032762148
-0.6518342090739622
-0.2655911051223539
0.05894502943040535
-0.059017681004451955
-1.0426540059196163
-0.6150480782369255
-0.6922694209763193
-0.8315252658904589
-0.5609000974369422
0.4839898254404086
0.2520886786670167
-0.8061432855304187
0.307889028635094
-0.7476867947892095
-0.23377318713770245
-1.0576371925811017
0.37891214547094415
-0.9435086710097007
0.4448343228129097
-0.7534331182596455
-0.9523135272828972
-0.08105993394044159
-0.6809099610246349
-0.6081646949018832
-0.1488318009651193
0.7030347569285541
-0.3085251369557233
0.8112425206496666
0.43174278136314104
-0.46219917519419934
-0.8543201599466119
0.19792178062104487
-0.35751259933097657
-0.6129323980337958
0.7144469745724764
0.7589483852637011
0.7211713617276869
-0.5871344782432055
-0.6975643512851419
-0.4156149382503474
0.0746132740489916
0.5484243400364346
0.1875830609452838
0.6629068961306996
-0.9858179703697992
0.4956064950722522
0.2591350721827766
-0.5337501655697396
0.2578554396233123
0.6947549299679481
-0.014645820299973179
-0.816381331055555
-0.049401924896537025
-0.05528660432352509
-0.8339292937882019
-0.4855830991688068
-0.648411159175114
-0.3743587183752619
-0.37405700444386064
-0.24785251822387194
-0.4554752076070082
-0.3548198667161144
0.6931504909561275
0.1661416233524645
-0.8051051564804408
-0.21424103601172761
-0.014032252210971506
-0.9800786690636085
-0.6137928130691641
0.7051818592996386
-0.5040727493055092
-0.7463079974492602
0.06349020750725115
0.1358849271427933
0.4343854879890579
-0.9200493881564078
-0.4907267164024458
0.49214561433575565
-0.5787088154096444
0.5533390400300219
-1.047151110205093
-0.13999537964652226
-0.45369968759229495
-1.0829256676002053
-0.227492173642464
0.1903335539851187
-0.6125242572888849
0.6628764194469404
-0.7572813080190047
0.0814839889939763
0.38241856265936025
-0.9782727864496338
0.019755098035820463
-0.18602033928212006
-1.0422674863714174
0.522335255326197
-0.2508243872259797
0.39600998484021044
0.501543004623239
-0.8119290649818295
0.6058476179587351
0.819176479183016
-0.3969561091062975
-0.9618434404394762
0.6112327895321398
-0.5951987739949575
-0.7992371448028712
-0.05032530214735028
-0.5535992121188177
0.22240705179667752
-0.4790707906104366
-0.779901085025411
-0.2926211417391929
0.27077554357837713
0.7674666359974766
-0.22051672074699522
-0.15984098884533265
-0.8488639619456001
0.5005067746919989
-0.6755014168891733
0.11668964584690376
-0.4371865841973376
-0.41109499732854504
-0.9754417564249156
-1.2330494448365965
0.07197142909447105
-0.9910189027499955
-0.14326397782609246
-0.609136848936005
-0.769775008116389
-0.8978048976359008
0.10049466968703882
0.6361486437887917
0.17194532768642168
-0.3301553163735398
0.2986809829595924
0.6901564576688
0.010255268525831352
0.4271250128352853
0.13631318041616083
-0.9465374113028165
-0.791650611687823
-0.03775861292398338
0.19929089064762845
-1.064827613880276
-0.9303039340929956
-0.8806471861693792
-0.07904236898025628
-0.6049274669226034
0.4153309417749587
-0.4580130996409747
-0.1334566162845488
-0.9542142149476281
0.05323584249447641
-1.1017357382047221
0.1378718280149135
0.2760197338166929
-0.7083024863470525
0.3268078854518457
0.6165701316050721
0.032715116458389246
-0.29637638416988205
-0.04902133052783652
0.0811990954743202
-0.7910691393416365
0.3603306044390222
-0.5681361113721826
0.2653856404570148
0.20777069085420835
-0.7727460948390213
-0.5062066318756183
0.5705315019925578
-0.4990072348871358
-0.2379948286974028
0.29972987276542973
-0.1376046803888774
-0.6311457717483442
0.566359594266591
0.4476078904082026
-0.19530467317220415
-0.11031418189354734
-1.0318529386261914
0.4707879967505439
-0.3417497560427477
0.16280935281003023
-0.9916278636428535
0.31465589906037433
0.5303344554770738
-0.8814410227678035
-0.4388271336185615
-0.39400737468287306
-1.2143146702942584
-0.5934097096430243
0.15036931666346637
-0.010942126169480036
0.31785691331731014
-0.8167775770452713
-0.04971520964323931
0.5584734177733103
-0.030872717391043046
0.4739103484347978
0.5985210211231567
0.43972393978508206
-0.42278745800695317
-0.6569439446961823
0.45898073512155924
-0.21076872210134986
-0.6038936309602638
-0.22965686984174513
-0.21756385976772247
-0.14927942009450468
-0.09500347955865791
-1.0224993356631846
0.5692068713082201
-0.4734813693004018
-0.8688230137805008
-0.5394136134305778
-0.9599928013862248
-0.8904316178472452
-1.1481365428384032
-0.9606995118341815
-0.5375004350127645
-0.9360485624529401
-2.34968565213873E-4
0.6898894205748499
0.6568100755947848
-0.3354179430931527
0.3563871742551195
-0.39939343606502314
-0.001781784224341408
0.29402991857106386
-0.7057707230140867
-0.2632031248321499
-0.8347834437112501
-0.5843917354089937
0.9268534593467753
-0.2976233489237194
0.4705930530663981
0.022269374547958853
0.6356159281719206
-0.5123888734898135
-0.42362075830436907
0.12619879142164955
-0.3877465569545026
0.39259231266782935
-0.20865858170194562
-0.21322531282249846
0.629333326049817
-0.609379644137105
-0.3310721027731579
-0.409546914058455
0.6627883636423341
-0.06812725087486322
-0.46810857010885365
0.11667495886356807
0.14183129356504467
-0.04641990055700964
-0.23565967148017328
0.06505216236048895
-0.49757272451769347
-0.3191561259314873
-0.6528253465392051
-0.34111253733933083
-0.07614092891669504
0.08523860994127552
-0.7680787181560412
0.352934418615118
-0.08409522575570011
-0.3292260182966599
-0.6588852086247238
0.4183151682580468
0.3021410392360887
-0.6064868728391898
-0.9052191472241792
-0.7833127205294272
-0.2466376011717363
-0.4102114873909454
-0.15573391403945014
-0.48958386378414365
-0.4598550682255153
-0.9348578767878469
0.43062528083767637
-0.5330745501680417
-0.9396516298128418
0.726367679586194
-0.5018822941492627
0.7559829281008235
0.3105360885423027
-0.9785805746306689
0.7241186591601512
-0.7436297347994079
0.664230810697943
-0.6747373651278639
0.11400474312248965
-0.23642971868228974
0.998724747098661
0.36898102546133954
0.8072367815106816
0.5798523673337205
-0.38996738276803306
0.28821887398375623
-0.7949117912246467
-0.749611317940746
-0.001525956011488481
0.08548639510961048
0.39996009143864697
0.4173705255775776
0.4795954679867108
-0.47746496925626847
0.8019624360688541
-0.42912819595326585
-0.7641334986452473
-0.004249565692169778
-0.5793860242936439
-0.5261867573408289
-0.24544988963185935
-0.7696964209675221
-0.7766109697825432
-0.5948378243703555
-0.2287035227641751
-0.8474588821419696
-0.2913794176941686
-0.9327601317244988
-0.392429513060349
-0.41957830645493494
-0.6238909533573547
0.28881983359106994
-1.214421796149048
-0.6802726834615629
0.023047255475714463
-0.8559286382772208
0.32634815817587615
-0.5802492836573747
0.051371064033316385
0.26370625282207005
0.29999379050119923
-0.5109376004137656
0.439603456863931
-0.9999810478213147
0.15050066263247003
0.35622765801724127
0.522724137116229
-0.2119913686790631
-0.19328864306685722
0.6634667251166656
0.339863937099375
-0.5384687250364951
-0.6114461385422985
-0.5875460763664327
-0.5846895669079335
-0.4205188552757219
-0.401507634627812
-0.45782518146420487
0.3319670653538619
-0.7235610522198589
-0.6140210956157364
-0.21180776548743568
-0.7769711970551803
-0.7195824911784188
-0.8618867810377567
-0.9361804574793148
-1.1105440825950323
0.5237406779841746
0.5830087096055381
0.5003975926300164
-0.7168019574887533
-0.51372143269085
-0.7541479684980403
0.36192432320671014
-0.6599323528878359
-0.4618630208761146
-0.7360610495102746
0.5711263294376691
-0.46511626392520655
0.2790035359879043
-0.9361680622558465
0.18996242439955172
-0.4377866897035557
-0.0960783388778853
-0.8804961793383564
0.0125438666560783
-0.2024155372742298
-1.1902527826212572
-0.36609467077935837
-0.2712825123358705
-0.11322607168889334
-0.46819908170633845
0.014305695937278595
-1.2367447285565971
0.1666172403524954
-0.3295398288787912
-0.8797473362300924
-0.17563152993662384
0.17014247415449138
-0.46561196596390875
-0.0818864366288315
0.40367941466337165
-0.8020913058948205
-0.015687777610297188
-0.044733951079830775
0.0577671455103163
-0.35700932383497846
0.5629557353328509
-0.5928244039063099
0.47810682585359554
-0.6189849156152051
0.6168736916821058
-0.08736543606366909
0.030201783947245587
0.3398037004225281
0.4128119348798043
0.3975568050395666
-0.2167293810850455
0.03689320937202625
0.16328750504027836
-0.560158796161107
0.44386645394474405
-0.02384016264066216
0.2617638232714256
0.21124007862918823
-0.738069166487737
0.20829324766384522
-0.5522539900278051
-0.1674421273399458
0.03427604808630612
-1.085005109223767
-0.30776524894052515
-0.3445629836115407
-0.7080840212751003
-0.0966912771797362
-0.2032717553905363
-0.16264839705901335
-0.3862241966941712
0.05424398666769894
-0.6062343706953366
-0.9229574056272994
0.26348588862557953
0.7522952069557068
0.013339432434853114
0.2591746460167827
-1.0047836316542613
-0.35331365572839574
-1.3471221272932592
-0.9148783550451212
0.699068168793903
0.03744552514858958
0.8079103625349171
0.3399929643508914
-0.4300915673857894
0.11974876075287269
0.39377987118777336
0.5385590029777227
-0.8153667220903491
0.16743819998563692
0.06863553142173952
-0.9252606809117074
0.21100403290249742
-0.7457871622122973
0.03873620175262575
-0.5959357351306801
-0.7120524560264989
-0.5883715601826507
-0.7793267546748963
-0.3951473748837126
-0.4516053977683627
-0.5607319776953721
0.5622229658178465
-0.4166345209048111
0.0668388423555235
-0.573816803951058
0.5923604964450176
-0.8306815342223259
-8.943208800205457E-4
0.17199197611011316
-0.08326745997670001
0.018575287972478784
-0.21590651925357482
-0.05727852712956933
-0.513159263944334
-0.21351337950011168
-0.9266160413953524
-0.3736307270751841
0.8543044981153556
-0.06823141043003061
0.3927738907244397
0.7214560918674203
-0.7732994714009328
0.04483590152250623
0.00949480034043201
-0.031646901741337066
-0.503220406631796
0.13857913198974356
0.669250124650121
0.34068262934848337
-0.7990581647704232
-0.4920093214086713
0.262714278185779
0.030460744198513554
0.4283974867505071
0.02630000213090167
-0.5779061889627037
-0.241572602475914
-0.8003799521345404
0.17235562176159652
-1.0809644066108381
-0.8306469434697017
-0.8469177688128869
-0.28201298888622406
-0.02683452077711499
-0.004897372028091681
0.011119258379328607
-0.004601693120302486
0.3163884521446817
-1.0475811096227174
-1.0117289968360224
0.8398528100585134
-0.0981843264120559
0.4644562177738546
-1.1063223917274334
-0.8770644282912611
-1.1318536204431966
0.6307821280971516
0.629906692884783
0.48161067329986007
0.60100999159981
0.29141284639575776
0.12338850082155937
-1.1435573307720843
-0.8730519389144833
-0.2400452098351798
0.031150588040197276
0.35335214500668716
-0.12156950508553889
-1.0135368315037208
0.2700373474127952
0.6012015803494349
0.7361280260044485
0.721602480715516
-0.6411063125427513
-0.219634860179397
-0.15610244454821212
0.1989306300494097
0.16468100895790305
-0.004234612032020035
0.5173558136174761
-0.2584190266595644
0.7474652954555079
0.6758980209041949
-0.11097940467974286
-0.7137831807609761
-1.0729466875838058
0.21299313087312216
-0.7054771086634185
-0.2241498006158696
0.16761772955736215
-0.9912311282284431
-0.5678214373927709
-1.0658200085841103
0.0944736021470419
-0.1793174936742854
0.5376793852023803
-0.06720394417640953
-0.72558745316479
-0.5054557742574476
-1.0004427014355453
-0.29644284159135303
-1.180052153698534
-0.6705999361059796
0.18810266703609418
0.6686590966490747
0.37210797248676963
-0.2703305606413254
-0.19500093002942875
-0.6017768374072766
-0.8267798724627218
0.8392113186276913
-0.5498466795255001
-0.8258286558600275
-0.3617835549185264
-1.1264981347383323
-1.0995478881234402
0.5691490280534686
0.3649180771858324
-0.47844211152677146
-0.4464764413416036
-0.3276808880776906
-0.1480810483818865
0.4660689745141819
0.33215997531497304
0.6958538240997285
-0.10136593205268066
0.4792011023725249
0.5102208797483415
-0.3837843711407128
-0.11660018547241859
-0.6971674327623866
-0.9183354535154039
-0.2617678619430522
-0.14125157458577575
-0.2771243305017614
-0.5848282638216072
0.3074599517998498
0.6338029871043284
-0.9855895637756976
-0.502408422801936
-0.820695197820009
-0.40923708849156093
-1.0376222315828343
0.05119911224010981
-0.41467814868274167
-0.8517852565827445
0.5141131840211349
-0.8488007564212832
-0.6115977893659486
0.005119702152274433
-0.9458971785690271
0.054497906543254676
0.36247443954249287
-0.7557637952544786
0.7310320756511781
0.5081817986196084
0.7193965273646649
-0.1420958324238588
-0.8426222643205831
-0.1774604772922952
-0.5900957789293384
-0.33860047981881475
-0.5157106045847304
-0.2953727301369132
-0.11191655715995545
-0.7877210167948074
-1.1460554072699451
0.7892027526769904
-0.1720067360452454
0.41372576222891505
0.03421021657424307
-0.5609517008797296
-0.42759472965642864
-0.2234857720076093
0.4185506814984674
-0.1601102658490103
0.10093474147109914
0.12334828972450758
0.22890569000908123
0.22494796729186906
0.2116126063348001
0.5264703902900486
0.5961597664103148
0.009722692053819173
0.15619143060402182
0.642761265655506
0.6667196647906826
-0.002936536503939428
-0.2137471044917143
-0.4957049093380727
-0.09149625180462197
0.6214892391089973
-1.1055031758568397
0.07003061077793858
0.583595492029071
-0.8583455195898803
-0.8027955262195836
0.39075915530089844
0.01135598974526097
-0.21142062962306057
-0.7880362735271427
-0.04393692022202229
0.023264579178287288
-1.3166506016726574
-0.9058504306051145
0.08902226661256475
-1.1268516540973135
-0.09950003295660502
-0.5515220559719992
-0.5792616340889437
-0.7748597396451732
-0.511581143541115
0.10435777098161485
0.3816246937893982
-1.0387419952150263
0.4829140140116849
-0.6616261817367334
-0.18173314900070833
-0.9305438168381898
-0.6756143958265024
-1.2008767474567708
-0.5215936707219598
0.5812009776437354
-1.1334282225788057
-0.2591407169631564
0.3599484461282345
-0.38855450732233265
0.06432562987402944
-0.03088520878393368
-0.6715633241051204
-0.28273904290780427
-0.7085595340717356
-0.40005231360514015
0.35345165134508466
0.47480059631781524
0.1906300140113043
0.36844691291701975
-0.1643164227993966
0.37938038766821897
-0.48430065767214314
0.056650258601681866
-0.4751165206359214
0.55544634375642
0.6452631933933042
-0.5779792738562001
0.2710042955835152
-0.6349683227396986
-0.15186867979854193
0.07851345173706548
-0.8382559601448849
0.3772787439933158
-1.128159896769703
-1.2851745868490654
-1.1450566465765775
0.4007728758134611
-0.519110978315071
-0.08482251079440437
0.14935748635435644
0.2780536134495045
0.10312722660221907
-1.0745082040246954
0.30568298631371144
-0.27842408917040956
0.3747600755014614
-0.1040280688854888
-0.5720770097012557
-0.4025222269722373
0.6506513120243397
0.14132033257624677
0.32721715588947714
0.2868470082649466
0.5007733885950846
-0.1425457760537484
-0.8822920442820998
-0.127391000371666
-1.1867585614874596
0.6047818587423875
-0.7926182578003065
-0.7193779532504838
-0.6207813256249547
-0.8705513038377782
0.4550651616894445
-0.8408103079470419
-0.03000608912303504
-0.7631476650842253
0.38537202502511697
0.08383874837375935
0.8964032461090921
-0.1433574307385942
-0.8740806416108508
-0.07563184883689093
-0.11562458787184228
-1.0510293114301121
-0.08397606189984468
0.3104279750671817
-0.770567779019781
-0.5286120991424264
-0.242974603048232
0.3656142688752082
-0.69677305696502
0.39783677278517465
-0.8291271671739545
-0.10054236783929288
0.04239643528412369
-0.8371125151287672
-0.6627620858663418
-0.8817505269637147
-1.163323350660098
-0.06820425112005576
-0.6650448119943017
-0.39049233383234805
-0.02610118050993021
0.10699913176674267
-0.07928349105938257
0.2557777894837933
0.6695717294385587
-0.015920009111459053
-0.9504377757372307
-0.5800109038303339
-0.9627692064103782
-0.2406212263172378
0.3870019875070484
0.5875355423320298
-0.21969251322612085
-0.5041416433731857
0.22467885969649662
-0.583054358432195
-0.12422104484851723
-1.025097682456672
-0.01294045375156257
0.3028682483641357
-0.5908919220745654
-0.44889250084182775
-0.6864420873209409
-1.0038939688309445
-0.2511751632926229
0.20496513188394105
-0.6261401008536587
0.14752545509343165
-0.6989144904620869
0.5689999467186064
-0.7415148208579109
0.12310000012932695
-0.40917876786472074
-0.6976167844829695
0.17943681823949567
-0.7266094680894842
-0.427463711988705
-0.15897312290229537
0.36153651782860086
0.18537683729536725
0.4780862449267644
0.0845507394092698
0.2818297060703984
-0.1268766691230628
-0.7171655124055973
-0.5625762493883689
0.5307234967520449
0.5684786932110747
-0.09081807061280692
-0.2746249851173214
-9.001427031575943E-4
0.29440357709978243
-0.07708694216977935
-0.44544294287996233
0.37525104240281354
-0.852892927820361
0.34945983261478075
-0.8725408417689408
0.8360362750812239
-0.7131972004051449
0.10649329776441466
-0.6325158598372678
0.44056396373372503
-1.0651177129935965
0.11311092619493746
0.262283904653189
0.13600237975882898
-0.0027931953274427743
-0.18217716986209387
0.7203758154573344
0.4666593807410828
-0.3462699355258743
-0.9567943529925927
-0.8505692665114284
-0.19347207986983728
-0.3143447305288243
-0.8504720637981502
-0.8799465942763005
-0.9608339688131158
0.1411049291560749
0.519071561527821
0.3709405827175372
0.23853738255040377
-0.15338770745267727
0.5244608857811195
0.7081283148865232
0.4701387992739418
0.6612422852829164
-0.8955446460212795
-0.7726295298941667
0.04945719181083297
-0.2454960009162559
-0.6153444166895427
0.12634749303789614
0.13569415380416436
-0.34872083362210343
-0.035668720157326715
-0.9984686730499515
-0.41726923836789565
-0.5807952471878091
-0.2877510537982818
-0.6214212624300542
-0.6413235892431387
-0.023426578921723028
-0.07201832179058355
-0.20563357991021233
-0.22524081644578817
0.5830497527590716
0.5529953429553015
-0.22686927613453922
-0.6387428573157928
0.0981703653078208
-0.6335949791140404
-0.6668741579324273
0.31222318238926655
-0.16047747563585432
0.39406651260755865
0.42965307138806796
-0.9470231065168312
-0.7266909856939311
-0.07835912028495026
-0.2530767440379577
0.11879973820739256
-0.47758930870638944
-0.29675216480063155
-0.1273546744523338
-0.23349438075363885
-0.9426041365769554
-0.9291159860042613
-0.06149516628229319
-0.1269017916596704
-1.0140008603819282
-0.30925169837297556
-0.3505808823328726
-0.7978466373958141
0.07664487504084189
0.4270395552637996
-0.3313243841631411
-0.7372364483220845
-0.6582319293557466
0.21251383339920518
-0.7408639644779064
0.7437725621633641
0.364659055639361
0.5553142290037831
-0.9647778900624294
0.5915262996627012
-1.0814837157628074
-0.6976584231358183
-0.6808084431524911
0.7254092036339208
-0.14219419596519772
0.5155892475904486
0.41811148808120485
-0.4575822856307182
0.20412181368514323
-0.2371500354621354
0.3570400431887478
0.4168223755901205
-0.842147862206674
-0.5243293454866597
-0.7614086021409809
0.05516524885635809
-0.7457873957168739
-0.8767051020941936
0.38922262780553907
-0.03031594652182467
0.4537886115548887
-0.3259862928707055
0.6638974611143078
-0.21074533744854465
0.1907397977199738
-0.41644753696390485
0.6850210249108161
0.46843393295425434
-0.8049595098879726
-6.176180332758616E-4
0.9686666335072748
0.028185820344566598
-0.32226223720203573
-0.25411787755159376
-0.19821564827444105
-0.5434768012513638
-0.5497684000840817
-0.07106052744670223
0.4489427423336275
-0.14231252300696193
-0.5726691968038385
-0.9853636248688697
0.41724576971305244
0.09364264589649023
-0.7804816392017451
-9.090898579606254E-4
-0.5144927383198536
0.00958175317610027
0.40331777968868554
0.6956431505207165
-0.8601689918835165
-0.6558831963817475
0.38559986498520904
0.2838287415988562
-0.46988151850152066
0.30660239692511065
-0.4256302822825932
0.5666532426325334
0.02091017948149367
-0.11260623177093784
-0.5074229437252559
-1.0105874319208943
0.06262227474952234
0.7911643890126163
0.5160211971646239
0.1451008654384102
0.7661130663049728
-0.0020479809469930786
-0.0861561134815805
-0.6040929705427917
-1.0033028120758984
-0.5482513891483857
-0.07768005795154273
0.6517720496585587
-0.043651198238450484
0.5112654121690605
-0.35713102377639455
-0.39938865675157115
0.05122089130848929
-1.0254959902218974
-0.09194518080723246
-1.053364095138534
-0.6599036078199031
-0.005835981071214345
-0.3115548174638199
-0.4480001977633845
-0.10847471219591207
-0.45534060529195863
-0.7180868225716858
-0.5179338052212563
0.4554052439445398
-1.1767935673836174
-0.9869321396531744
0.42699738050301816
0.3230004950439376
0.22561390513818824
0.28864469239696605
-1.08781382648222
0.04291555856385405
-0.4956992273624753
-0.6502380764125397
0.142926935500756
-0.2758600792448236
-0.17252629725506527
0.13698927129849958
-0.13982265832783716
-0.32239886505328275
-0.41995087632887
0.5712715616062579
0.4399698136015265
-0.23687777284721975
-0.19204673420917626
0.10689229508356027
0.10407650716846441
0.6900347941136439
0.37444412951990064
-0.12452388494677144
0.7780272682871828
0.07610964057305741
0.3108035265729026
0.02191098829192584
-0.7317224728448449
0.16433794796083748
-0.7112800517577772
-0.17966903868653733
0.49930029437780626
-0.45131667123344343
0.3336543437762726
0.4505145834346013
0.37992608138865575
-0.3411262161373715
-0.46850742353498775
-1.1544320101390566
-0.3536951725333738
-0.6668319052619506
-0.4842690162629965
0.4396297401608295
-0.16922426401618143
0.5718682531895186
-0.01865699335582649
0.3812059935459453
0.5651525856564952
-0.18378980993216584
-0.5198067870706302
-0.05294430452436246
0.4403369196781233
-0.10442274326442769
0.088682971094772
-1.0208935779696506
-0.9447385046040746
-0.3411977809892741
0.1096739010294373
0.13010068553359033
-0.4067678920717478
-0.9639517792390744
-1.419212555835597
-0.5431887680630134
-0.4096227527662575
-0.2740176696894891
0.01886537455102409
0.3586868027945738
-0.2870218080157481
0.1086530496643433
-0.9818792953192301
-0.7066705818779861
-0.2660745384775694
0.020508176802564608
-0.11702134949839146
0.35914785137456884
-0.7215488500263482
0.03383164640907529
-0.23498364090568075
0.1973566771461635
-0.03658387478874975
-0.30023676186274906
0.4979168977592338
-0.5977928976135011
-0.20111404918798667
0.31883347102028525
0.6437068542884499
-0.33660131650699643
0.3903959078387228
-0.4081879506450926
0.48151282388817035
0.7472501076984497
0.8399440524363249
-0.6145599276317959
-0.8747159307470986
-1.1288475336008927
-0.5118834817781368
-1.0812271506603677
0.11397597329766096
-0.14794289788766934
-1.044227990685985
0.5886553104246142
-0.6105547008527017
-0.7705841817980196
0.11495828177640968
-0.23303202827994177
0.43300476856871256
0.29368998671468605
-0.7416040431726793
0.3000141936294468
0.6717412734996495
0.5714992496882624
-0.7468147386559434
-0.5450788217290251
-0.11903846118541514
0.14851461610148955
0.14143414372809218
-0.15061343290854992
-0.22211396247993084
-0.5487797357801915
-0.8341168183747646
-0.395207995346403
-0.05864100514866738
-0.9407758535110188
-0.12762143702399825
-1.1476339138266498
0.05363780049163296
-0.7440920607305819
-0.7765646135126568
0.6013651744871884
-0.33685992100500817
0.07287839789753445
0.058388226166208326
-0.45077396576437356
-0.5800855995654357
-1.0002606631241093
-0.5389321080867182
-0.36145692744499014
-0.6710651168933264
0.5480339524880945
-0.46012872693159734
0.5969519493624851
0.8369164706193155
-1.021760539664221
-0.003082271765273807
0.26303678305367634
-0.38474772948352454
-0.9882615763638198
-0.3511835486768998
-1.1506972688864043
-1.0612577679188846
-0.4380039600562287
0.537305917920562
0.7004551477193449
-0.03292499244548086
0.23440795196552147
-0.6866847461111512
0.23800750594139256
0.4833399944283407
-0.23964607944816557
0.36034341487541166
-1.005703012205952
0.6411058116533285
0.027874131900599165
-1.0127606948279337
0.6063523097229444
0.40084406082778495
-1.180244537263152
0.4412734342745229
-0.3488033995349138
0.19704289648669654
0.5766740356539493
0.043358256187945095
-0.07980097290663755
0.06875825659069788
0.5246801962999692
-0.17531319710839666
0.0703468711387632
0.4381042803317799
-0.8407860324504568
-0.9274722012543489
-0.6205848694692171
-0.2290596023869576
-0.12027157616414051
0.5959342839453664
-0.8796900869069262
-0.5104642158320789
-0.4624846858505095
-0.05370171590348982
-0.019188590206375415
-0.0721275630600382
-0.8447768936694201
0.1251209106002346
-0.9567684215251309
-0.2962498363113207
-0.4395391785941813
-0.1579824114113127
-0.08217364498892724
-0.5667105171500031
-0.9513921999228825
-0.3972593246150854
0.3353475476833064
0.5509741331562679
0.002274451907896506
0.04511287467567407
0.36108891984353486
-0.9035020503483198
0.14118703408767125
-0.4166325530753534
-0.32884456196673284
0.5905893043004105
-0.26582217707608286
-0.4244733999919108
-0.2993952017710444
0.7148911232153472
0.20762962272502417
0.08204617090394263
0.4173840962763876
0.1140353488588394
-0.5536299114380784
-0.027783284340596483
-0.20361010088805015
-1.0745741651803413
-1.0994856687784704
0.40580212613238437
0.1718032739542142
0.5956373647755696
0.13491837246882327
0.1679479517889999
-0.14107946384754116
-0.6605976432531734
0.5198412978248133
0.7701240811997176
-1.055082511370459
-0.8917078404742175
-0.36830474292855137
-0.30664789843196966
-1.0494722115649888
-0.419012394405748
0.5853260542219475
0.7301424708961898
-0.5162453429424028
0.08064982920316559
0.12925084415161614
-0.5272762396524285
-0.8027982456167395
0.46701128999338
-0.48372785521870215
0.4317831373694799
-0.5457052024769866
-0.29405887802660857
-1.0012168612287269
-0.2749452516310915
-0.49494774672214964
-0.7459446162891555
0.1349559408592511
-0.7654437797579668
-1.0780020250076388
-0.7410302072041408
0.41122174154223307
0.21832255147833932
0.23260794247827993
0.09702183919116968
0.40602062545101447
-0.36832284568114054
-0.9791627189809607
-1.2560821633762906
0.31880112673015504
-0.6256728066891204
-0.13796890532217013
-0.0594750168588915
-0.6528636666767509
-0.8743054147686633
-0.5771431628320483
0.20520447503976263
-0.2270506810359805
-0.24173514261105478
0.08676948091226618
-0.46898680592607916
0.0041750071085111225
-0.816915375988647
0.4829739658072175
0.1929608668445555
0.12996274933776644
0.533096049857184
-0.2816160401093376
-0.8000282654753261
-0.6427336540885173
-0.5181080013751673
-0.7180705306189868
-0.4263549357248845
-0.6560138983126
-0.019927646984716774
-0.30026807122068255
-0.46569483767672065
-0.6530784532390684
0.22635718596837112
-0.5974193765775216
-0.3932459713950401
-1.0931386792228377
-0.11843746502235661
-0.5898857826716521
-0.5267913770276718
0.46102146146402906
-0.2572297397534178
0.4875634614100364
0.13349334465797977
-0.04403570532989539
-1.2078076945827074
-0.8606585146275388
-0.27138125714613975
0.6738478583873666
0.0616274780577862
0.2483027798262223
0.23094019809085212
-0.38142842378731
-0.4038564029898339
-1.0225638470593592
-0.46134192145507985
0.07077228277307321
0.23793585781408547
0.6834700832085774
-0.4609739953117991
0.2988940770678573
-0.8768139796546547
-0.8264432732186097
0.6626747045699343
0.09853640041154857
0.6129720509006642
0.3898784490615126
-0.26657207622877993
0.21196297653119675
-0.2809448433725471
0.26394051071822344
-0.3702369820932412
-0.7887991918365753
-0.34008952866759695
-0.8243273546860157
0.16152940070832336
0.1332318436975296
0.007445047378484139
-0.7559821171341671
-0.1978998499792756
-0.8154101657602725
-0.7272935514704022
0.7163346606598593
0.42339987256381956
0.27883722930280086
-0.43340358982254196
0.17512240329449522
-0.6470171354531964
0.6255803555451465
-0.13047236667208603
0.4448600573653746
-0.5786176486997244
-0.668399092072139
-0.5600358274386962
0.16688420336672516
-1.1079842876355712
-1.0379789149866796
-0.6148388075536315
0.7460036728593079
0.4872256251070315
0.010441029546777636
-0.9925253109440854
0.1248795251670293
0.0761760316952663
0.07962383443442696
0.5144558455891769
0.7914308037754565
-0.6109329011616046
-0.8968654110516885
-0.4270217954102597
-0.47610704984197494
0.18116548116797052
-0.0484602253118672
-0.7714875895475315
-0.5996828716945413
-0.34004618631782624
-0.5883034457645356
-0.04689585991392025
0.642813616577394
-0.168300638165783
0.43156660390346335
-0.12677871343901764
-0.1745891757873838
-1.2336907532056405
0.3598857339328588
0.36353016358251017
0.6860396594890474
-1.0889845452645723
-0.6004403783298642
-0.1627207699211867
-0.7046148755212543
0.4506438289343529
-0.9666076211927769
-0.5083527446405718
-0.029905601084556033
0.05779019324828628
0.0731455033789748
-0.9318883455121102
0.2996618210085702
-0.8241000213878688
-0.9127628101668129
0.6311045102896127
-0.23486953028837498
-0.050754661611707254
0.024897538427410302
0.7017037872824949
0.17983604369154352
-0.9785234465284913
0.3841204543137193
-0.15780304253431907
-0.30656994257641174
0.24273516204341988
-0.08189417484164944
0.5887432536903598
-0.02399928699857408
-0.08700365929684072
-0.6203316032016389
-0.8251153868389797
0.3808931469650444
-0.6453710937240783
0.20112453466678126
-0.4873763106349764
0.16065849088872164
-0.0959015242853533
0.319980541220752
-0.38110605460218433
0.04377287449377377
-0.4920184048456242
-0.7776087401386204
0.6826773980773078
0.37683178923178373
0.7045660309620461
0.44281617721384087
-1.0234988204717481
-0.3250099618047867
0.20453943856324458
-0.47122652100209284
-0.7713095992100254
-0.7227963516935979
-0.8215424970805665
-0.5565759889240167
0.10789992000170995
0.7072490187616861
0.0936855064055543
-0.934416483632004
0.14162954181061874
-0.18964040282123154
0.46361234523381883
-0.732497441244392
-0.3886842216660588
0.4695562847129763
-0.47474091194033874
-0.7769212526494215
-0.050890456440034745
-0.9932183888753852
-1.1060829136223758
-0.3854642902894654
-0.06849315569042927
0.6881787714253916
-0.24008367202977807
-0.7347029676133842
-0.20732852921347347
-1.1801314829804206
-0.571800982327525
-0.5140280876048946
-0.9000971481062724
-0.4098575571359653
-0.5958763663665819
-0.6348566822635509
0.04060380155441247
-0.2567300726927959
-0.5830075932969472
0.2062605220751564
0.02163794852571305
-0.5477497147114663
-0.10798089748642731
0.755866571318928
0.5715948805542143
-0.34949130679467993
-0.32828280403534926
-0.3765514137405437
-0.5366604984063811
-0.03738181093098982
0.5256832089296781
0.48242157411256215
-0.5978640563395097
-0.7414824246420785
0.4569474890076138
-0.8796562461686328
0.004548013320488932
-0.66701748834097
-0.35337050549064253
-0.3633092774767598
-0.899387644707879
-0.2867202478257479
0.7949654041949007
0.05324438388180757
-0.9032120025914442
0.055389315331790714
0.7015933796461162
0.34490469613359703
0.20182481632263669
-0.20022398860978424
0.4359323094846464
-0.2727807494176388
-0.8495278299804988
0.2475874566284495
0.7331238273406948
0.7033840296484044
0.6591000568943094
-1.0489540446052992
0.4722096258543321
-0.6419504016276114
-0.2810041284013275
-0.7568296183798487
-0.8797190884172905
0.003943493817922212
-0.8444640850992382
0.5769090575692332
-0.9525870311258863
0.276854069374348
-0.7205513109041367
-0.49410846486017845
-0.6648027710905389
-0.057255666698615565
-1.1230444779643534
-0.5376360801843029
-0.5923466187988727
0.76273021943318
0.3393646726864919
-0.11345381412467136
0.5864413017727489
-0.35462365688874653
-0.49678890655789887
0.5200239226094504
-0.7957769333608683
0.42189316269750077
-0.23916218007419293
-0.544674056983273
0.1635999362514061
0.6777466268174251
-1.0891643187304885
-0.6563045730060871
-0.9795254769180481
-0.3040048240941479
0.18845440597208632
0.004617592705994345
-0.050243351248862075
-0.08272025333886512
-0.189070221871884
-0.04283052271387376
-0.6523732735035002
-0.1857391424431964
-1.0119905991780913
-0.546256536410895
-0.5718219300887891
0.28681583251473247
0.42846203622417356
0.038796845386379494
-0.3854191858194698
0.6619041983064686
-0.08066128374507942
-0.9420175877166688
0.3772594495321858
-0.7892220234476741
-0.9236937376000297
0.29877428033679665
-1.0905516847898962
-0.9947274206975562
-0.6023924434148894
-0.41653440457637925
0.3297996174264372
0.8403189316960085
-0.39497776748530244
-0.6571988506008355
-0.5511037573948653
0.28550516963007844
-0.6762284938732825
0.2853148013285813
-0.5770849954544437
0.2819931048560989
-0.23965323069700456
0.5711779719948918
-0.9758197073217175
-1.0698852061889315
0.396206213163596
-0.4219634424436089
-0.9083794757234304
-0.32447958257358994
0.10853368294392358
-0.6436935668688744
0.26907034749868675
0.6911050224951629
-0.31275910601856555
-0.6710070206792298
0.297221873578217
0.17221271739047925
-0.12068634145822965
0.08351613931301782
-0.9042639077514087
0.320773815068088
-0.7284770829155175
-0.5434663891435146
0.21909287497429347
-1.056618952690885
-0.5461580820234272
-0.6357523757577827
0.5507113512536099
0.5524643960379766
-0.8172225394124357
-0.6015794217693202
-0.22774342783440166
0.6666542576240299
0.05051388302931644
-0.9136766851962305
-0.1350078693596335
0.15632643544923178
-0.31417978126870477
0.07514357617609385
0.3883913664927111
-0.26332102274922925
-0.5146603067688431
-0.7773951915864875
0.4522012116605738
0.0409945199210054
0.4188776056089268
-0.23450651009660634
-0.9757691195786415
-1.0302689957483417
-0.7209896507369677
-0.9191022666176437
-0.25245641814063524
-0.7129699387479939
0.31206526751834707
-0.6466837025840655
0.8358967531391257
-0.4724560029218103
0.6942677927869774
-0.8772136250489098
-0.3795345626985089
0.60687491594082
-0.8852173159928343
-0.08974894013859268
-0.45026904092972375
0.09781771601956513
-0.9041603377468477
-0.020936485761208025
0.06433754887050046
-0.38181007123960575
0.3433169946359315
0.32350786572275436
0.14286366459422242
0.7195618750183203
0.6815559039552713
-0.4805399256985173
0.5544134432163782
0.03460040658835831
0.12541310997595628
-0.41565620525122315
-0.33513485031820733
0.5212356513184185
-0.5272730860009736
-0.08801795408787912
-0.5903531968840467
0.3098934279751171
0.049188577491300935
-0.6039356859618478
0.4733636505254379
-0.71920056400479
0.5286603097652641
-0.26843332140147885
-0.19670298113149123
0.761526293776175
0.7062741581675391
-0.3325367499264731
-0.8167710933909036
0.361667885502135
-0.6384320642162085
0.3938246909725656
-1.0872399380633255
-0.856266864145561
-0.9023555248853975
-0.9079008388562151
-0.7023498092387123
-0.683624433151027
-0.2142828353911039
0.3694117149757963
-0.924325861005471
0.2585773918685943
-0.8884062214221699
-0.8328792865742763
-0.7010560994757855
-0.03982572353901136
-0.7115446154527723
0.2062099182938535
-0.9448589738183619
0.0918184549332257
-0.7038431065602305
-0.9289286770150954
-0.39022466306563286
-0.47777096977024547
-0.7028862753532366
0.21980681329349616
-0.23880690458592713
-0.2401329705887041
0.3961341209099031
-0.707552975787211
0.20908484790658002
0.5048978868729577
-1.0414931597927315
-0.6632880840102783
-0.3323881381533935
-0.9481023190834759
-0.708731037766558
-0.4481284043801871
-1.0009839504161966
-0.16109398480522094
0.4527213247170298
-0.8063052183764554
-0.9255260842495693
0.6045514240340947
-0.9666650169105502
-0.9666637674636565
-0.5625337444680326
0.6498325011910754
0.07429625498195172
-0.5071610923821932
-0.22593222562359414
-0.26316124911883104
0.4248889827450956
-0.29074686889126355
0.5512642386791697
-0.45815101232114896
-1.1894406679485952
0.36472935641822646
-0.9606962177722349
0.5265316515917058
0.2900257093268967
0.356246720973647
-0.2364396029007706
-0.4690835009598196
-0.5580537552510595
0.5409880818716165
-0.32627504550485426
0.10105685284335333
-0.44809543535859936
-0.11760046424562506
-0.7417974243706575
-0.14398783043145416
-0.30403811189477076
-0.8507200172601495
-0.08799559640394614
0.3572875959029249
-0.914478569405847
0.2705098831971008
-1.3485191726601737
-0.695415349097023
0.46731312842127753
-0.682884853100238
-0.19909859035781277
0.3068656221959874
0.2499415529473104
0.6020095218935595
-0.7891075383134593
0.5270455739321389
0.316740951338312
0.22564463606467117
-0.3160524065554729
-0.6637252579674651
-0.6547082002127885
-1.1360877679731989
-0.6590855106784392
-0.7578394424008744
-0.09120622782176188
-0.1619695631629528
0.09048023066297022
-0.9912252611946128
0.028658063361999758
0.37795694946838776
-1.009328037527699
-0.611560172161883
0.5549873631415583
0.1556322892759556
0.5441473205652346
0.517879524423242
-0.9971144423888266
0.23651087881683758
0.14327255312940282
0.0027545148351540327
0.02285150064665775
0.10011905665684037
0.3597014960441545
-0.8590458928070549
-1.0260145274814114
0.32608070431348146
0.04164445135743128
-1.0129252599568055
-0.40600084059757235
0.33362119002010976
-0.3821666259938863
0.0763988863530542
-0.25730349536425473
0.20951850157835172
0.2869371762683335
-0.09219097266445822
0.18059975765734895
0.09069185078079206
-0.8243981673538998
0.04849596739777317
0.6622149384800027
0.685030285828704
-0.617334205184858
0.2905842053581325
-0.15302612163480514
-0.3281581395823507
-0.9835384859108233
-0.015361704274441314
-0.47113502560744813
-0.4206015393164357
-0.7354781855015288
-0.7875187245438844
0.38866828686559257
0.7688181963118932
-0.43506947101374543
0.3244386522529161
-0.8268584990872785
0.1853001433762466
-1.1395254219059725
-0.995246643115025
-0.3729547931931821
-0.18883258714884973
-0.7951016257300988
-1.1136076607092762
-0.2779282609008205
-0.5152102486828566
0.7314908833163547
0.45445729548889896
-0.9128694706473761
-0.24289520489014332
0.4672643021966594
-0.4835650256057591
0.14302983891871504
-0.23510530341617933
-0.7885896984455298
-0.30191015525004
0.5797112789087944
-0.8670337794866976
0.5231852766926549
-0.5971505385973436
-0.7882685448803607
-1.1041465482126402
-1.1317459028365249
0.5842223222186687
-0.9971429077118439
0.49578503011813835
-0.32188125986852406
0.42192819962652695
0.2250439054933139
-0.13419927828713682
-0.9948842812343522
0.4899149555699203
-0.9471971439410668
0.29746499789858577
-1.121805774234918
0.27267524630859197
0.9684104616734225
0.1333502784807202
-0.429431168881317
-0.2510869206330472
0.5126296177398123
-0.003637362394894292
0.0323154408677009
-0.8802311865210913
-1.1181748612911433
-0.35882146760933764
0.0038227989153558906
-0.19583369001516324
-0.20936793341731882
0.17062778869939096
0.5331944280353681
-0.97689985124764
-0.3563318993757766
0.37281972780478845
0.12229929151780938
-1.0183927355820497
0.6315138817448079
0.7021138229284954
0.04186636131986275
0.7719898078569014
0.3802358848613568
-0.12270456643608359
-0.5377230003038853
-1.0137685201670643
0.2387106478752872
-0.2721082691974468
-1.119186178678072
0.010245028646941153
-0.3467104013225968
-0.9199277913319881
0.4173109881989048
0.5584467757104269
-0.2392682724702273
0.5836530535161187
0.7267700375901794
-0.09509257378621379
0.6658738262292596
-1.058174054359099
0.23602656228982818
0.5725970918123473
-0.3604613613708652
-0.3314753385888938
-0.6631687392880397
0.8284610605194996
-0.0014759762018975928
-0.6172398933796158
0.43163273844566746
0.6313140274334782
-0.4843786480398324
-0.432620299416574
-0.6893323620982849
-1.0300120635877463
-0.8007053039377541
-0.48291955050795404
-1.1347284766876435
-0.8564976691495021
0.008422014536336628
-0.545664420284877
0.0863641928055986
0.5475890972824509
0.17080401445885965
0.2368258867529479
0.33285255914635414
-0.30621229374779435
0.16635223884927594
-0.5067141415912734
0.5211196332719786
0.5179776017343606
7.590513373546999E-4
-0.2481066420153452
0.2214051545346945
-0.8016185045023314
-1.0400601516751364
-0.5972156736082094
-0.14893694837613577
-0.985301519432029
-1.1114343153109933
-0.9963486856100394
-1.0568901383429967
0.29076788410318755
0.023407465224483177
0.12482962357042376
0.14717911899414146
-0.5702731564918924
0.17451550395331278
-0.28462031933059
-0.7317227190710017
0.10990513273693506
0.664424466436699
0.2796556340606693
-0.11837281142719533
0.19248627911851987
-0.5674693090659968
-0.7053973525729132
-0.9202338286871473
-0.26385332930341504
-0.05541297185019005
-0.024030517672573887
-0.9526619844840125
-0.15041375923619402
-0.7505814718758762
0.6967324166682964
-0.9173398727651743
-0.14229710587209657
0.342101552697186
0.4982531092801346
0.2708273156358357
0.49448886240530515
-0.5536856441196215
-0.083174601848752
0.518466224572867
-0.8884548613239805
-0.6000384129601715
-0.2572457380341431
-0.2858765524008769
0.31588934313939354
0.6320938318768835
0.4451267420835273
-0.5398419004955138
-0.7202352127340471
-1.2448131323270941
0.12374009108455368
0.2816766792893667
-0.33347683817650176
-0.3236742737220541
0.14468597656869103
-0.717597155989616
0.7564552477668972
0.39584205456225274
0.2021794226694393
-0.1585562571262958
-0.9185567087001764
0.08565164307232762
0.2303570443343523
-0.3920682791965639
-0.8581652815376348
-0.08279764921555463
-0.5280472737196604
-0.685457340560375
-0.9897997469637094
-0.32175686558870753
0.18585447728682147
0.24017395496537997
0.13606260484100097
-1.1765670259610501
-0.06147432709912638
-0.16247361826359552
-0.11221193481589373
-0.041779095002338645
-0.7242314295414526
-0.34130810947676876
0.8550145989041777
-0.5961340257543708
-0.010712161234265468
0.27263003659131657
-0.22241962129855777
-0.8443879756579181
0.06629740132521107
-0.680825311892281
0.29898576141804056
-0.6145128838149031
-0.7588729439173602
0.1797831320387596
0.2539665042338503
-0.6274742648163897
-1.1171223136851236
-0.07398534420605543
-0.13184980854141945
-0.25019040345903687
0.12340328979740312
-0.1732521906446666
-0.8047832421302589
0.38480111661091676
-0.04459837503535017
0.11552388380303946
0.18637708494510066
-0.6017031932771469
-0.11926272696931457
0.08943781202463605
0.5894847813550932
0.3226876433628528
-0.8784002770179303
-0.036400487150167735
-0.45226401881929557
-0.18593538960135766
-0.9561235814787775
-0.7532034925757425
0.3769660973021783
0.13557132530257787
-0.8954729473362193
-0.8315214515432726
-0.30503109277455664
-0.6433037994141189
-0.05807059278111666
0.31368988408048204
0.5801340175687275
-0.8433571248594895
0.547691240030645
0.12911103387841438
-0.9598881984336547
0.0281920954740861
-0.4310788770482304
-0.6424109363834606
0.8005793175443557
0.29231211029969706
-0.7136621301186233
-0.9810236913642585
0.4007357292884086
-0.2258979271237388
-1.1117034175213787
-0.20349775053668473
-0.08047286045587923
-0.18092955427139387
-0.908976698883928
-0.9609724188242956
-1.1400268536496583
-0.8053761728366048
-0.3134460799753543
-0.5080513420318229
-0.7524533266148374
0.04370771943375246
0.78744370825326
-0.3030527545643933
-1.1918201234386714
-0.3576590291037401
-0.5743627248939853
-0.7196935110637058
-0.6811201823352758
-0.1805816284766465
0.5088745055526085
0.4443738731435015
-0.9661535516591886
-0.03246928421307483
-0.026649750016350438
0.3409304466207287
0.5424898901116821
0.2828768673620021
-0.6092063461399162
-0.19447641867568582
0.16235640808023766
-0.6927743447673196
-0.5787635487496126
0.3572377798546615
-0.8984052280900866
0.01635736631847178
0.39078716341568004
-1.0873172784679719
-0.12213518608328937
-1.1377060623350033
-0.5876229028555557
-0.06458695228469866
-1.0421694358322686
0.36733588495761904
0.6849338687312264
0.058801665987455294
0.05992702439766431
0.3819161823619686
-0.4423230637021676
-0.1928952209663311
0.5507762151729216
0.12914548980156904
-0.3238477024940193
-0.028868299486093114
0.21007774749335667
0.5872039170089756
0.1773529885149923
-0.3584828962142285
-0.28939746204356875
0.341924092614107
-0.6392754036264285
-0.7524885821184768
0.2927616863196731
0.7745244753184195
0.12251120621090969
-0.48079611401674793
-0.4336413142736172
-0.10048972894105361
0.40227618656617287
0.47170249154297006
-0.40410285004740154
-0.9151824669622998
-0.40274836684308785
-0.47008228012073644
-0.6524994273071236
-0.2653869249065839
-1.1399899453819564
-1.0284981525509171
-0.7715163426671559
-0.23838694080792236
0.5101430343167388
-0.31374655040704746
-0.37868988188045766
0.36763995776454395
-0.8992169228370501
0.34630817522939017
-0.8182556818904843
-0.6465635025928294
-0.8608952493806031
-0.2460521219174888
0.2410292697393276
-0.6028276542163644
-1.036290835234919
-1.1078503213805426
0.5438521344046862
-0.41987464626387694
0.13618608822966993
-0.49492057223223385
0.15768663769981572
-0.8047888354947829
-0.8109687844148051
0.30256053277081957
-0.20665799708313712
-0.8185182140999052
-0.5156819536126754
0.1748303398606363
0.5373214171763478
0.11791815611179832
-0.7176712530865692
0.4561265254889505
0.3991438625047497
-0.8537309027551647
0.2157678786801911
-0.06258165092498032
-1.020557550809649
-1.0653929735010994
-0.3047461245249273
0.1882870825936471
-0.43543460213155655
-0.6869495404901438
-0.1548902981702324
0.46522273884091137
-0.5300615224836146
0.6228524598571301
0.1448381511244486
0.7348239529195812
0.31865578070430917
-0.6632126118358634
0.5671973783688996
-0.4815668580040573
-0.31613558289287697
0.44738602682005246
0.005522588548070681
0.48797084290781323
-0.8709928668490954
0.3925851804956051
-0.8469205439595378
0.7364153279272234
0.3572400274367427
0.11328408510677057
-0.5866917033665242
-1.0293198183174133
-0.23103996906526064
-0.8154439609855356
0.6435172868718465
0.3425765526753073
0.7426425430803952
-0.8981862266644295
0.847355997282997
0.6875222021977628
0.6008135044544277
-0.04247484771790019
-0.15626137352252395
-0.17589329297685133
-0.5611058774522285
-0.9451610610394744
0.2500342897244864
-0.4788500720759586
-0.07902443191112515
0.21073745232600638
0.24043942785976397
-0.6424428792912582
-0.34365779549726694
-0.5487570585525448
-0.4983101444899937
-0.2568246496668882
-0.5221403404642142
-0.9933939771375047
-1.0045536138356885
-0.8702372391835987
0.7474192611762663
0.2516528192046845
-0.6560591089614993
-0.39730919210413046
0.12055357734678497
-0.44995917403959873
0.23191873024060275
-0.8173138135160933
-0.607322215894652
0.26748594853030727
-0.6038473654622687
0.3260009052073082
-0.04747181441193412
0.4642122228086988
-0.2940138574774263
-0.8542256046786215
0.28722041037162166
-0.6277281571714228
-0.5258164169614847
-0.849310811796112
-1.1297483538308235
0.40833364821241086
-0.741139774150419
0.6610157532876295
0.4316268897154076
-0.3638752985568844
0.3787429866844608
0.08208999572531289
-0.14603348872145544
-0.7422396622946088
0.12679989501202268
0.7203064533169218
-0.4454551963318405
0.1889955867538726
-0.2558098588016326
0.6617981087100673
0.6761269947194799
0.4545393594058425
-0.13058833644035955
-0.8303463173502686
-0.07035531354567078
0.49885694413563303
-0.05256762268029624
-0.32320671973911974
-0.8825800781100387
-0.790496639937042
-0.3663857599930602
0.31513424899785597
-0.8278392380978036
-0.29293597704106916
-0.515166645791305
-0.304140668569754
0.06866060247742821
-0.2474774397104626
0.3053228499967363
-0.8110724217674529
0.37805897830520396
-1.061862020227766
-0.9146028848006945
0.5360734881446023
-0.26290557032380535
-0.6225218103743657
-1.0331743950022827
-0.19989127913247307
-0.17663961338129935
0.29015614905057086
-1.015233829296426
-0.702948810903668
-0.7969163825511535
0.3364896064917055
-1.0381960033384603
-0.33466660660317094
-0.6729518680457348
-0.14299973210773878
-0.9622792488399464
0.3393184332217963
0.20046281726180787
-1.0088741608937388
-0.5479205676110053
-1.0624225500314082
-0.6034473866700416
0.41652653174461457
0.6751024529263654
0.317520742451392
-0.7478198249251834
-0.4944851245656027
-0.536432306689351
0.044917264130097334
0.31361188925755334
0.7139381729366799
0.69938919600936
-0.13841649099202538
0.5115397746752056
0.6898344820444714
-0.3240612382011053
-0.1971163433109427
-0.08087597539417886
0.10771870547791919
-0.0495506339422273
-0.59840596566722
-0.3776484256412365
0.49090018673783
-0.95459069586652
-0.12597735680934863
0.03665782219101167
-0.15220559042596332
-0.6734870215034788
0.34590659650663613
0.6517302328041583
-0.7571741037333828
0.34654823178664146
-0.97660251620919
0.68602217284186
-0.9381526201461029
-0.951706830075693
-0.04705623890340298
-0.7779937903832042
-0.7418336476113203
-0.723693852490018
-0.938462724723044
0.4085519234533045
-0.11622179782123333
-0.4585280556746636
-0.7533256493477039
0.4394701526244351
-0.8856745208165959
-0.7990732617993718
-0.5555440408733487
-0.20289263107881833
-0.06052088670705608
-0.10136183526269371
0.4137179039640342
0.4642120194724532
0.3821562985402467
-0.9678187083349122
-0.41377452033396506
-0.683450200716864
-0.09095886456602523
0.03676907471678212
-0.5980698684607775
0.325934031636423
-0.1543471686998352
0.1523277921011854
0.8675335261902835
-0.3687206260490752
0.20058094061810805
0.1474383763609986
-0.4028159571512714
-0.30339878663956366
0.052346968556978325
-0.31419561121736306
-0.8395525302233577
-1.095940820555211
-0.54677664466619
0.4610764021614253
-0.40747526319119104
-0.14619329563711195
-0.17800452017383273
0.5777496800136472
-0.8789272197234905
-0.29532003182177474
0.05379587921262825
-1.0567710924916551
-0.7087535463028292
-0.5404015303908406
-0.5605953686797539
0.23978834376360914
-0.48368019883102253
0.1936466726264376
0.5734218438615205
-0.5923194197065933
-0.40650707235526456
0.18258225766318992
-0.7397787167584864
-0.406603281578043
0.7748530020996072
-0.7499074251805379
-0.5763756626464934
0.2854278044710912
0.09989057755448655
-0.40458524327810264
-0.19097986594090527
-0.9932014038906126
-0.4114581137324843
0.7599485295461991
0.2699183747204113
0.074774291192969
0.09677747973465545
0.8266775945430866
0.43530507797806034
-0.4350024946374153
-0.27113538826709005
-0.32412781052923106
0.5557346042111909
-0.7306363645078521
-0.00225155981156106
-0.1897050854481278
0.8950811939249684
-0.4456698327102272
-0.34951134415431234
0.3818524454171082
-0.6962629993416225
-0.8127701312213507
-0.7226631399066634
0.8332638792414389
0.847273134714153
0.034325428223866014
-0.6738810083985296
-0.08801447481349911
0.22497995981730645
-0.43557572127780964
0.2852592911618553
0.029552390659341538
-0.9557068372146377
-0.43181269599116257
-0.8908415221428847
-0.9346595233623983
-0.9988102626883286
-0.6400462995445384
0.045529968787164386
-0.630056211360442
0.30453713389232495
-0.3937599565610141
0.14054017571452207
-0.3675763931995498
0.4309961408879955
-0.16944245118379694
0.3981881334312858
0.3850312537602076
0.09021628134828205
-0.5021615439120677
-0.4988912491242872
0.12206635860967514
0.1770466335839365
0.4513365876667937
-0.3271793440419967
0.022639888385789654
-0.651486571156842
-0.21963372925152233
-0.09410946385243832
0.3062403462662093
0.31251973978785147
-0.2599376434795369
-0.7454992278224737
0.46061994252797317
0.3019263811512268
0.12407252852599034
-0.35377481008418304
0.36848170305942607
0.1816161128303074
-1.1318491164544828
-0.21064188932324107
-1.007245580380457
-0.24740137158068834
-1.1887457145181657
0.5794721765846957
-0.12426910711792552
-1.053894353225562
-0.4298643298559016
0.0025154447016255406
0.33371171313025133
-0.43466093104982106
0.5798055531655883
-0.3881949180352598
-0.09599720405341994
-0.30364091214227307
0.4990382616281478
-0.4187906712006515
-0.7976929924329412
-0.1574911136293029
-0.301745485552178
0.2774582311780496
-0.1657244217775057
-0.9995065974941229
-0.06710516600234223
0.04683385196345874
-0.5042706817107612
-0.8075409386796891
-1.062733797419839
0.5489418222927938
0.41500718554637567
-0.028069277965064796
0.24744492222367837
-0.035896502225056075
0.32799387791194895
-0.44729600815576226
0.1681775269249791
-0.0890689002257509
-0.7310344222471742
0.24111408257952963
-0.7951916754028655
-0.256679214873359
0.32775518230853845
-1.115652138839007
-0.5073627687457011
0.4984495639864265
-0.9334502414450601
-0.47548551084742113
-0.8321546005843538
0.5152081225948172
-0.278853876069631
-0.2634672481915531
-0.72789099244005
0.0020844008519674134
-0.0020055969169485675
0.5154044597118822
0.5861858510773451
-0.4911434882654192
0.019652223877910394
-1.0236790300542864
0.6369798995783441
0.5079207741652553
0.025592374962007634
-0.007275983685474507
-0.8220686388501558
0.41138469888668017
-0.6185263759374732
0.061169721779447246
-0.02177145870111874
-0.0602631471177089
-0.9509574387538724
-0.8676532898841784
-0.3602176015976443
-0.713149239668995
0.20808567471464695
0.23916140135019734
0.47328622274982807
0.6091886413991245
-0.056448432062925435
-0.4605372839721527
0.7153308573614862
0.1349757465011044
-0.6113193592758466
-0.8644582325149529
-0.32712575050035514
-0.007100235312834609
-0.39367583995440575
-0.21549106967571105
-1.0140463305339262
0.11434893207663846
-1.1029096642563931
-0.389390606274959
0.5152882673954166
0.604800518614458
-0.24779868745934264
-0.606823618748259
0.11142447730452584
-1.1930142898559382
0.0570388621038524
-0.5431486078995078
-0.028647587802505068
-0.9326097178028674
-0.596479965192909
-0.9562780775486294
-1.1555280874458664
-0.8127590951735454
0.3106086717499127
0.3909541994131306
0.20199399474767396
0.176580916849647
-0.05983948588058073
-0.7023115704312956
0.2084294149865314
-0.9017322337534514
0.12144831732051639
-0.2254343654011265
-0.41877075752291465
-0.5352283428403181
0.4792034561886317
-1.0261730234543
-0.36958422916096473
-1.0333279362924883
0.020595136154830884
0.3643562946582488
-0.6708349888222439
-0.4270838580862853
-1.043058437467305
-1.1961202592883835
-0.6321277490682393
-0.6493119773843511
-0.04549995003781219
0.5963297612011964
0.24555788986972182
0.18812470294223446
-0.7613350444318839
0.011982528810822794
0.3266269267267955
0.42821919304316464
-0.9686952135670641
-0.16058621933945189
0.6670822992921587
-0.1142691465198311
0.4421565885524161
0.519024508515747
0.5511284287841133
0.6315077065656896
-0.3002607940889294
-0.7639653417201357
0.4967206510166821
-0.31212477091706275
0.05972629088284325
-0.9651852461708788
-0.05075128590993137
-0.37771283466103717
-0.95466927544819
0.7139056024816635
0.5233638952956762
-0.08100232767049137
0.2374385015230296
-0.6277585824260005
-0.45976156894541637
-0.5933549889967078
-0.07579361574435808
-0.36490312623057586
-0.049737227966150536
-0.3707345171666373
0.08137967652740713
-0.5550003300482874
-0.9256118511618782
-0.3704343484816901
-0.024307387423527973
-0.7287911982657777
-1.1809554310609103
0.1667837931926534
-0.35928882817852775
-0.4251140766200651
0.5652585926905278
0.07017324144222417
0.34434723309369175
-0.37669946494225526
-0.06986982385156083
0.006188700640742152
-0.4365836873751467
0.470727995891067
-0.9781886247127092
0.14309727499304586
0.1883301265483744
-0.7784824163157295
0.21660819226791167
0.44482184173022854
-0.00804424230899177
-0.5595383797323454
0.36148627557745056
0.39136128068042836
-0.8559471898762584
-0.4879094770144934
-0.5053833334004293
-0.3444829070592363
-0.11719743200519057
0.24034982445925626
0.42273316886826906
-0.04254632092954045
-0.3568554577627605
0.5798501746628336
-0.8367770102137755
0.09576377228352032
-0.4145885452573756
-0.2730040761399699
0.6803620964796666
0.3830602529543275
0.2636297690833346
-0.7594478636120942
-0.5513481646515898
0.08907647215644966
-0.0088040779812013
-0.07008926746462722
-0.592222079164263
-0.72508774008167
0.06384119440853003
-0.8263851538840495
-0.18082444204043646
-0.5250824866398331
0.09069527153670882
-0.30953375774872344
-0.38007209334215825
-0.8601522909894533
0.13373060540513643
0.26321204428750566
-0.5287773611886539
-0.19425039789297005
0.5450212019232934
-0.771749404520148
-1.2531107381684254
-0.6519728290516669
0.06826083846904957
0.36775215873297923
0.24225797760592416
-0.550327665572482
0.13526201497609014
0.0939376908791236
0.20165868084696986
-0.20932882684678006
0.1966897210330532
-0.7788662001602525
0.011299669105471038
-0.47492729205602474
-0.7096291620520465
-0.6828432079818302
0.5891960541550448
0.12988387174832533
0.10702564411818795
-0.4975982381821013
0.5129713952687556
0.3826218739026907
-0.7103097836439579
-0.8615327114914504
-1.0505782766893332
-1.0128440815211945
0.07058208215961022
0.4683152361876219
-0.09451479013085944
0.44669553540566326
-0.46959015854839126
-0.2557736885102582
-0.48939403593326775
-0.8528704232513071
-0.8833966022312307
-0.2055766420399186
-1.3114201755311752
-0.24103573972523723
0.38281489028823845
-0.17671939319412688
0.4758945952699397
-0.9184362750272325
-0.30621629246123494
0.15350788040450203
-0.3302099924483829
0.042668785986106905
0.03725900151295494
-0.4979567569574226
0.2800770836027249
-0.47983218121033516
0.21777551446733856
-1.1882982089992977
-0.5270233009572619
-0.437190873192328
-0.5127803989039749
0.26577820481464925
-1.0341593524884398
-0.44689722695332595
0.7837702224720311
-0.18147984121214528
-0.5463785424814807
-0.7159659083364546
-0.6132043106923654
0.6768655349530824
-0.553379276507924
-0.6983700584715532
0.016927999339492652
-0.08835097290887699
0.5276385369897962
0.15561784041165053
0.41045577594990096
-1.0283923409519748
-0.826649150424488
0.16239316034034584
-0.22429925172080772
-0.32582189356632046
-0.7515534821298272
0.41855652286169537
0.45103202762046607
-0.8932796538380119
0.8531624076203408
0.5385817907794511
-0.42599436731264145
0.06439145309286136
0.5730633231003103
0.2154597816744356
-0.9262751105239362
-0.06024220180522721
-0.33494521764224044
-0.3962897617039386
-0.18647287576683869
-0.5428599338074821
-0.3694215372320301
-0.4305223139681416
0.7125045533609945
-0.43532021525414866
0.7595230399262586
-0.1975777767296115
-0.08647696313972006
0.15253963569124948
0.46617239167960084
0.3909522046550373
-0.26568559994808566
-0.2509838899086585
0.26969176106573556
0.0033496299435023863
0.5015339148894771
-0.5700880101610197
-0.6702353628918848
-0.13651199597995425
0.07110871387186808
-0.712337216572031
-1.0098595815412121
-0.7191210223253415
-0.6405295328626736
-0.15179198644729686
-0.9027275792097382
-0.07665203675125497
0.7671103317376595
0.07083139149403758
-0.17797152329077678
-0.5829532767610419
0.351571816746344
0.3471337762249059
-0.3798058939054114
-0.7699858478243385
-1.0036359114231808
-0.8673119939414307
0.05119235975046059
-0.2476584999700378
-0.8287633584134472
0.35152298798799875
0.4277859007045248
-0.6604981002510496
-1.061778063696992
-0.853101484617706
0.7319499677332935
-0.5518747575641989
-0.6888646505038653
-0.9635522559871451
0.6536228591960412
0.9075351266127774
-0.36386344993715425
-0.5488469165983646
-0.6201960432309003
-0.25883100527312397
0.8621636320777929
-0.12959866866642794
0.08699315666710226
-0.6062611167911404
-0.42479782477390343
-0.43435937074209224
-0.22617692437529327
0.3204424005600241
0.6086159053231582
0.3010338970198349
-0.8287822863312371
-0.09457747370362309
-0.8633963510082451
-0.7880754254431905
0.3175875033780388
-0.35380128853803655
-0.5810159351117677
-0.43555561735987647
-0.4158017590320038
0.29516116247155255
0.17105246259330614
-0.8178723140054424
0.1673138963716924
0.02193276412060652
-0.2084845418121199
0.5519374001158237
0.6572239938546315
-0.07961930581237524
0.2931074855170071
-0.16353111576799284
0.003719418762508012
-0.06068431159333451
-0.15411678275207008
-0.04959012286503101
-0.4120967388358927
-1.0559649679541832
-0.6806349418326363
-0.6381331316358987
-0.9513416274740784
-0.6530899589334519
-1.2012135506773058
-0.7206412130946235
-0.1917855020300379
-0.09949758943511967
-1.093238868404181
-1.0651740362833326
0.24519882299520024
-0.5578007437434408
-0.5977938448271165
-0.22453882910229994
-0.9649490201901284
-0.3016654616778301
-0.17559230975056517
0.5921296132864283
0.768071396777975
0.3056911334205576
-1.1240487513876127
0.6783013142213822
0.1945209253880147
0.7455850101858953
0.3680316486730364
0.021468825048561038
0.5612970867863145
0.1306552299733754
0.2357053120475811
-0.8045660982562264
0.12496364446117178
-0.16929323270009575
0.5742441312840312
0.045802333395389985
0.4902205083586754
-0.16258851832212537
-0.26080957192626447
-0.710365201735961
-0.26829578219008615
-0.5744119862472662
0.263435837181795
0.3710049839829843
-0.9666734755509927
0.018940886565831618
-0.8005225728152023
-0.8862174808550617
-0.8717506155079874
0.6881389735624304
-1.0633614003989558
-0.03740433666206445
0.32205028850706013
0.7456174434684474
0.4993339232846917
0.051723558955170584
0.18789909784497855
0.13371741023459882
-0.9470334456264128
-0.38385979824396943
-0.5461980408353392
0.4763449100913033
-0.7125896590057076
0.2883804996023652
-0.5352861591657911
-0.9366365999635635
-0.0017351613413058176
-0.6602798808519893
0.6893263919675242
-0.15003500286918436
-0.7277616295388704
0.3785135028396767
-0.4267837836420198
0.3424372079745392
0.11818630383115243
-1.0153505553656312
-0.3259288007062625
-0.8159267262577707
-1.2085053586417986
0.708009301638992
-0.33810615648280196
-0.2958841672407836
-0.05515284007080353
0.2843680631099829
-0.7425222311577592
0.2649158635822271
-0.7905597809020811
0.19642806484845945
0.18703574799661427
0.46977248879984224
-0.14897651124311403
0.4213764653773982
0.12236915256921073
-0.4709265953339918
0.519332316201039
-0.6237395513068603
0.08220816560687763
0.3745321034063769
-0.7326719699043914
-0.1298572047395838
0.5229485442221209
-0.7443221183171869
-0.7514855187131718
-0.01921584693989158
-0.11409499905170316
-0.2988188773189507
0.5463415959888623
-1.0789632243631773
-0.8826608831600626
0.402662095733915
-1.0198555222652426
-0.38257608504639795
0.6010249154614095
-0.4436662150131824
0.7784128284789285
-0.7946904817777638
-0.9543568380823078
-0.8267659524319975
-0.11599656867999397
-0.7772998648143473
0.3088415666431872
0.5808330566719648
-0.18831755051248747
0.7118320693909165
-0.32135626057444433
-0.16348345590320998
-0.2463683194143068
0.3647633325321235
-0.3494101202166599
-0.43741975493487356
-0.14126559852582962
-0.598078732097774
-0.7238395974946519
-1.131247477191161
0.63130143280517
-0.881964037863542
-0.7905520441803333
0.3539490020257005
0.14437940580709815
-1.0355705143283223
-1.0703266751510256
-0.1777683974697985
-0.994097853342282
-0.9660001703129665
-0.4658438550001583
0.4972339699292091
-0.5042406004720235
-0.8894825153069491
0.4804131438336191
0.3394053644899664
-0.5405561784591292
-0.9909884123634879
-0.32287522611384345
-0.0818850916560444
0.509350091634418
-0.6483117353226402
-0.5811918104590492
-0.07508552132889117
0.31156199035526067
-0.5170504293837547
0.5905909343869814
-1.0595796807778826
0.640959515462066
0.868664724283808
0.06289003438412043
0.36776100596209327
-0.4012261121167352
-0.33032545569612526
0.4597487426243853
-0.7796815437323901
-0.22692155876833828
-0.7849559844897828
-0.6656332336741146
-0.033737493104716486
0.34253536297158205
0.11576350847305926
0.36114822732580015
-1.128360858935841
0.7018829722552121
0.5823972919504256
0.11597372147841084
-0.2918364850062017
0.30465161274599345
-0.699929354925969
0.4282573250630656
-0.327100830989541
0.14571971086036642
0.5048299049733479
0.23961794430123362
-0.2820558518478583
-0.9244996573677969
-0.98351431718047
-0.27708985089787347
0.39387145908602056
-0.23261908124932645
-0.9919731449587134
-0.23002327891904875
0.47770190762675596
-0.5860296670859148
-0.08535293433528152
-0.33964129245491437
-0.727440809769665
-0.42745800574356063
-0.22277405888846666
0.2837052409070689
-0.6218763021564133
-0.5566633336347909
-0.9243106692857536
0.696043685586755
-0.7952180360221925
0.42645105881382156
-0.05818624200099298
0.17076012243583602
-0.6598373808589851
-0.5164956482870255
0.05360574478586287
0.12356624822927903
-0.5333622231050962
0.060289978816379035
0.454542059330305
-0.592681825094254
-0.1275124938487151
-0.030732739782485148
-0.39309787756624015
0.5447962040178832
0.01882960774592584
0.5118046788258104
0.2188629928509721
-0.17833044898807415
-0.20614923816689543
0.20103963155850602
-0.16752586586218365
-0.7686966575041569
-0.680523457097623
-0.17754809941404873
-0.737260595499375
-0.20278371258154293
-0.8348174891056591
-0.7029988366467183
-0.34995500808058394
-0.8717786203864578
-0.8648628785804748
-0.3520647339076211
-0.9923674578559636
0.7367040718934855
-0.7308483728522053
0.6215663676971209
-0.3325319505944931
0.611669211692993
0.026888228890157774
-0.623082445818097
0.629993934705739
-0.18713693801545492
0.48162133010736474
0.5785481149034729
0.3741716061805149
-0.9288885024478739
0.6617999998424742
-0.30039341876422826
-1.0272793506299571
-0.450788912314963
-0.6614467147642678
-0.28579589825336565
-0.14789766427541715
-0.5997579981921571
-0.4396997850347943
0.7911014413681805
1.616035947232808E-5
-0.1374586784268738
0.46346126640782176
-0.4773121023470261
-0.5926767859941509
-0.5283866273331845
-0.9230314504984073
-0.39225263776847963
-0.041467249222378245
-0.25961948225537335
0.25482885144149786
0.683047595188537
-0.052992873243630174
0.42748483736302334
0.20493527362649125
-0.8600530799494981
-0.1818793667228261
-0.8437376580156212
-0.45798830404761554
0.5031995738956508
-0.7242672615756026
0.7487413638248875
-0.012432137973834457
-0.6793048209602919
-0.5310755213865017
-0.6687993754627621
-0.6327920993098544
0.3726802438536661
-0.014766248113166722
0.0375075774901864
-0.17312531745395307
-0.15326352349819497
0.7232280036806584
-0.08993004872675481
0.38949274089175817
-0.2032424942491182
-0.31029021245440574
-0.330966208941353
-0.7484433913601434
-1.0198834276858
-0.603968233430122
-0.373108129753281
-0.1452212936542999
-0.7320821645654517
-0.37046136865995904
0.4506617309393468
-0.6746304151920867
-0.14955823402468554
-0.05352330022014741
-0.2053121940514393
-0.8181855586104022
-0.660692378899097
0.07837453703116347
-0.03687082780059049
-0.04829592344183923
-0.8249946353612817
-0.1908055794216133
-0.8833947016525987
-0.48033030718984215
-0.9471027827285325
0.31677253552428797
-0.8570178811275507
-0.10186718112614128
-0.6500779743247744
0.5734570398363685
-0.3139687255808671
-0.5510577960865114
0.5471606946909091
0.49479622043433985
0.3201540224000319
0.04365804786861147
0.01580604195745259
0.3358893439162735
-0.8036034752595693
-0.059338180084500335
-0.6442340354173083
-0.4875431719437528
-0.1058454900191793
-1.0776501982715208
-0.9531777942243504
0.19816723275740672
-0.8297014300567117
-0.6771449338196922
-0.33262666127918594
-1.1116935243103194
0.6045736135075982
-0.24851470934223974
0.21421119989145787
5.494056458783779E-4
0.6485084268177451
-0.39697715368711933
-0.21866636032156875
-0.8270566281232032
0.24148370329064014
-0.721664411720612
0.5772951105102517
0.3983308897235397
0.18799860824896794
0.08347088541360635
-1.1394598194229684
-0.018602008629630202
0.5463909435631696
0.4016641846534692
0.2726342240118641
0.21357276646289383
0.59125883381975
-0.2828908945967763
0.07781357741430489
-0.48247452809601865
-0.5785880110292178
0.3565904513261832
-0.5965601216599141
0.3908909024156815
0.3775450055036465
0.5112058505441403
0.20907042759954225
-1.0496040799619812
0.3620295409432232
-0.537391515395818
-1.0208306013364628
-0.7655196995030609
-0.7869446405480711
0.5018132713493043
0.5883640241414756
-0.08154125254941724
-0.5250270823847296
0.5037458570455207
0.3603959281332564
0.16552172906061074
-0.36532489696432535
0.6243985427645785
0.14446741962152648
-0.14703117981135602
-0.6160806700576469
0.03350155950585783
-1.1625151622944256
-0.9109655571248648
-1.1359795444208127
-1.2466201390500402
-0.46381625670985466
-0.059670335855789125
-0.5698029263584643
0.6133288092411202
-0.08884780683502119
0.25953310585725153
-0.5963206909176092
0.4469905267353904
-0.7633899514031991
-0.9096918626207602
-0.31089333850329665
-0.7602996529613173
-0.31071549337101273
-0.6795940071837611
-0.27255024636714276
-0.6114525278805895
-0.1583310848579283
-1.0151306681253685
-0.39067889895809227
0.3930547384188682
0.5396272421604895
0.7178573145096645
-0.08665123054823397
0.18808380762939556
-0.3110137373437264
-0.4976823401404141
-0.43265392980169637
-0.27513784667074725
0.13488649374752237
0.2468997883161278
-0.021854678053954028
-0.6081889147064086
-0.29528869896273635
0.118180448474909
-0.7389636946922269
-0.038432201034409225
-0.7053480502226284
0.08361797871715593
0.30613070418730903
-0.08791965649676839
0.13737049285677913
-0.6413059579764927
0.6805008276210395
0.0465468276202267
0.31649386858357853
-0.9636129456215322
-0.4060248146177376
-0.29648723224122686
-0.3070930435058832
-0.396781283834676
0.3523833117667033
-0.04601284766772301
-0.23424774234663417
-0.4630489017272286
0.15194437398807742
-0.1842777087818348
-0.9173614236620502
-0.41954978328542386
-0.9228637242402371
-0.15233855253912706
-0.26580525210490724
-0.3694485957813557
0.4681171323571753
0.23632654065735714
0.3348422913748489
0.5020062556492821
-0.7585415025217339
-0.8453065332074374
-0.7709725919639726
-0.9283932355947548
0.5224289976748131
-0.6322480485323925
0.5589609884060025
-0.5540591956509799
0.18042987281296397
-1.1307857442241664
-0.671616878758803
-0.3228261576298041
-0.9950484205242157
-0.36709878295264514
-0.7282519448572864
-1.0770699112185877
0.2606061795113673
-0.5933744671009975
0.13769819559843982
-0.5887621350523355
0.35545061996740196
0.360090696746582
0.5793003942139408
0.20110558217912364
0.25654126118224724
0.055051156076185714
0.7301566799228674
0.1623716085341065
-0.1705583005869516
-0.49487674229237316
0.4879186734901613
0.4647551158071557
-0.31593305178841613
0.023862463488457802
-0.32243870744249203
-0.9727548725977466
0.42416105626290024
0.5935572381753347
-1.139681149550017
0.3693356370268614
-0.014273603019202637
-0.15266423922042954
-0.14366081973482064
-0.31889640346748965
-0.876684183663438
0.1769738201532112
0.6158922232681754
0.2690245880171679
-0.769452804220393
-0.25921096603459515
-0.3052268610732854
-0.5952222302105825
-0.30236781908920685
-0.6981083238320106
-0.6206239549309196
0.6720112712744706
-0.6534615741301983
-0.6186366825511924
0.539175219116197
-1.1651971381865027
-1.0995812525543591
0.1265502892127912
-1.0163223423718408
-0.12684193070596514
-0.945231089998948
-0.43376177220207496
-0.20580397829738775
-0.1726533226704232
0.40839277928024537
-0.7735939951491468
-0.7209876979483681
-0.8153607238834535
-0.7725914713282069
-0.8304825028431938
0.1678906695056994
-0.1564361159491299
-0.3096585041689247
0.7069616821706076
-0.7517132061369699
-0.6102581003108793
0.6722662683942763
0.35917875753841755
-0.8531456493083529
-0.7711842489062138
0.20828515194135785
-0.3489660747079338
-1.0115277677474055
-0.05496241709337974
-0.6074127466745025
0.32691528405725506
0.5966660733407491
-0.5241037222925439
-0.4164836219168129
-0.418654563290835
-0.3890809921918148
-0.4844142385424146
0.5372483050533404
-0.6011447660527016
0.30563135526643037
-0.06447568552467124
-1.0331780567965256
0.014996218934092483
-1.1156427347233127
0.24485721673423735
-0.5556402157091864
-1.00594849755894
0.06430416806311978
-1.0309066035175343
-0.053922832601779554
0.44015539782956
0.4597969959325697
0.4914044463272544
0.3166627835441724
-0.555384735256905
-0.3099883003331293
0.1525998916477729
-0.7175426444512424
0.26823760312520156
0.6476982858862695
0.630524348686287
-0.8082868680396276
-0.8110490567666415
-0.20440148239029732
-0.2916008555410411
-0.14449520743551028
-0.9490492641302798
-0.7016065240533026
-0.6866774316456418
0.06187366336991214
-0.6107131411153608
0.15426954904701393
-1.05995281309524
0.3277209800131136
0.5107527268558018
0.042834259438511796
-0.5620313545897442
0.43227993752895155
0.33723131024267894
0.29178554234485504
0.18782677017521668
-0.4418768831048525
-0.14342044695465653
-0.032812561641792366
-0.1714695397204169
-0.5441182115056529
-0.17610187919168238
-1.0763623329744485
-0.014869161272627504
-0.17819100649685446
-0.7155932655147585
0.669315800842846
0.23117964461884555
-0.07307944552040746
-0.22127576301882915
0.8551026864721282
0.08224980439855734
-0.5820361514605066
0.5349860563592916
0.24820923206637116
0.08406712936435987
-0.7747835420267947
0.48851564151153287
-0.9101955500418784
-0.5696386059457209
-1.0609171522374086
-1.1253645141337814
0.6812007030222811
-0.23732833192399289
-0.9129378943986178
-0.15671902458343992
-0.7911194243400582
0.4351411275628163
0.787650349016169
0.2458402177281025
-0.11221460065800305
0.06266174077019573
-0.2737757577548737
0.3648559193108749
-0.7066200623119699
-0.5058295435130142
0.19519961553392748
-1.0073020858001944
-0.7562105470731516
-0.08611910172894573
-0.9172973013958635
0.6600430703277581
-0.8705820183475105
-0.9377296006391654
-0.9035944508181045
-0.4726473357665807
-0.5990027212696172
0.3836993562344483
-0.9009260121532571
-0.5246667569634943
0.49541238669194143
-0.43770769475167937
-1.077774256343562
-0.878497059700621
0.8829314652212269
0.6661329918785167
0.489201074756471
0.5703437171155947
-0.28468182628231115
-0.921106200207281
0.7767501915884407
0.7089786407532901
-0.16208352467888124
-0.5960575175906813
0.7285279440679994
0.19843307453756284
-0.6666170638020625
0.3718406966392614
-0.7892024426075749
-0.794925392505874
-0.07955984089684956
-0.7702935903362026
0.27179551390597084
-0.16760793107524127
0.44649853918264043
-0.3955314485205595
0.06850977059909952
-0.6785584184821248
-0.25757721209721335
-1.053600781229441
-0.7856653508066924
-0.5313939115038506
-0.45142674329862315
-0.46337958722724987
-0.7760323367807903
0.5720674469170604
-0.4928689609011029
-0.9592193698694967
0.3712637392797125
-0.32193200983388204
-0.4801169974969777
-0.36192633076362446
-0.7252444558842035
-0.17557626473892962
0.5728006024870075
-0.9943377918208053
-1.0186218267133411
-0.0757928501727196
-0.060856934274422216
-0.5634109425977789
-0.2576773286358983
-0.19177862948998883
0.31717956319810336
-0.308121061324198
0.6777964804890402
0.03737761368967315
0.7090298690887263
-0.8643221644719398
-0.4235334517631461
-0.6779312046928034
0.8073405701857596
-0.17546326144848445
-0.43011121493802873
0.1654277604281536
-0.6818064371289122
-0.36010251973177826
-0.14237280529008975
0.6908267738119158
-0.2518499686712586
0.404465061200317
-0.04508228159283627
-0.08871865177016043
0.6485732033203456
-0.2485680615717142
-0.03054096725291194
-0.3504583163196403
-0.778075020113366
-0.13055213725528259
-0.4068325085354769
-0.21138294190261708
0.4776280932581599
0.023986117364002996
-0.7605423280052191
0.02231015204857078
-0.7395029965771062
-0.2769174174486547
-0.2829555426978248
-0.744352257397652
-0.1229019992285613
-1.008550510762771
0.12789773771416393
-0.5652375400177728
-0.397713627206938
-0.8352374910868928
0.09941849360636629
0.40124007686436847
0.6355883219056421
-1.1436332706361065
-0.832398432115923
-0.2968020813494831
-0.6851445614436156
-0.36683589423702123
0.08737500674108581
-0.5961497724482727
-0.5702442402294577
-0.03853542517499459
0.535432322430062
0.570985040909879
-0.2725040898811412
-0.37697167934315806
-0.4283418171059463
-0.22972356068650102
-0.14546672913167677
0.3671282614114916
0.5724906967193321
0.11685962802686406
-0.11101958934977668
-0.9819101640755993
-0.3590383974030426
0.752972169108434
-0.39691196464074185
-0.49278876936521243
-0.3925762490487124
0.0332352012872177
-0.6170345988499937
0.759097192853472
-0.1954270288658091
0.2210287884957199
0.19108858963735426
0.2914029181214216
-0.6500410830921189
-0.8832946765987498
-0.9006045923597804
0.3492657917336205
-0.6850574052537336
0.3835653129844706
-0.19811836051969156
-0.33877070849139734
-0.5214288068579044
0.09888938671304207
-0.6307256991428706
0.38577250045831
0.44074707340147595
-0.06470947594505201
-0.49292060224736534
-0.5441929528333879
-0.6004569227423253
-0.7797427798425666
-0.8605552982142814
0.09159802249842566
-0.7609366078157576
0.27255960396517775
-0.6317006814674443
-0.9169257360236683
-0.4511778632167982
-0.884070769479617
-0.9403876817381955
-0.1587263907459278
-0.5014718873908934
0.5756608503528656
0.2749851489820939
0.0902398578740318
-1.1194467816336373
0.43555042238669195
-0.34974405885378895
-0.051378886286628116
0.17025440356637936
-0.4806135109759227
-0.8215016477458885
-0.3174017225415489
-0.1937717059575605
0.40105618071277627
0.38922782094186414
0.5794427634026571
-0.663534170369616
-0.7282364862996091
0.1926240653371173
-0.3284388378155605
-0.6542291924935558
0.6810240103641135
0.4377891173877002
0.41879862903679776
-0.19932995072627055
0.1003607354377751
0.21423905388664125
0.1413328392989713
-1.262770691410516
-0.5250380203263364
-0.6726265651292911
-0.5742439989379368
0.14231153463384716
-0.2791783107174406
0.3291267887912969
1.3287881654191016
-1.1442877424671247
-1.1815479369337993
0.18773410807436042
-0.8813647388460035
-0.7263941234837538
-0.36198907471774855
-0.28997560349325807
0.31060564686164255
-0.5791435384481886
-0.8999621661993735
-0.6984289665171844
-0.5828638283602393
-0.3517545452589259
-0.8557059573185973
-0.31734104977558547
0.08120971391179306
-0.6713928282865226
-0.04949093694598765
-0.21201284574179877
0.4023479814996159
0.15179341419403095
0.05040432317356791
-1.3038352582136692
-0.07605091358777316
0.849852787649162
0.049851579570276514
0.40729865829700496
-0.2973597743260169
0.3806542315562858
0.7199844333175237
0.36912350966406876
0.49415493922188314
-0.4474576375485396
-0.1766440985182471
-0.5182602539960873
-0.4001118400502598
-1.0117784576965876
-0.07273616053791629
0.45645291008803024
-0.8109520109614656
0.571965134023867
-0.8512582009015942
-0.024607755606027917
0.3676396972599283
0.46862174395587997
-0.09842522539810294
-0.912037457104002
0.6219451486001139
-0.2753728246367091
0.16248213230349684
0.7487163856729567
-0.8299546651880207
0.2235826143161463
-0.7935739108240254
0.8039908435269038
0.19316131746462822
-0.5380333383663254
-0.8295367572099204
-1.200412625292368
0.5155583915953875
-0.3124941513576743
-0.9935259630076247
0.0012198833632418582
0.33317148050832057
0.6515485044922112
-0.3002628779703901
0.6943594115713586
0.07045257924662171
0.818836454831178
-0.8227720243605406
0.8143742057205338
-0.7931738617580174
0.2409587535445489
0.1658042963787415
-0.7396954421290693
0.3662050444608509
0.2651415390839943
-0.8090640091750436
-0.25931184373806226
0.5968161147505092
-0.9224163780626324
-0.7598537352253174
-0.5228652246332502
-0.3574289290344606
-0.887096571906502
0.7479890259927123
-0.5330110338773827
0.3351665808439306
0.4804570940472072
0.7480717769477055
-0.9148325313250391
-0.9099539407092059
-0.3153667924723639
-1.1094661183540566
-0.2932348616998005
-0.0525624861385509
-0.9619576071886597
-0.19182011569251375
-1.0669488897765986
0.49556706722764576
0.12470915926372371
0.18056171012075967
-0.18248595076282048
0.3316622095652722
-0.9143345907373739
-0.7333220020134423
-1.1372129181612982
-0.16947073605519986
0.20961600622830076
-0.9327061021156271
0.5003298045415765
0.42157261725603445
0.2829892251162227
0.29747977451934954
-0.7584164472600973
-0.07207819310563951
0.3709992578121292
-0.5965697084543101
-0.12200769425790987
-1.1415088784335818
0.018386509001431822
-0.3600442839423031
0.25898525953785484
-0.3979178387082469
0.6081818473832135
0.696543043341468
0.6855523804381706
0.8268195965098664
-0.3960833543776384
-0.668188046759713
-0.40394540274494484
-0.5479346875261422
-0.4681856931424086
-0.8707221796345972
-0.05162001932977107
-0.2131025060454615
-1.1457841202274768
-0.1549832659701389
-0.7432758718033851
-0.4363100239544512
0.017532206181202093
0.47310645257740697
-0.5961767922133331
-0.10675544437068676
-0.2708401074109609
-0.628900165914475
-0.39199405090236034
-1.0095267189240822
0.6680164247951632
0.36738781438989837
0.34386542755239513
-0.5135682244875712
-0.04611995901323361
-0.27097353367232135
-0.357657332776987
-0.2508585374859579
0.5799452747464677
0.5597450884307393
-0.3578464592788336
-0.1669864493531666
-0.6646053833677281
-0.4442370884050637
0.31431170149868387
-1.1150210452845788
0.6830866883259666
-0.032136708250426305
0.4027919181885493
-0.8960769451057672
-0.7077102050564377
0.08833607671611336
-0.22460809858800285
-0.5520445367152326
-0.28194819878678906
-0.3832936120992187
-0.933344013176628
0.5335223267197279
-0.2928110006279741
-0.720521670788961
0.23473717738163072
-0.20012736705195236
0.3998331769664597
-0.013737348458009172
-0.8781746561231505
-0.1523514341757146
0.2662548427944046
0.1014058661617879
0.44753650814071544
0.3197786714934476
-0.6407520724175326
0.6961596823092283
0.4761256211429258
0.0146871097731605
0.43659638237492404
-0.517368245436032
-1.1448335401904084
-0.730920755841272
-1.0137084483547936
0.08398524423122256
0.4032722853215848
-0.5652649059737004
-0.05257134176503367
0.09548553202311917
-0.9987678595653743
0.4280139893643073
0.5741841107720196
-1.1408786732792848
0.6824169133509884
-0.24707510289838466
0.8481707488452894
-0.5418855394636852
-0.9498443531940894
-1.0779305096293246
-0.03651676821456734
-0.09641092560730767
-0.27945970309201834
0.6729965448300027
0.0863617420854338
-0.32731626260516183
-0.9535177069229498
-0.7784125848722613
0.431235285439317
-0.8398078858721274
-0.5153733312208242
0.24863838495935914
-0.6090124838822514
0.07159683839355606
-0.5003971074635588
0.4460943037973791
-0.2008076791747956
-0.1981261094856493
-0.884728482513796
-0.15613879151179466
0.6769965302498737
-0.9453698521015854
-1.0890403567022215
-0.0097430652431097
-0.32813787305496894
-0.49789005106499007
-0.6812308346277265
-0.7284224782105113
-0.9531411967966767
0.3082475467252562
0.3679744449438246
0.746702245230175
0.3983878953699304
0.1275007199482235
-0.8281378215153028
0.004964442208367788
-0.332783732014754
-1.0445997471970643
-0.6725494926630498
-0.33038105524722183
0.12836778565765852
-0.020598864556798276
0.01995120261467306
-0.6217907759150104
-0.19574970141493514
-0.012869362919539943
-0.12953156188086318
-0.3148128952314245
0.09174289679273141
0.7001392444813115
-0.9914923847302477
-0.39163743771381704
-0.40588337565043076
-0.9641442904780722
-0.9930060515067741
-0.37932222446318625
-0.6122397659009978
-0.360922527201599
0.0055448371286557895
-0.5673754021136587
0.4222424251949101
-0.5425724558056219
-0.116728233264902
-0.436626947840013
0.2197169208179726
-0.8265969534152856
0.0019820155037495006
0.4817847336525075
0.08879360024175052
-0.5743163513401254
0.6789203610747703
0.3730927896370942
0.5231944980526662
-0.7102863649178787
0.5415339621486508
-1.0454890234257714
-0.025039872111168177
0.05501036993035245
0.3039372647597839
0.8571491869937915
0.6443456043505266
0.7414161774297446
-0.43137993198069524
0.4000081446090086
0.8834468755337579
-0.21142260538380467
-0.8801419362321221
0.046504760602226414
-0.7227270003263326
-0.5981278517092172
-0.485763854277175
-0.13821286135492422
-0.8367170834318072
0.29525556919646273
-0.7060040047919768
-0.36587510528026485
0.660410664964711
-0.26359544969165355
0.08562189455914293
0.13490006347449554
-0.07759223300939305
-0.007561806315631789
-0.284002552401238
-0.28831573091005336
-0.7137741423763194
0.07655095458883623
-0.9252707801045319
-0.7734773100045764
-0.12839508033315877
-0.4019738713700577
-0.8745635543416632
0.4738611338021384
-0.128313196506557
0.36324910019171175
-0.4358752487451758
0.39232906749258545
-3.132830873111836E-4
0.05150875133044686
0.6152776566577919
0.07742157468709124
-0.37646840932705583
-0.3631628644556637
-0.7403314823127793
-0.45218902877519146
-0.13888990180196303
-0.47381309625493634
0.3064935959330892
0.5222035423006067
0.5404025942107658
-0.21620180948640116
-0.5038264909199166
-0.4311433421402164
-0.32226897125365384
0.19433433199702643
-1.042276441851547
-0.8589846070498423
-0.3587311997724968
-0.2311501468924055
0.31914428597685024
-0.3261020151338247
0.006085858940489325
-0.1301464787138233
0.1111253506630019
-1.057447643150801
-0.267372037329275
0.37435811433524313
-0.4987789329880853
-0.5285337718400058
0.31539277859061593
-0.47167231817852856
0.08703212931669982
-0.9355629011876917
0.4087232497805024
-0.08398382268818211
0.22163333980752015
0.09315821946059877
-0.01633362943661
-0.0733299998135034
-0.1212761035390536
-0.09255783390828648
-0.8500726536842843
-0.4160464050913143
0.31309783192916313
-0.6871087876321378
-1.0672792396072206
-1.2964383023423371
-0.034518670408920094
-0.1820569110595552
0.154098634485976
0.2868356263023462
-0.07640690568927766
-0.5397887530348798
-0.34890793137832893
-0.9187920154778525
0.15298945227238947
0.2736241257553458
-0.40521492835749756
-0.6906547560397726
0.531714174703658
0.016176526261782148
0.1335589606990325
-0.308443478718678
-0.7847056802319589
-0.8540636370063767
-0.07646241709329873
-0.8669980317481961
0.2181469688653035
-0.4529081288505761
0.36884036642915324
-0.45907885577441276
-0.6522987982735942
0.6032838260042483
0.025479139445026576
-0.7974707501744362
-0.551786083808617
-0.5716539610699628
0.4872163049566999
0.3682937561272261
0.18631371437734148
0.011524862032964267
0.4151756960693813
-0.5880582903502609
-0.30092782869365453
-1.1329762077840528
0.2813799956797302
-0.6594664523327018
0.3963672768393025
0.5417772352089651
0.5590767290912597
-0.8100044337613604
0.18955042316021772
-0.18240677377823503
0.23696320911693147
-0.45344608189665214
0.3664478281079119
-0.8287663466342994
0.12529477599531952
0.05302885900329815
-0.6744476855021683
-0.7976599443069828
-0.202909694145507
0.21568504689879198
-0.6114925453188972
-0.9984798076126034
-0.23892245624023345
-0.5937508173435777
0.18801263959707973
0.5992856769824718
-0.11608996719311279
-0.32722290527600606
-0.8599818530314725
-0.5502687328144535
-3.0871052725730814E-4
0.0669955433102682
-0.8185605789674482
0.6392841710643498
-0.4770828975358677
-0.1053300940026443
0.004356158148978398
-0.6997273487136871
-0.43411492886585035
-0.4208328607482189
0.41461287489419746
0.4092777566398815
-0.5609596777903411
-0.7722710074397172
0.180146915628443
0.38847386950783247
-0.7731938557724879
0.4314900359802642
-0.391012600476425
0.18847301857372206
-0.3933557293439909
-0.08868739942570895
-0.3911053995215753
-0.9715185348038623
-0.4506644257596878
0.37960163034765826
-0.4630006045517792
-0.6112876653677446
-0.982423792848835
0.6712896354195667
-0.4118581610159106
-0.6674018180837433
0.3666959350142112
0.6183120406846792
-0.5517941878884924
-0.6904965633124821
-0.8982695409109721
0.18425578917729918
-0.8409901839002345
-0.477081141928121
-0.8340725597236822
-0.36749028908599024
0.873070488087519
0.08337977751811808
-0.8474729403041361
-0.014942206354038527
0.42913871700180173
-0.5382898059709762
-1.1529848738726136
0.3749262500410797
-0.18110331315137407
-0.08416574635788776
0.7360534019818399
-0.0969776204143331
-0.1901300495149963
-0.2906297013206123
0.16109661486080745
-0.05307300584832901
-0.5298470758025482
-0.23157235209167915
-0.34863663117570365
0.6178679426751469
-1.095703093353998
-0.7360075464638592
-0.9188483223909437
-0.25524743014621365
-0.15826297867924877
0.48185264662480765
-1.009071860355569
0.41081003943296973
-1.035616766261079
-0.5408986516707152
-0.3097318056138391
0.5897726311463936
0.2448483145900205
0.7668205309143444
-0.035438385919313545
0.15199099498333837
0.43422270217187847
-0.4013452424289283
-0.32587761318848574
-0.16762905828274685
0.630335446586337
-0.8011354594503038
0.14531446786685204
-0.8598752810532533
0.36699672821989926
-0.5881708137698973
0.6004844216546008
0.7560285088843636
-0.5100495386912063
0.16304618301460988
0.041402509989182226
-0.439335820793216
0.4830317919471103
-0.43251621774679333
0.18822625168552773
-1.0058075706889977
-0.630803491994347
-0.1781988933682007
-0.19506697524569375
0.301937030229758
-0.37640194326449666
0.06143376938469477
-0.6819727412404145
0.20633780311003666
0.268035292027191
-0.6505271958195011
-0.8972128854992768
-0.0723032862854039
-0.7876666690045815
0.357783604475467
-0.606662437596326
-1.040880293369768
-0.4811581045967573
-0.8786557051110386
-0.8404213289880584
-1.192467909282629
-0.43817702594266095
-0.07535844178875065
0.5507330859653045
-0.9480666136060214
0.2692765062557299
0.30554791205867465
0.5708592736456155
0.4030376415881422
-0.5587559252689617
0.5862981958313466
0.6288823913753229
0.46828186693046026
-1.0021621225502781
0.10375603459880954
-1.0498449633427298
0.4197174077689483
-0.5351690987082931
0.3124847353298885
-0.5929215212196104
0.6631897185955554
0.2470468069451938
0.6834363680626336
-0.7846390988814007
-0.43200966790346434
-1.1177205381093271
0.5942522823599518
0.2687807044290674
-0.5424293435251495
-0.8326907543384935
0.5597348182831945
0.26994740026595143
0.24165327337013712
0.16139532534241774
-1.0613989170434484
-1.0370747920032357
-0.06870109697584136
-1.2046132050953209
0.5527247021265413
-0.633703456731153
0.3538923613056415
-0.9980081814663074
-0.8108545510966261
-0.17954526112103814
0.5621882766736023
-0.6703894763679333
0.26879876198169705
-0.4447186289962406
0.20093217027378277
-0.4354127156725242
0.04857613281622055
-0.3934881395893965
-0.35419258032021483
-0.524037263784014
-0.854404506447398
-0.6155148032960353
0.633261356114086
-0.8101083033440671
-1.0203052047644376
0.49255802380877206
0.5648949399595325
0.03351672299690045
-0.9149370790029789
0.38950150536622297
-0.13170259292935904
-0.33195318655610057
-0.5983491846092989
0.486378445844105
-1.065427253885086
-0.7843760127516052
-0.8009334257491202
0.4958058593048732
-0.5422996035884851
-0.6251075111788681
-0.5501770505400825
-1.1102100421267946
-0.6970176124162436
0.6504276395131428
0.6502679579031957
-0.16440209052008398
-0.30830996022940843
0.4447436663983365
0.6819914896654531
-0.6110233071649336
0.08563916863146263
0.04660735063745383
-0.9473149546568054
-0.7303154650057491
-0.6694329553350652
-0.5446957549900999
-0.1186565400798563
-0.26672244610294377
-0.2607091755251511
-0.2647690151727063
0.40886292114701595
0.07038654542639605
-0.904357725853337
-0.5330683644649936
0.6551053974999062
0.3443296426594813
-0.6139640093417125
0.3578182181216957
-0.5592538988444603
-0.8647425360846235
-0.9418189224119952
-1.1370285152736568
-0.8633187872276266
-0.04447117738394701
-0.993501106795712
-0.5175508642537247
0.3345832710981874
0.6583445344842985
0.3008213031489454
0.24743657256056306
-0.8978486412571418
0.006942738330909783
-0.28889929601284187
0.5062856533933261
-0.2818587762519766
-0.813502033104556
-1.0942622071470987
-1.1079775162854153
-0.6327278881670569
0.6242265910260524
0.41421534087021006
-0.5245588223993725
-0.3997912942762522
0.33012939413476633
-0.4317037302202671
-0.012011321976554365
-0.8403782672192753
-0.499793851383752
-0.8869037414684834
-0.5897223993095354
-1.1134692254195058
-0.40963334072775165
-1.0005298955898583
0.24029192643873415
0.6467834785299574
-0.9461039756689797
-1.070857279917957
-0.050566819749745084
-0.5598044324303638
-1.030119878969226
0.9377794756847389
0.5410505173222925
-0.17946952759282495
0.39277157865022727
0.19456106696839207
0.3754876383996289
-0.8719341703804049
0.2403886493484737
-0.43206469902510264
-0.5130260507662173
0.16421526441806958
0.3346980370228231
-0.9758081150568605
0.057270035744233935
0.08120169033103902
0.34373918271425613
-1.0062119934639098
0.45558861392803324
-0.6518060693455755
-0.011250850848562149
0.44101193492110446
-0.41327410088595967
0.5475007202184603
-0.8319438034728183
-0.9214568598344527
0.15797207751515277
0.03968129325790547
-0.5472450122274012
-1.2003237992847091
0.6821950412935713
0.19667866145445156
-0.38615769468737415
-0.8404015933063165
-1.048107066672502
-1.0466838608197615
-0.7464520085405301
0.6336117827506944
0.497086120538377
-0.7762770299150724
0.12884465348539667
-1.071575214253675
-0.9408078339998361
0.13866608729821586
-0.3032194650671453
0.28675899574225105
0.18597924763917412
0.47153344715515777
-0.6248223489311545
-0.8975965161150669
-1.28639255143348
-0.45175855112938623
0.15994656952900863
0.046594762291113506
0.441635846916494
-1.073324382410241
-0.9958297690318761
0.3505192094090435
-0.26713274323720515
-0.39175985736210717
-0.17540334458311763
-1.118517929548635
0.5972960876977383
0.311859853231825
0.23743651977811178
-0.6260700195856801
-0.14560888829852112
-0.14863013971562905
0.29577023764322563
-1.0462346304799381
-0.19609736904450328
0.4793993640510559
-0.9008385388910385
-0.1378668301691681
0.6653275758337213
0.07167246964077371
-0.21472251159029698
0.16681387812998108
-0.45113970271034337
0.22244919765516571
-0.31225613335573954
-0.047083922977136816
0.018554289591994046
-0.2017672931577848
-0.2146492845712038
-0.8632409210864597
0.2248416854654708
-0.23050064238312465
-0.1509940116173719
-0.8698048958257525
0.49847620937746984
0.6665516890879921
-0.2678492250079765
-0.7904963457422874
-0.23452469291681918
-0.35419036244349095
-0.08534283748138834
-0.48179352955253263
-0.8486994851290055
-0.28875165052668694
0.29323125630965885
-0.39752744639704324
-0.20820050826268874
0.5195009472177023
0.3861201989411445
0.1045194511801879
0.24193184773612125
-0.7704829159912202
-0.4862450987750588
-0.4508419830544664
0.23611859063016155
-0.3463280228848552
-0.7747702777944264
0.29455144721673526
0.5139073137679033
-0.33048384911419065
0.5932822682794272
0.5719518451459987
0.5068989352518122
0.5410560675491657
0.8713513855218826
0.4608719273237145
-1.2092254003779348
-0.8557629743035247
-1.0019650852391628
0.09416184471724094
-0.6747180231140656
-0.055741630453125524
-0.14951513756419987
-0.35513772079482125
-0.6845898995192746
-0.4477368105723145
0.6624987389060912
0.1718428412462224
-0.3935605763219302
-0.521117059182061
-0.2767314359488886
-0.5472649099762545
-0.5736717871015081
0.18218052824184658
0.3699813061037714
0.5973015351902569
-0.918207979413708
-0.42864738031406546
0.06138376384313719
0.297523257701105
-1.0827323870859218
-0.6025017035470139
-0.546923815158399
-0.05149024356629048
0.6853761942959498
-0.5771291473490493
-0.044261715577357176
0.03665651901262626
-0.9258059337283409
-0.36085558600333173
0.42461210167018204
-0.1800373033539101
-0.5645512459414488
-1.0168158758861157
-0.5123760925218304
-0.33450669637489466
0.6372341926519914
-0.4794770330562456
-0.911160985362102
0.6148048092843026
0.003344048502925701
0.536139792961919
0.22060075165861723
0.3401312045189304
-0.010166658581689383
-0.523223918633874
-0.6082584156868254
-0.8727715305090913
-1.1445756087463106
-0.8204044411727568
0.06821494572409328
0.17977766630552222
0.6210307300383421
-0.40170745792536533
-0.6180054530421055
-1.0311331360600295
-0.8360180832478876
0.22186083878540314
-0.9507635364526865
0.9147400952135503
0.18765952757615278
-0.8870505145944549
0.31048668535252755
0.9351453890360569
0.5061191990849404
0.06732864493623539
-0.4781229456143044
0.3243811752385981
0.25508163122994
-0.6025469347735741
0.31597095905023614
-0.33438879047046904
0.27213495504377483
-0.12205711275602646
0.0241331776238332
-0.40322143523982973
-0.36163696633334436
0.14184211655833506
-0.7428936239676028
-1.0016152676925838
-0.27061430650741136
0.6025208160230966
-0.7158749389819802
-1.0156889094086812
0.2130803634764234
0.5189384841939358
-0.563051258509685
0.07682815501983695
-0.5774244768923519
0.181116989850066
0.6478599807158111
0.43508543441453335
-0.3442787935540389
0.3098721231570589
-0.5592005375519821
0.8642971221340655
-0.18067469335432304
-0.2344553370991713
-0.7255583226599606
-0.4775172577926944
-0.8353987905575888
0.9325239958506285
-0.7951638864516807
0.17148815601764136
0.473190666117711
-0.8336165469887651
0.319706211760577
0.40909856475052586
-0.289237119258059
0.17451060938497306
-0.4054748258060185
-0.4847018250032114
-0.4066741399280605
-0.07963750165937838
-0.19154584972525554
0.5262729076321498
-0.9788732163490689
0.8621249086969439
0.8147437542675835
-0.431732092713611
0.31538610858204597
-0.10986706477102157
0.15529698990525415
-0.36828702445956923
0.5763108604308032
-0.34735331438982286
-0.7062732297559831
0.08838516294184341
-0.18140254151471275
-1.0454482690438818
-0.5052774201054488
-0.3569492024419191
-0.6084163822405096
-0.6237475201633074
-0.3527557442265652
0.03198726481128532
-0.8973028096335081
0.2450507784520465
0.7723994974834633
-0.6410267692509252
0.36135344462870733
0.5091146637760673
-0.19277736949047428
-0.9656271952338968
-0.1505700049480413
0.4246246394558083
-0.1610754921253092
0.7672906654455456
-1.1885401493927559
0.03339845549396568
0.32649430648127986
-0.28489084269057363
0.2914899078299229
0.4358907268992822
-0.538782363744239
-0.1088156986606462
0.06191786995669632
0.33332598182852385
-0.12913726636809938
-0.34772948969004
-0.32966175157492716
-0.6563654492127393
0.4873955524574427
-0.46555796372515607
-0.3075924367269725
0.14912990200036488
0.05183701880781047
-0.7151717437024124
-0.019644831862052705
-0.2575337576592198
0.07818074687705898
0.7125379505214349
0.24528098947479568
-1.1551163019220672
-0.31085308739272755
-0.8244011253407927
-0.3496275224495769
-0.32058580630342537
0.2954697359438146
0.386996928031778
-0.060811311551847644
-0.7443535719136655
-0.8875491665233196
-0.1880008715879406
-0.5219616792777617
0.33072499289967233
0.7927040783801048
-0.7501859654577686
-1.1663357549410263
0.49255103989052473
-0.8878684809127957
-0.9652415825817269
-0.28774848647051626
0.1326412830821383
-0.4274454557641413
0.0700662728548094
-0.06837668395235544
-0.6096952532861674
-0.8239675878584788
-0.361864294845636
-0.6473920651507101
0.4763158676864006
0.20274438123365698
0.5183548141414002
0.4310684939811249
-0.7302622871383914
0.031114756792282382
-0.2132667936716382
0.6643840681723239
-0.3310601782609482
0.07764996262914946
-0.3590463848822554
0.35129860700029036
-0.15171468200122257
-0.6010003072140347
0.45857343506846193
-0.5196668634594851
0.4271473977818624
-0.8843291536829133
-0.6320419905162773
-0.869285558065116
-0.18318469507213697
-0.8974590368242179
-0.49184456652419273
0.3752647829958268
-0.10871078950502881
-0.7470648211922855
0.11469249662787107
0.22460740820057554
-0.2152203556045793
-1.1683632034859357
-0.11617047224541449
-1.1537289949728753
-0.9761962575634825
-1.142466057646054
-0.8170788423273703
-1.0386347372059328
-0.3952474667382103
0.5259466500998101
-0.2247819577278348
0.6574981265182679
0.4023404587123886
-0.033185245139999556
0.019505723399934366
-0.469459617208499
-0.288810817401928
-0.7768354977281327
-0.12619916892123392
-0.38447892599709566
0.5529603725713694
-0.3581889710012862
0.46750086785752193
-0.043788269940446586
-0.9260185654608541
0.34088140548644924
0.3728186459044692
-0.3127508371714378
0.12969516400188086
0.5784235308726632
0.25355271805411217
0.7364701130001899
-0.18797018980764346
-0.672160458990544
-0.5315420950767041
-0.6987077344306404
0.5601499060658487
-0.5275245259703041
0.2843386289383455
-0.06897461057823101
0.10257406790060264
-0.09585313010136463
-0.44941630037203095
-0.6981950514153017
-0.29134151584663576
-0.7794433338932524
0.23047103747273884
-0.4461670894118501
-0.1639815664470836
-0.43464452933730563
-0.13598989074945086
0.5272863496407633
-0.37569905022466915
-0.9047756577661483
-0.3418500437146259
-0.2568808015848974
0.2529126703977165
-0.6344676296311672
0.48904548644032236
-0.1886909166741072
0.28298675522443595
-0.12908439174671557
-0.7958417987423748
