108.0
150.0
216.0
0.6762497202637785
0.22070675438299087
-0.4984223301658113
0.3022504237625664
-0.8527176084297307
-0.14090649215526418
0.3147200025527667
0.2836488694833117
0.33022239831641376
0.4057632732827631
0.01617705183635155
-0.7157966824249677
0.4458738087633292
0.29431460551547917
-0.1340832192220799
0.0862078686705601
-0.9508203724885612
0.19817470524854858
0.07627314650320181
-0.39411397059277475
0.6061889007227708
-0.7830248254454462
0.20121761438142763
-1.1367064567491905
-0.012389941361082148
-0.8431341840557179
-0.006544983981412151
-0.19949674431409975
0.23845768583277302
-1.2045761589911637
-0.3185670944183295
0.08026367535123743
-0.9993325028090726
0.03253504165422377
-0.0778009313301304
-0.2501857812924395
-0.18617845219086945
0.7560101482405998
0.3194220159165607
-1.0326622684762803
-0.6962484879166639
0.3208835230508113
0.5655413066548995
0.4308113516555173
0.11101934503253966
0.5533085263291436
0.7022507718569004
-0.5288918169771482
-0.2835783929746566
-1.3417206767892387
-0.8737502000025339
-0.9989876599817478
0.12318542870091907
-0.48221290774364206
-0.005867551077719927
0.35659681208508776
-0.1939684177604595
0.45769380167763785
0.08032202124761316
-0.25407468558682755
-0.6195458273311358
0.4328053595526888
-0.7374795777510399
-0.47731986306686436
0.0041392467755088395
0.34088670918219915
-0.08652332170556808
-0.9418987298761636
-1.2968934753330974
0.6849362105579447
0.44274306923605056
-0.38740796032332053
-0.5065862364953638
0.1952003650814844
0.4858409403929525
0.09948596764537536
-0.6229654757741173
-1.0807116345215333
0.43866436528875297
0.17079763120195798
-0.3517328632235816
-0.09807997192180515
-0.2715671955613979
-0.5086430491896036
-0.1705751978591225
-0.9087197850249702
-0.31761978471120234
-0.5221135687392716
-0.7141143077588914
-1.4244920312484188
0.23518148630993252
0.31091177857856583
-0.9467052583866111
0.6380199524156887
-1.128871753681609
-0.24877047159366378
-0.9795084818206606
0.3855749347535241
0.28299526323335183
-0.24789740950973616
0.20781130057943994
-0.8269762272387422
-1.489791109226592
-0.33652130576722267
-0.6493025318761013
-1.0508579913862446
0.7177055573109593
0.45680841404345995
-0.3275498440233644
0.20076464870237792
0.500644893345497
0.15616304076090104
-0.43041565178362046
-0.37178122201538844
-0.5091096488091105
0.8596421588421629
-0.6130052911405123
0.12519092075186333
0.5206563168541926
-0.7382460580473406
-0.7239686793995558
-0.6636886816711067
-1.2839410390485886
0.8050060033917893
0.5078476407487739
-1.0001412635517317
-0.43566188238450526
0.07530469817564382
-0.6244496478217089
-0.5058503722209283
0.4620888959029885
0.5663601412420539
0.3192784836054586
0.16049985815651624
-0.2599995866434544
-0.30897462476607246
-0.7255705597283313
-0.3277073437110047
-0.90265111388485
0.5948123662930898
-0.2951961322733429
0.3266948412398546
-0.8118076928494234
0.1793989143389785
0.4913574253550575
-0.05642961949481933
-0.40809113502713135
-0.8781548252812161
-0.22088256450039367
-0.537417084743427
-0.5467991572555289
-0.024121252592118947
-0.8192078963897473
-0.9511135154622256
0.4840119222212611
-0.689530895590131
0.6924203306035741
-1.1918223199209845
0.21641646935911285
0.557213447862666
-0.11379487986411398
0.01621195546079972
-0.13691062884732905
0.5385470037069465
-1.1227955344734892
-0.1486558787257504
-0.9271590488715453
0.0705109095223015
-1.159706784148942
-0.4583730486989657
-0.5246471275936018
-0.23941366453713825
-0.3720341576843847
-0.8724349915854676
0.2646143294474435
0.35753479875390154
-0.9784886502894593
0.7309166953008874
-0.649486671361269
-0.6831079203402635
0.1372468534517263
0.2607733902751561
-0.3596605237694145
0.8385948543409668
0.45430709144068193
0.32970762632010875
0.6426853110401027
-0.11963723017876754
0.19235704537511658
0.42243457805890205
-0.140281283389811
-0.7586571084548092
-0.7166705971829334
0.19120099100094504
0.06933847733986341
-0.7203988139348014
0.04173180246601018
-0.7760787584692292
-1.2690523567160403
-1.0001445155780273
0.5329445806606641
-0.6941481363952942
-0.44185690485501744
-1.0532999669980223
-0.07101967807886822
0.6038988653346486
0.16072166640793004
0.41567153480173796
-0.7258833571368827
-0.3693703432636127
-0.43792049781669234
-0.8198824050741602
-0.8113260832202638
-0.538053829484026
-0.7052240677687904
0.4799422436881522
-0.10977105053135346
0.44202669839700587
-0.6593866711209034
-0.7984796403945805
0.005201318955536705
0.074504552129523
-0.8977351063261482
0.16370607893613506
0.7901188119231067
-0.314661902214611
-0.36149977250223375
-1.0223468166154253
0.11853983758084452
-0.774753965833457
0.43748392428002747
-0.5069052289466889
0.04488905285963289
0.13271373769398687
0.8384035981910658
-0.18548530162577384
0.17048980874401576
-0.6358458466983833
-0.4551285775178224
-1.0685662646133645
0.13400838303613138
0.14423824152031944
-0.8047290988435261
-0.28800894043340386
-0.16085580772885144
-0.6012275424840826
-0.6783895721528485
-0.7470397636957626
0.11500450457684326
-0.029738089667666154
0.1699257184119802
-0.4657904177557588
0.6214796243348918
0.8341309283917159
-1.1485171357323574
-0.9213780455054972
0.019210756235611543
-1.4304267679229925
0.8908781837001796
0.07668418490565458
0.7310384159637167
-1.0017423388631432
-0.5984237073204678
0.12643411143890193
-0.5285747495755344
-0.6323278181576065
0.1388075203864296
-1.2261057144404421
-0.5974455044221463
0.16171501846271633
-0.44865977188961725
-0.7128219946301698
0.4228684100829879
-0.6145242904315202
0.04925066077257273
-0.5646773888347024
0.7877807971742257
0.03863579919202462
-0.8317587223804764
0.06715417328460838
0.6714991095539595
0.4268226603500064
-0.045389018170462765
0.7106977256899073
-0.4104220059271393
-0.027271697393556976
0.3307719749674398
0.11584652974457477
-0.5000420576535035
-0.3273064968146934
0.05671919354355763
0.1322207713553286
-0.8535686538994094
-0.6370703165235144
-0.3403014608833743
-0.3611402737429011
-1.4103708747737616
-0.022591769422150736
-0.30790435591564536
0.15228842074697824
0.5353751371169505
0.23187506811151204
0.2406607041013279
0.6802305946770397
-0.8480350403803019
-1.3273422218868598
-0.6813167855890736
-0.3938047911952475
-0.8092793211436576
0.8849702843582432
-0.6520619212391168
-1.0093287208820403
-0.8962218423353809
0.2293114318696563
-0.11810946536513862
0.4137366864203032
-0.14701728912984974
-0.4091551889220403
0.15643221661339357
0.30449801708024266
0.6327142457071453
0.3330837575869398
0.1726878762165343
-1.1548298712714895
0.6480762943540098
0.31980927791136793
-1.26282078738684
0.8478876055321228
-0.7229601878543424
-1.0439537481301688
0.8585984844517722
-0.690322925957395
-0.2661009947670978
-0.38882571106113145
-0.46235578667253235
0.09549893639428082
0.10588046861607914
0.1271915709606969
-0.34497025431301503
0.3395385637990712
0.26851963224599523
-1.3307456947474319
-0.11321912019795265
0.4627459330108193
-0.11620731632481407
-0.5487742942879287
-0.3484740132432734
-1.5726802294692233
0.6788000509175407
0.7525100034281663
-0.7497032949355952
-0.11944490192362292
0.3207737131608697
-1.8944428482223845
0.5898196017683284
-0.1680935837474661
-0.4404907476798444
1.0060272338231182
0.38532569586038273
-1.2818482216054263
-0.23607342603424164
-0.09213503672867086
0.1181781912534747
-0.17098659699836052
-0.7271023783555057
-1.3288259983532924
-0.15424632764165605
0.7211292085262198
-0.22607254748715122
-0.49717309571332574
0.17340143224353385
-1.590506820578186
0.868401532644867
0.8465685014704962
-0.7787095911173864
1.1068992510388762
-0.23342160003659632
-0.8851109621193658
-0.8218525631280562
-0.6265608560367748
-0.9572000549793127
-0.6311186344705182
-0.7770887564536334
-1.5063566199999594
-0.342288704410375
-1.1964403774252477
-0.6787922052899248
0.04140610415006651
-0.6164046846863812
-0.8445257068721783
1.100016754969541
0.40399036218429657
-1.7216170502096424
-0.34680210204805395
0.590576394662609
-0.8285093789714887
-0.5631957419622214
0.8465440389001813
-0.15279907611824856
-0.7437873023112748
0.6206588605057763
-0.6066978456268663
-0.6905491711236279
-0.026012079678213756
-0.06705612036475479
-0.6113922563229983
-0.3235845934533852
-1.0447283462138872
-0.4721668959739887
-0.5458901182523496
-0.3690807934822223
0.2257864501644374
-0.6771004218515994
-0.06482019952187382
0.23561246850135834
0.7956610190193814
0.2845221882370589
0.4802273571112879
-0.8857584089194804
-0.5933799673809921
-0.16825331445010785
0.4392739803631548
-0.5668129733494607
-0.15019197292790393
-0.9901012435608286
-0.7565180794473405
0.9825441006057791
0.6566271189880006
-1.8602650099358933
0.5398046444831053
-0.04493032141766276
0.24534531827341485
0.04024614502668155
-0.09737930159867063
0.6714605189701373
0.4105635289501063
-0.49538456890503896
-1.0185574032496714
0.35595124926460714
-0.6551558028358039
-0.9685569723077563
-0.8529046614691883
-0.14709732354565613
0.5886642292059782
0.22601758893661245
-0.5128969205902467
0.6124367913902963
-0.7727604978433935
-0.44154575223436254
-0.8866316442487026
-0.9361917779164602
-0.1602839990230933
0.21055336883270034
0.04011150856285312
0.33012073910746353
-0.9307173452121795
0.9578733540470019
-0.28535983518134383
0.5564563466888515
-0.8767141051740389
-0.9372802782381708
0.5238541726475425
0.7481954582810835
-0.5889800792410653
-0.5162548926944532
0.6708588733615235
-0.7410332996585195
-0.052514184744170134
0.565463718177934
0.02595152988112562
0.380074809411954
0.6146587508934338
-0.6729468830422982
-0.08720744393354958
-0.1362902933281388
0.7109338432338487
-0.7873066146316539
-0.5428160941611004
-0.34693835121775296
-0.6880981233603548
-0.716916944836981
0.22209630191116678
0.5208129142316924
0.1948461900353498
0.03423807049212847
0.5412228036792321
-0.5900895489115829
-0.0548907886114235
-0.3966602528546032
-0.4112931209856441
-0.43388869741859887
-0.6955873442498904
0.3431810204815683
-0.996664779086547
0.01951773317638559
0.7925117659038198
0.6160548651165736
0.45313462681193345
-0.5586211020017261
-0.07629889899463416
-0.44140393404349687
-0.484324818704756
-0.2200173689638622
0.6903503180496349
0.42089041545939154
0.30925753423736435
0.2500857230644451
0.6157779907341293
-0.24477942946994546
-0.4312393833637136
0.21395839062223534
-0.5572203173182619
0.042953241008932795
0.06755942733647875
0.034275212437066147
-0.2676005050503696
0.15553321714455845
-0.08819153020016243
-0.7748263384532701
-0.7846907151930407
0.6955721351343591
0.7964784338723871
0.4952112303352554
-0.03163163986542648
-0.04635038367281656
-0.5655685164002878
-0.5249625576393093
0.11797702726991512
-0.8325108545020556
0.5219397932212207
-0.6994390889882118
-1.1019653457606162
-0.34368703141961565
-0.6517280463197602
-0.23317507136203375
0.1291296107558225
-0.8986256850932759
-0.03704507541913252
-0.4881697581954176
-0.9330600652856368
-0.010735905937154677
0.4657577675518469
0.6041246511219557
-0.761527140869987
-0.01475503845988045
-0.19599396114565446
-0.6390447193367527
0.9630761530531515
0.3550269127774214
-0.7810824270507342
0.2650555262585905
0.22443680764028373
0.2101020338068429
-0.6534190583156914
0.4788935443886216
-1.0092831799841309
-0.728239121502988
0.0479927126134406
-0.8787737458079454
-0.6515726728646786
-0.9176253369245626
-0.47541801074796564
-0.13877791656972596
0.4880374620389072
0.8240766837442142
-0.3589842331819646
-1.051596354691383
-0.6133928837647206
0.43472237666859764
0.6811785375969146
0.4821884854787821
0.889157881612127
-0.2777621765289999
0.7084873893538977
-0.896170119986514
-0.2681652524829536
-0.5074482204574278
0.051075536714467074
-0.9767443269662541
-0.04026288540730738
-1.0204421073699521
-0.8998720742255483
0.39918909299974326
0.3203998535789241
0.3028635987679893
0.13467802576910087
0.7466596633438495
-1.060818525313125
-0.5305148784812629
-1.0288188516256702
0.37142272472867555
-0.8316243748860888
0.3111108702976619
-1.097984606374962
-0.6878309070291714
0.16868137764951657
0.4840634028085779
-0.8616213172872403
0.19893985428823874
0.5429218718910914
-0.967745573348877
-0.10837381945613077
0.06045590975097621
0.058839278060953064
0.17387594361970324
0.37945261126539703
-0.03482597925252968
-0.4242490325186639
-0.46255375455719017
0.29007619887295494
0.505470644846923
-0.62215032800354
0.6388196713963937
-0.840078799519629
0.5808131937463326
-0.028434225170224772
0.19010626049003632
0.7040881957756254
-0.7662831200351378
-1.0443059447455612
-1.026929298602859
0.6164842596116117
0.23596398738664687
-0.6966493298476748
-0.3544187943467597
0.5390911911155639
-0.8869759856530769
-0.2143330736219979
0.3234095197316584
-1.0524327158605533
-0.8562839202920467
-0.11722838747054293
0.05246698557423983
-0.9780086977017989
-0.2607575650236902
-0.8257554190929242
-0.317062058190201
-0.6125658319330342
-0.39863148099919365
-0.6428607438170975
-0.8349559185352997
0.12311855613537984
0.3052304716867538
-0.06656126095698905
0.21675417421426618
-0.44815062458782806
-0.6228629445717814
0.20090960901106675
0.5895686982898073
-0.4893407175530576
-1.3174400940728994
0.9121798844630695
0.22395763050911696
0.07279825356375542
-0.466066399951944
-0.8353451893637215
0.37268638106111296
0.06491647550080892
0.40558575384290185
-0.5513331316446649
0.6855614466778366
-0.8862961068408087
-0.554352010007755
-0.746534452029602
-0.24645498519405318
-0.22408555219208062
-0.5800853950409998
-0.9640076299898299
0.9568895897134492
-1.0787701350711516
0.34091458054836254
-0.12645291243542758
0.21368932876949115
-0.7446355560631265
-0.7706002134748299
-0.8861090539058234
-0.47716397192555465
-0.9265475892215345
-0.46316146850119
-0.5397502607292728
-0.9508000578220844
-0.7348694904444378
-0.34009543183503166
-0.26758148092043677
0.7391658587441589
0.5704043221335441
-0.6102676533960938
-0.742937332684881
0.5026068298438997
0.04024853222453095
0.28467833064159354
-0.5656918823468251
-0.3060670557591401
-0.31201555590991786
-0.26358047869963563
0.6687142300068007
-1.0131663122639005
-0.14769547931471547
-0.2876403971757909
0.664092580510069
0.538777522996207
-0.830123061404801
0.8074948953368117
-0.19934563606453456
0.20692892467352358
0.5430639867651708
0.6194469712935086
0.015989059004900982
-0.16243946725899525
-0.025896302727489117
0.07226472106729341
0.5278054446454847
0.028602935978056156
-0.7183254479965562
0.14671768249919692
-0.9885541614531678
0.16558810467849613
-0.614012346067073
0.6046813774118733
-0.961151537200345
-0.4188441640173446
-0.17568711152967428
0.4919089727753573
-0.042129226998170184
0.12979682640692444
0.0033027606654110683
-0.581301766069349
0.23723141881646972
-1.2878203802585542
-0.6569571952720423
0.044170668372022076
0.3067261006893085
-0.003497847101473859
-0.6150076781295546
-1.381037783320267
-0.38869890927096995
-0.837425324271343
0.04945100723209035
0.38020027986063837
-0.13761547244902336
-0.7755165894737917
-0.20665995213137442
-0.07369342516322976
0.1888372773793643
0.1553588631523727
-0.16621080375535413
-0.37558692798646537
0.10521465921923343
-0.47295915579083214
-0.21143738864545114
-0.5571557196467296
0.4252886340792382
0.6612806932137822
-0.38667657967871005
-0.21666564027839536
-0.19641518414963743
0.3766783930735298
-0.8949743671352823
-0.5087898894781845
-0.44605981683713836
-0.4361592736463177
0.0673788203356487
-1.4241643725963857
-0.7011700421402584
0.2336016343992314
0.2590710231546988
-0.7486631502934074
-1.3141520033704148
-0.5970761446789299
-1.5511875129996628
-1.1588460860221028
-0.5502391000524613
0.06121852247378777
-0.4476100882631418
0.7221772910542837
0.6821312234625332
-1.5762592813161975
-0.6818963188608776
-0.888574469314937
-1.3264992806740923
0.02654114356394957
0.5018846694247141
-0.40724651686124014
-0.29571938386080565
-0.5263704789963116
-0.8204135811426463
0.007936547510289656
-0.2343330535524242
-0.3888965654211383
-0.5884548651650859
-0.6187110790163065
0.47321740944743673
0.6082515708023905
-0.007500648068050907
-0.5660692453188325
0.4996548641158934
0.3416999042177145
0.07595688067681085
-0.02928468715735798
-1.091226814417784
0.06007208686586518
0.3476392403888444
0.5831704219559362
-1.526258829781046
-0.681824720239611
-0.7032818897917714
-0.9706028360048468
-1.1122221180126541
-0.07227415916780404
-0.061180838247565844
-0.7347451348990249
0.4756897733901367
-1.6873093842609923
-0.36071998508283293
0.6872090395158365
-0.11757958200484919
-1.0540346617242602
-0.8420638560501402
-0.5699681194995972
-0.9506695940013642
0.09093673386858463
0.04806826412720432
-0.10746019612539666
0.46636498071128557
0.5139058009198884
0.6274149866328903
-0.884543279123681
-0.9256748243303212
0.6984455363282791
0.416613102420573
-0.9483237668637274
0.48557081830557025
-1.0573428840117194
0.23264986028937085
-0.7406543486790732
0.743325843482482
-0.8148105929881024
-0.8695224742688829
-0.4735588781800771
-1.2902321052801906
0.790995856471895
0.48900411613963546
0.19179006398031262
0.5306324029445969
-0.6013431821825777
-0.1832135130247447
-0.643957609370331
0.7651101845128458
-0.34081491509440814
-0.7085239149618237
0.37936591153344296
-0.8021375247573438
-0.6559671849323149
-0.9786378683283627
-0.4673113680106789
0.6309198205707138
-0.7526923773119003
-0.10000452282093669
-0.7652795332342278
0.3102604815123978
-0.3004424571324196
0.39401929905800326
-0.21844704340615617
0.02451053161018765
0.3811450852103148
-0.5488040764957434
-0.2919265029003425
0.6347015870699735
0.26885566902483427
-0.6543080604158908
0.8419555128313411
-0.762168326778182
-1.4794025496551093
-0.6280302650181737
0.619425454801656
-1.5967023823131543
0.2677888647970921
-0.831949162327414
-0.22504701389624882
0.053988242916296114
-1.2780103175288764
0.637537619580308
-0.9765476090506691
-0.6579165539470584
-1.1786520329447432
-0.4090119976927902
-0.6672233923671753
-0.5647539558318961
-0.09972271232881891
0.17283378519736803
-1.2454693481652381
-0.6446407573640536
-0.7654700424212568
0.9619734615817548
0.8239827181212263
-0.22583721282164293
-0.8671714253812273
-0.9573675073053596
-0.5533357238671228
-1.6828825816919024
0.3096893251515158
-0.8335967754569682
-0.005105624295069999
-0.4311958788320944
0.00630984349064212
-1.2368099542683744
-0.9736311409329279
-1.3045865556667982
-0.3531444536207266
-0.5952478974084598
0.5274630983070927
-0.07958725344065565
-0.6729745126410247
-0.6793751507205261
-0.6130940851647906
-0.9145921274599271
0.6893370868607271
-0.9236109648831273
-1.637818478336711
0.0667640620502139
0.45522968943050984
-0.959077755069258
0.7866688169802925
-1.3582337761999104
0.38460137331473176
-0.9734333003962796
-1.945719198102235
0.08253631117076132
0.03464429886714071
-0.2716129458417471
-0.6142168981930662
0.6752070238028606
-1.661487505325521
-0.3691004082220424
-0.13291065243721745
-0.7732339774708428
0.7478705236101968
-0.082103893205701
-0.7937556561382867
0.7399155809622129
-0.9477113817246994
-0.08156016743749728
-0.7936883623494955
0.2485370731824157
-0.5132725340418358
-0.9074865244299428
-0.63556092182175
0.7442695348679884
-0.2895480488348725
-0.7654466293191263
-1.8241745569398575
-0.6225350160262705
-0.26270957399781714
-1.2257371127858385
0.4750532770757663
-0.8141005759348083
-1.0983885205736672
-0.1750862957844267
-0.03253765636713979
-0.7991810980200031
-0.8738706103782699
-0.575795610286211
-0.32102480104725095
0.6699314865463268
0.775915863696313
-0.7064077014790764
-1.366698518821098
0.9214224838284814
-0.27553910774009327
0.7006555663916748
-1.489643680275074
-0.6660252788768715
0.7091473620386965
-0.030727114043702142
-0.9937157704374929
0.890020550792354
-0.9065336968387563
-0.3217078594542962
0.7750395648554266
0.06229267262547433
-1.0090122700646402
-0.5609246306471577
-0.15807616145304992
-0.19592821670674052
0.10474282270644614
0.121721335160343
0.11987660701117778
-0.5829369412642686
-0.07324661528026102
-0.9979343452109597
-1.0204486509909485
-0.7037583847736228
-0.6077411569183265
-0.354582548632699
-0.5151331793990321
-0.019424987988910396
-0.9166707649442918
-0.40711960528766383
-0.11122612203812016
-0.5230183655644692
-0.9356891788715572
0.457181295423444
-6.57654003886817E-4
0.22292026774049223
-0.6854188473552095
-0.21681799296995896
-0.08840933161436151
0.3324433431501837
0.1988553703292943
0.44938732511399937
-0.48309053357871024
0.040779268803548846
-0.7719925270073283
-0.33907199863064896
0.013156322366008341
-0.5978344314350376
0.38626695655646015
0.12025129102995621
0.6961090424163214
-0.5907682676245966
-0.34333003661354633
-0.22871566269868845
0.6800143878019546
-0.29666408737260647
-0.3275135470667099
-0.3073418705697049
-0.7565716177823945
-0.7583276033554234
-0.5817607226005661
0.1828313455839609
0.03899175588658254
-0.4874577614423872
0.8364590832378389
-0.17599217226843067
-0.8020492444458435
0.2965624421763006
0.008037048155691423
0.3927258405408153
-0.16350811592575124
-0.8998436889449439
-0.6145898680087724
-0.3968953013918137
0.3029209603868963
0.04310182526066755
-0.058132162729270104
0.017695930716048414
0.17913444487854133
0.11877399701851932
-0.21307814317438328
-0.5341691519001919
-0.3236484296100919
0.6817435369419874
-0.31232713270910945
0.4502224776537622
0.2212734465415917
-0.39016242539075086
0.30341397200223713
-0.8593633991183469
-0.3355519122171688
0.013570124258238437
-0.5434673582983114
0.3912793852305494
0.3865067800921119
-0.40065210269850104
-0.1909409831644809
-0.32652375151417345
0.4625144664773781
-0.04122918231130098
0.6271275495584827
0.4287652833357634
-0.5448172082308295
0.07055248878250568
-0.46916522462270827
0.8692152789884281
-0.40619244547073385
-0.03250653269703928
0.09570823079651268
-0.776150977278392
0.12862283112894182
0.11667692772320759
-0.17677752948982076
0.19393619420348945
-0.08446976701185646
-0.06951942594496006
-1.0212077948110392
-0.7013261903884921
0.9078731602215859
0.7027700675475959
0.6909493751103216
-0.42496079880159676
-0.7107530192062216
0.24663661900234382
0.1112487154472865
-0.04773902640144433
-0.20440820549793526
-0.09179802467166635
-0.7854834514847934
0.718298295732202
-1.0199699429255564
0.32299310351901167
0.08488223734801238
-0.2049143794301858
-0.7161966943956045
-1.1399179078458475
0.8093561626645225
0.3676483834507283
-0.7679260866942726
-1.0975299673328474
0.1011613726369465
-0.4306377581647466
-0.09501690406821496
0.0689392604020322
-0.09372846079340016
-0.3255298585216394
-0.9981438003854388
0.5651736159110818
0.8586351311199878
0.7369746706496288
-0.15721078786785025
-0.786446029726172
0.24290861916855497
-0.5441772632532578
0.3905607317595279
-0.913821585993527
0.2286149523058347
0.3649502790377064
0.76051085083011
0.6600218208415018
0.20822471613442145
-0.37188740371219803
-0.13342796830835588
-0.459930097959502
-1.0426838952490536
-0.6816743182689418
0.7543462253210976
0.08853483118296654
0.246031092618222
-0.6362418462176455
-0.8804105359427354
-1.056257243017729
-0.24447437341217826
-0.519704433986583
0.1456914028893849
0.13165411292439297
-0.42081435473622314
0.10299234755515055
0.7683960622892383
0.2341759848135648
-0.5786272813328339
0.15584317165525247
0.439207388501647
0.46068391091603356
0.1919552342662852
0.21177984731640986
0.1286944760712206
-0.3772243089772975
-0.5817808700174489
-0.425902750619728
-0.33274910998992085
0.06330352827419382
-1.0243180692656737
-0.578333359767061
-1.0683708570261028
0.7953816525580092
-0.15122359504638208
-0.8555688034602814
0.2627781090381077
-0.7800696239903766
-0.11527337880752718
-0.2036485572494928
-0.275485821230725
0.18473124317524553
-0.23410705051283084
-0.1577956111452364
0.11659932483151175
-0.8738580848411129
-0.5322695329448521
-0.5090896416489643
0.6890840717211686
-0.5970604371155566
0.6669731144451485
-0.2191293801806519
-0.37841217756597284
-0.9325729905933288
-0.6726231094463571
0.6259294550977321
0.014527877644980142
0.20925710348272708
-0.10982656262426824
0.02009598470848828
-7.42962290763647
0.8249088697364504
0.36404652712161445
-7.384596825470535
0.9101739028374278
0.4537587126757001
-6.6195113751054695
0.9956693272861455
0.5338824190008244
-8.242354402776288
-0.4500918619890011
0.7619550030388234
-6.444590359964059
0.9287096331385498
-7.557611252385032
0.9293590214697786
-0.2529790034128041
-0.3378693479179895
-7.309382751994138
-0.19661537830007791
0.06630531420482955
-6.325828872572674
-0.26218502130831345
0.4841282132375786
-6.950735197694879
-7.593300877796175
1.0121400836145653
0.4419003826617251
0.35242472757981824
0.8620793339139989
-6.891965483761711
0.7321064723953672
-0.8451278107869817
-6.752363038533117
0.24064078130113287
0.1932031914547494
-7.75362473994645
0.14240826836631415
0.30342612641777267
-6.596645511869688
-0.424016432782643
-8.601292210255716
1.0366517326744196
0.5198106315065361
0.5016495378704657
-7.342588117531818
-0.5639680050296052
0.5480119858347909
-7.23995110385543
-7.358483661760758
-0.03773676466914063
1.1389249515172009
-9.056008162281426
0.34334998527496574
0.3873768849473361
-0.6921499341338937
-0.11022823504103796
-6.181160475751007
-0.7391304065480699
-0.9499453190079203
-8.315761535710108
0.31609541009582864
-0.13556246139199368
-8.20140453676575
-0.44623507121368355
0.05843075422518758
-6.309331559708342
-0.3738687715387845
-0.8357744152392435
-7.890433968887929
0.5356910193191005
-0.4363814080604398
-6.7082230695545215
0.6208112521446765
-0.14934117309966277
-7.78521681834105
0.10772618247573762
-0.6213191200972241
-6.670916384390798
-0.38771678239689233
-7.570462573896703
0.21140639944765202
-0.43359027761641356
-0.32794291672104503
-7.2404199597874195
0.8900623687731422
0.5132806358780939
-7.713767618281354
-0.18736871912617814
-0.5117485856573274
-6.5744605391921755
0.8950573016373946
0.0040310878180280785
-6.161614989035453
-0.40859050756974535
0.18823141430642676
-8.024040646424005
0.738788063685401
-0.4063500440693544
-7.997206239840961
-7.5984968121746945
0.938763834401811
1.0546108447126161
0.47201106747818383
-7.718263276265337
0.4052755270320715
0.12839789174788035
-0.6812954338267585
-0.4704564051774566
-0.4907880154607781
-0.08513220791857512
-1.5316475556102387
0.1489387124273505
-0.559503660024636
0.2624363903122294
-0.5359412036426601
0.26154620655965416
-0.5859500279137747
-0.8030902001985806
-0.13217821708960134
-0.017611235782547717
0.4772366213090217
0.19173291711630566
-0.542512239232894
0.5944804781326926
0.1190376432288184
-0.8059749181041609
-0.32209320448476886
0.1397251851839634
0.13370004303641544
-0.7103589991310811
0.4369120145318937
-1.0652451259624809
0.038921438248298953
-1.1054244035695227
0.08670731167971817
-0.03024708831879077
-0.5506438190640552
0.6036676455716689
-0.1367814509522972
0.5954217354461432
-0.9972969598797478
0.05768072314489344
-0.28735562360861217
-0.15318157467510554
0.5275175996463918
0.22536706822344818
-1.4265162365645199
0.5283576065485054
-0.19986746952185927
0.6946962409256321
-0.808900992493439
0.4260137772773497
-0.12318881009310563
-0.9472948492500178
-0.6848375292339014
0.1981230450678073
-0.1626053965324442
0.2689732916623723
0.41171674228693866
-0.626198215476602
-0.052570681093523274
-0.3113111074453858
-0.7875990386887297
-0.8943155007673448
0.1383708680990432
0.6361914868960222
0.3983011180178879
0.2641957445016865
0.3234155294057547
0.40402060377189275
0.18135390092331433
0.2230697751135871
-0.02337923708019068
0.715591868291044
0.16161671772635522
-0.41548100779558295
-0.8086020687782501
-0.12729135866528837
0.29577644567185013
-0.7713641772591056
0.027538297329752146
-0.3799540362682052
-0.1724377708623335
0.17863999951211704
0.4416231898455491
-0.3153700312100092
-0.22726679434650368
-0.2697521908708606
-1.0994794555745273
-0.31128356933414925
-0.9086445229365383
-1.3531637328268835
-0.2245395971136307
-0.6784699310392689
-0.8181509620505846
-0.49878897254135124
0.48278715466353006
0.29668922239677886
0.009263469139022082
-1.0174426729615016
0.14649359693566105
-0.3633865312998501
0.12444372154908111
-0.9786957358508444
-0.30752103287151594
0.2985205398426756
-1.1567625771170544
0.1190656579559909
-0.24595712496221597
-0.6922415147490749
-0.2886111004291789
-0.20699987275960602
0.1745756557141203
-0.6588065135117948
-0.31107108777141734
-5.019767140215549
0.5872466376198492
0.2811583040249084
-3.368382474405832
0.2604180851518272
0.1159587008373335
-3.9817152044586055
0.9170779016521815
0.9054908601880023
-3.436444328324185
-0.8563007057561649
0.3492068627596562
-4.764805094764554
-0.9967098914892203
0.24836574545623336
-3.4747754895344123
-0.8464401452016723
0.4757377228760733
-3.8249502109252718
0.299365424883723
-0.6271279392440752
-3.422389872977856
-0.6890411201629014
-0.3279621629636882
-5.043504201869786
-0.17809410335213482
0.9325828507623152
-4.655873271773122
0.014040593895208398
0.6651903617902765
-4.716326256029683
0.21689888337191224
0.5117845676982398
-5.336942775512182
-0.07132577195454615
-0.5827752086114169
-4.966724120330112
0.39558188109501213
-0.9541900583387073
-4.39719025169856
-0.07276636211394538
0.5026844428834665
-4.583491254955487
0.9359891650927303
-0.29561842052251763
-3.9190018006436165
0.7590494086384569
-0.6683051292011909
-4.718140570783894
0.2163480172012601
0.698311895795543
-4.14167340434413
-0.7864426636152211
0.5313248768952676
-3.959125674640698
0.035474730738860094
0.4221227654146449
-4.721947370324859
-0.6984606736426137
0.6705693021134462
-5.277844592021791
0.8165041132289012
0.8712011134342328
-4.692887519401665
0.9488770199785728
-0.2786024882609288
-4.588291740604212
-0.8787143625902734
-0.994258309796781
-3.511255695337381
-0.9629029287212081
0.049359284804606274
-4.784973211798979
-0.9497547856436885
-0.14843181798102068
-3.704079978962652
-0.9830488286785461
-0.5837217574033506
-4.32128778565645
-0.7248616788278697
0.14151156137012721
-4.573348976967867
0.6818401723704013
-0.2562824175174586
-3.636201363944709
0.24794932839877415
0.7326177078513016
-3.6409865939648562
-0.7172371249043661
0.2536837016222049
-3.9322456710303593
0.7195436632306937
-0.08392716173328418
-3.9384933924649648
0.8116132841245489
-3.855216425533263E-4
-3.650874589968769
0.5778614159234321
-0.5857953176431383
-5.0184761375680305
1.0109816319818252
-0.3936109258170498
-5.197062720841766
-0.13160334496652437
0.26372648692097034
-3.719362456345547
-0.011339447611247378
-0.21728222256089574
-1.591682002280647
0.40491752474878684
0.47498707769111576
-0.9088094748736609
0.8019719197532589
-1.0235989820729188
-2.0185190031682696
-0.2691850060835511
-0.7273636681028524
-2.3684190774721605
0.7021459396817269
-0.4377148745897364
-2.62263345937304
0.5451254804987654
0.48851475232354313
-1.9592540931655429
0.7706162760243445
-0.29410594835660586
-0.8081629514678094
-0.8874610819501907
0.35333316188283
-1.9448017193440905
0.2673142107792641
-0.6895297901560696
-1.0626319124484616
0.46844788144675165
0.012506763925955865
-0.8105060394255075
0.040436425811382355
0.8139699545005734
-1.5791425268077288
-0.7772918090045634
-0.024842973004397598
-2.533149351630818
0.39240952245270483
0.5440948267875454
-0.5996503373759154
-0.06193662291010207
-0.9593125921899773
-1.3830439464067634
-0.7876522004271623
0.8424482465691674
-2.555156788091129
0.22436858174456037
0.40585907093887486
-0.5412910105161917
-0.10493844152978513
0.6754775298715728
-2.4378163371421797
0.45600647759057317
0.29613939812404233
-1.5497839315922413
0.015237598740804645
0.5223744779451829
-1.7659450638620904
0.6232391019089073
-0.5166013590187426
-2.477007147630317
-1.1489696725579113
-0.5179303627591111
-0.5275764868523221
0.41218468445153356
-0.5967981015522033
-2.216379525998579
-0.1509109459133954
0.1740600141394896
-1.1316697924158199
0.8066711642816989
-0.1669897702660267
-2.2671594427218107
0.6911210724055109
0.6004413332817973
-1.1034203239266112
0.9254992579008017
-0.5893687496306743
-1.5878944316625823
0.2515361273814525
-0.5549902362526018
-1.3895980923006355
0.6578050594374683
-0.05958582468649441
-1.367080840623562
0.3351455607012242
-0.750664904748193
-1.9948150740623403
0.503036592937531
-0.6679290493064162
-1.084456287264999
0.2624535278836907
-0.05691136253549162
-1.5758848320779977
0.07479745005219929
0.46095760434164573
-2.478956244353325
-0.46865898984223536
-0.942917609538082
-2.365569611195866
0.5738537136428116
0.0531406773931636
-1.9061451149601485
0.7783232851613386
0.6195008016173196
-0.7228228582710454
0.09650799981650414
-0.5248751734201211
-2.16766806018304
0.17626176785925973
-1.0912788895905043
-1.391274386350691
-0.018574958774027515
-0.602131239990108
-0.9104872213885737
0.5995693792647373
-0.499603857782274
-0.08914876662216667
0.6023816838624781
-1.2247230019980448
-0.8392596178658875
-0.032744899754548744
1.160262359047379
-0.6423192302857861
0.4485846360157089
0.262540240908477
-0.2440636698827754
0.3385858137688395
0.22952407354394866
0.08846836166498229
-0.31279086248196036
0.2691545896717628
-0.7575601165616268
-0.46354582464585586
-0.7750456047080659
0.4064227449780949
0.32674604722589107
1.0006303077213041
-0.927027742589836
-0.0450724583328542
-0.40020645224933066
-1.2726692256976833
0.802859556813628
-0.4633652340855273
-0.24437854873297737
-0.9957302494876185
-0.1362770824119685
-1.158657699155917
0.8064199912130559
-0.312502868023201
-1.744376950991523
0.6221792142245571
0.3385730336639568
-1.1606210034156357
-0.6583233713663944
0.15643966326539815
-0.5600298062245962
-0.01859816203978265
0.3226807566530484
-0.7543553552613989
0.15437682111805381
0.47018916868034055
-1.45318102763692
-0.9757802942413007
-0.16332630983358673
-0.4120423529589289
-0.2529059090942749
-0.7355095615205179
-0.2509204834958758
0.508275953300885
-1.21354307168549
-0.05370595969534367
-0.4038077782143184
-0.4974657466406936
-1.0145862941367627
0.8094423326624611
-1.2668241404953788
-1.0458327365362203
-1.0060754825421279
-0.7304157926912535
-0.6669668786548505
0.37751354866831854
0.21718595569258212
-0.9616107900029331
0.6774064052520984
0.6984584025560521
-0.30882272234546176
-0.9268039908792182
0.4905309148950353
-0.7691985464995565
-0.8301553167095292
-0.9728945641889811
0.23839554156520373
-0.6523615689084782
0.16079091400475468
0.2199982635734093
-0.3209943883678676
-0.5287977097206561
-0.8116362366486083
-0.4804006584330673
-1.1221308539367683
0.045112809525432174
-1.0105318503807703
-0.2543635042606209
-0.04791593484024202
-0.10375172943395836
-0.2628877201664521
0.06858257002554946
0.2925784002663532
-0.5292361119742213
0.20379791146434437
-0.6233122491472912
0.5445638732286879
-0.7959808470011726
0.08396010419759226
0.3175079304843612
-0.9672261261166973
-0.07502320387901888
-0.7937758147998143
-0.485575415648738
-0.13888225959969103
-0.9889040113475152
0.1754031048722317
-0.012291081387490226
-0.9282952782299945
-0.42867662487493824
0.6591253943747761
-0.8571364138293451
0.1810271337216416
-0.522167334258068
-0.4500712411359569
-1.081761476454883
-0.8186850588097814
0.6773788825372316
0.5817252534296258
-0.04075628960499637
-0.8574977720531596
0.22921647867263248
-1.1585821913807877
-0.5696620601257553
-1.0211566852414835
0.16465016940231925
0.5729276792401023
-0.2738462812329941
0.6927087441874882
-0.8338085720991251
-0.41172171329930646
-0.44149253283102957
-0.5767646762889457
0.5819791168645935
0.9004192891888629
0.8124922954243898
0.23872386190087408
0.7663312878612417
-0.03582245971821749
0.3254848383410124
-1.1760885201335556
0.399942322229777
-0.040054479178735274
0.4071112487903725
-0.9577853324251486
-0.31355538127862437
0.39157529156879806
-0.22973322460140747
0.43404600005489935
-0.22754905667421915
0.13795600299260863
-0.7407907910700121
0.4848498877963537
0.03543097020959783
0.5944858854100493
0.7320108300843978
0.49084880989679197
-0.9626156022009233
-0.8072383619252061
0.02766117619471943
0.4450898395542711
-0.012115404582960707
0.24919900171790058
-0.7071262907118496
-0.19393249564257897
-0.30179228164308886
-0.9791627895691121
-0.2573422141877666
-0.34880771033836916
-0.9494219928810711
0.7596667922009892
-0.8100347235567067
0.36034391970078
-1.143979268346029
0.23320306593144807
-0.9278615458414704
0.0713482690402924
-0.6972185744469619
0.058861467123435825
-0.0130292298388958
0.6334020445550925
-0.659153181190764
-0.701301436115746
-0.8542214863166419
-0.16513145470014445
-0.1492464274395493
-0.5684251948422804
-0.8128345022868929
-0.022756026646260658
0.5395106010301522
-0.5608862867835664
0.32219782931965074
-0.10561060624687517
-0.27830903377746
-0.5333564975547672
-0.07023695338959676
-0.4134330465720879
-0.6297000555841176
0.6933659381686216
-0.7622970935166213
-0.22596395292629926
-0.8694287371611211
-0.060115464501918243
-0.11704643932665855
-0.9478004432390522
0.25550523834469685
0.12638210723237323
-0.672967060528016
-0.5353936898894255
0.5237147808515343
0.7666570965105426
-0.10119629829459525
0.1508641919243489
0.2218607740661839
-0.1680354567322212
-0.5467241199923861
-0.9041913645328112
-0.42987005298591097
0.34662688687795684
-0.16604266929784212
-0.5061932260708951
0.29453683041614637
-0.2621824233404757
0.21676092592059362
0.7500303698445647
-0.23107912967793454
-0.3111294354595291
-0.9862994081060219
-0.9082379365614868
0.06301315635828837
0.6106032163681713
-0.3192565303431998
-1.1316816162067587
0.40400176277274635
0.5760205021884499
-1.0143202126382815
-0.7761876060454669
0.5345788487587668
-0.39284768579719165
0.4465896324494117
0.206850106631121
-0.6502962238859965
-0.9677644509901359
0.8533675422603164
-0.766870296800246
-0.5289835099624961
-0.7037395875761991
0.0333140874407242
-0.2240372221798496
0.28605741426933706
0.1067609830245332
-0.5939880862578008
-1.2250326034921688
-0.0037440604226583307
0.27048154627680787
0.8741289647961881
-1.241328470620998
-0.9701805389679525
-0.5944672433901784
-0.3953865437474526
-0.6207088963431004
0.7127244331053264
0.2894059431965876
-0.449439412640552
-0.9244631757419415
-0.17497527307856192
-0.1835355530586573
-0.5401077203602072
-0.6831784821861749
0.05371288431373696
-0.5855700756331715
0.25076921012529646
-0.7243731859384737
-0.534028191083745
0.4776320526825088
0.42266408401058175
0.4996880177084919
-0.6800073745923222
-0.9684477914160822
0.7214920431429048
-0.585025402985346
-0.20848078085578117
0.630221431162097
-1.0421036088281277
-0.8154309281004501
-0.5744307581495883
-1.0315629220399918
0.5887926731038767
0.044184419277734255
-1.112198064337957
0.3145530126898268
-0.8720750821238523
0.5749850540930033
0.15309977776703002
0.3677830155507084
-0.20714191320061778
-0.7354891950486719
-0.3545878092926268
-1.021428378062687
0.5854164128550866
-0.12632151031214556
-0.20077490607528323
-0.8841337726650513
-0.5383086661650303
-0.433402683298585
-0.013611601349103258
0.610554212876929
0.33985286936945774
-1.0080645070105283
-0.05418756059654562
-0.7644075125264742
-1.0378738477901894
0.2720711016523525
0.2133505808105444
0.0451777652848528
-0.9587684126088443
-0.003424782218925662
-0.46345503297251756
-1.0502790614202766
-0.8753736714059317
0.5428964937165204
0.8752603141430068
-0.3219165878366334
0.09021462236454196
0.2731873082980792
-0.08590113641628001
-0.01937090279871901
0.8458652732234553
0.5732168298191009
-0.6276980384113812
-0.6157710222608989
-0.4006878059327649
0.8797021822774617
-0.1693841310418334
0.18396096308146132
-0.11430715409713743
-0.09211709093611334
-0.7076270204135673
0.0299109306401171
0.6895163136000279
0.709443950711988
-0.03888432591507077
-0.5328654423053983
-0.10891075677304639
-0.7542213029094508
-0.13510108599752807
-1.0491308911946562
0.7669472942810004
0.5219393773769564
-0.24545322342891604
-0.7350641718893721
0.40714639234065897
-1.1596929226148762
-0.8638768169409646
-0.870142844642912
-0.6316822313544226
-0.3242014536862584
0.6608113941541358
-0.9268663438974559
-0.3473787718916619
0.21471913725343633
-0.6788246428038709
0.36735014379198694
0.5846955341677286
0.4780641499713122
-0.3428425618319457
0.5126927592834253
0.17244168144208627
-0.2201807808648278
0.33595455316722733
0.5865597414084575
0.05747501756005275
-0.661803079258552
-1.005083104871578
0.3676197402530438
-0.5040720194656114
0.07246233104940633
0.5187099825583615
0.18220279566577147
-0.25997366700814434
-0.5093238368791665
-0.2821023179620654
0.24425593725697411
-0.3510953453288979
-0.8023028383419073
0.25523840498624023
-0.6957512902875274
-0.588194404978332
-0.35134913501717124
-0.4520175350437063
-0.3955454471612297
0.6442543302024711
0.7470066152102703
-0.8976347732971011
-1.1723737520013833
-0.8396648185383917
-0.10232855483706961
0.29175989695122945
0.34204681215065585
-0.036989169023694486
0.823244483974992
-0.020542117649342533
0.23800518895533845
-0.4118109275401868
-0.9339195225829341
-0.8103994112722431
-0.7101109227285974
-0.5269678984654027
-0.41359145344766407
-0.5903587240978097
-0.5340458180399092
-0.79202370927604
-0.9372109917526509
-0.21393816839104796
0.5241809296781614
-0.8146413522025286
-0.3359152373898555
-0.10191619807052178
-0.3519345738414869
0.4355325361680876
-0.6600179427976373
0.01314170632145444
0.7385025185379437
-0.8680945001068735
-0.9133955194144232
-0.6041461108879931
0.004558083419408751
-0.7651650158824798
-0.022341721084009492
-0.5010095778012678
-0.5125109572461665
-0.4685615941032161
-1.1507583379817559
-1.1124633653402716
0.051212896426579085
0.8260607198794678
0.3946903445334043
-0.8306419708568199
-0.3196168027322601
-0.24605620776847506
-0.6714142529445933
0.11766627440200239
0.15447544000913815
-0.6851154536770844
0.5353277677651747
-0.6774584290284293
0.3170993688146259
0.32531923066795665
-0.4853837334481013
-0.4648591727713364
-0.5261497891421758
0.2578660479158734
-0.45288771615900086
-0.07622468725296101
-1.1267158552065355
-0.264983516011439
0.22867560265707182
-0.6910600356493495
-0.8354153298282815
0.15075517746826045
-0.45488871084132254
-0.13584828682626598
0.645684270385703
0.41557014404913944
0.8959746164092323
-0.5016279693828348
-0.336479986948522
-0.09985688411877941
-0.17193824503973199
0.053061903667070594
-0.752729894760624
0.4447475186530631
-0.33132535447521005
0.3704801344068399
0.8538304185171055
-0.2099966927376198
0.5130941228220416
-0.7408231570339749
-0.703155003331632
-0.6588351878999215
-0.20084484769632888
-0.37585711340616434
0.7668507005924855
0.10242573964539717
-0.4057740100028869
-0.12474366958594958
-0.2720484493010116
-0.42872045761850947
-0.6859113501194476
0.23892456195342643
-1.1495168102812343
-0.17300198988072935
-0.06732721940002113
-0.1581293865214688
0.5190931036023334
-0.8798797924612811
0.47299168289212407
-0.28810024489491126
0.6437135408580774
0.20748539680714112
0.26265277912641993
0.6444247972676905
0.5775975628313287
-0.1978132800054918
-0.126535561291286
0.5556200038747579
0.1492370440092822
-0.4655361217292759
0.2199119565985249
-0.9678542678458335
-0.9683321124012053
-1.2335863032608003
-0.4036468858497749
-0.7008744412074357
-0.46365807061054476
-0.39048316854860515
-0.47925515755536374
-0.7476467461204039
-0.8925802033323512
-0.7736462040372658
0.20067420485218984
-0.3953377053664311
0.10313191972521593
-0.8953890264638704
-0.09030174468368819
-0.34665728660468703
-0.8376213873906159
-0.813004332693857
-0.07587163468792564
0.4084769284075273
0.1869958076520545
-0.8618002188469637
-0.1270897674266286
0.30641815979579173
-0.0996425611591996
-1.1393989751721212
0.02795368824866468
0.5130402851432855
0.06066002872091514
0.8623215168385
-0.8163476229736157
-0.8363808370794112
-0.7326499104599701
-0.6996648346264498
-0.3704891707196001
0.611167231487762
0.191857117088182
-0.14777000256741796
-0.5567074409905756
-0.5674574170436625
-1.0438522979716471
-0.04738122804552196
0.7820594271361841
-0.9233260567741155
-0.1379328803422245
-0.27756625246099675
-0.5944805443337736
0.7298194399290139
0.05960531949486069
-0.7560862652119703
0.3948925893806159
-0.4218576324661946
-0.4507489729055535
-0.22084571506871495
0.5302275086082742
-0.5617658726668101
0.736195968965478
0.28407833624749496
-0.4971488748572127
-0.718195817218172
-0.34601174100999205
0.03322027571094979
-0.4436088502683914
-0.7836417444531101
-0.154049438652139
-0.09554509358330285
0.7088134731945019
-0.04294569821784994
0.25457783748662993
-0.2100487200569777
-0.6334486167288339
0.3894205656796294
0.1507576975744923
-0.1435984542781144
-0.7606240099166331
0.26041029648491354
-0.15544106630671417
-0.20404389057892136
0.45126075245559516
-0.2929150255050127
0.19764601575511054
-0.47588207810414934
-0.0038115796259005266
0.44692557142184375
0.3774191320307816
-0.08394215468888627
-0.9638216868483648
-1.2265199558919582
-0.40637946306988537
-0.0799133482944722
0.4606317890405091
-0.12270977662125837
0.7030835633936321
0.12522939299846228
-0.4649750182980926
-0.7541514434208259
0.5015458601098992
0.2570522667881924
0.21238059222710512
-0.5624792513408352
-0.5685445231501296
0.4265792627296267
-0.9395350593324537
0.4868159465442922
-0.6128032665191081
-0.5944999310275284
-0.6672886748035324
-0.5290929909171221
0.5249084372158986
-0.08261759626758819
0.9156615025114817
-0.8739773540716346
-0.6674899145663974
-0.8832141527929254
0.7033088810568991
0.46176093730247736
0.16650509257582663
-0.4241743642340845
-0.8721522988694719
-0.045804913787449164
-0.5945519738779818
-0.5351697738490915
-0.610746614887364
-0.8399532094927651
-0.3257175034836739
0.4186411587858593
-0.2579486392421976
0.10127083906806642
0.760491654839151
0.3776339381993159
-0.8944892103071499
-0.6173400175122575
0.47497413983320286
-0.6689030059266386
-0.5274843002820528
0.6292422029872135
-1.0883245869736122
-0.8124748720728541
0.2747888584818146
-0.18122734213403427
-0.13765912287074558
0.6177365542795563
-1.6907578563471013
0.7965550672465372
-0.7574401422172049
-0.7913419830104964
0.6218714768310711
-1.0227483700192517
-0.6888909066729116
0.6987428570473554
0.11702465277503024
-0.9208003451982073
-0.3475061619650328
-0.46179516494911843
-1.6465964642378697
-0.44752238365715746
0.8251500732035715
-1.9120819492434176
-1.0441366631580107
0.4238846272354703
0.0686773012366475
-0.7485326435108857
-0.1023040528596641
-0.8377222802167844
-0.29265373799380445
0.795957924211973
-0.8666701949254283
0.18767017679572687
-0.4007358404641393
-1.6289108370553391
-0.6616894245874112
-0.5035839068025674
-0.5836687815298708
-0.6126801392886622
-0.9830468397648038
-0.062282741781635
0.34360315218183607
-0.2885477123038921
-0.49602940289870456
0.24515461223463594
0.8676463856160693
-1.6143323661641644
-0.6161419612024351
0.689257389303417
-0.5721856859240764
-1.5277610969681328
-0.8780137998153762
-0.2101256969788056
0.22574500911694068
0.35038254585261397
-1.4125557684720405
0.7119459977040337
0.05848535405782352
-0.812276144421784
-0.015139578675938514
0.6620961649725169
-1.4700161665793567
-0.09654909964278605
-0.6145556360774098
-0.5219331232319581
-0.06666675549569702
0.5026331471466371
-0.9440182419297362
0.3888622023086428
-0.20919913522547792
-0.1717228421179845
0.296103220094138
-0.5609364008781353
-0.8839438869490122
-0.5479802856892926
0.31621814804344284
-0.3036059320788283
-0.40962685615507555
-1.013459552796291
-0.5953927418933966
-0.1774311275845765
0.30753684373142803
-0.5945294597923316
-0.980157010283788
-0.7405581412276826
-0.29148238493351314
0.29493416311417886
0.1425877365480336
-1.7210470921762417
-0.16643135205124282
0.6466991380206133
-0.08550564575692604
-0.9630046873218235
-0.9052928682032588
-0.44999391235925285
0.38546599741007015
-0.718634897658316
-0.7196459197453607
-1.293426150084835
0.5509640839662505
-0.00846272257383746
0.5346144619589533
-0.8899402149344896
0.09303589773424673
-0.5319230104074202
-0.3598190647360876
-0.5732849810242149
-1.2356398596541518
-1.0417740834196643
-0.5682012596870504
1.3551204498322478
0.24920053888067878
-3.1668471575049217
0.4501439830045112
0.8308008643916306
-0.9381931498838066
-0.9529474180074261
0.6756463322002114
-1.961538536106908
0.6904861545412644
-0.11644086046321847
-2.0359787470446324
0.6459378769225476
0.8309901538147104
-2.192514612587241
-0.29415201537505753
-0.5239620671748838
-1.5844554811469815
-0.6227393593691087
-0.15138045229546565
-1.0834235279495859
-0.41170863724479884
-0.2587895435427728
-1.5643430347704905
0.6803370724461721
-0.4941787875559591
-1.2825956450327918
0.757631149086407
-0.33516158073839425
-1.548565132123008
0.400166088771703
0.7001860825110763
-2.7920341452990964
-0.0068372830221044185
0.1236970527583293
-1.0004044917423212
0.3319684463413488
-0.28549354617167194
-1.6419856974342988
2.906516911448734E-4
0.13497244021529153
-1.9441632337388612
0.02051949226269451
0.9563504309080204
-2.034284484941532
0.24764213796994083
0.5368778337861176
-1.417117105550715
-0.7316073372339256
0.6561536212089933
-0.9380999128037502
-0.6480132648565856
-0.3615426617302594
-2.673914687376157
0.014336073265819465
0.7609961171833476
-0.6163415313574468
0.3837049802671495
-0.4521914459433247
-1.4700723094693986
0.7668973117851211
-0.4796412941610428
-1.9254200776260622
0.24591731661043323
0.25134331766574436
-1.4030967074188363
-0.02779575753287768
0.3998378764655923
-0.9607908451631215
0.24101721104124285
1.4723074445646434
-1.7603916604275527
0.5926808992309539
-0.22850686027413497
-2.1536663319065403
-1.0094972114801366
-0.42997798665528786
-1.9298539322516683
0.22006269310479004
-0.7396035469847181
-0.6053857734048025
-0.39242574985057427
0.36761517329462207
-1.1917237411744463
0.1761672412771848
-0.722505182962794
-2.6102393887588775
-0.20596091701241198
-0.21911925190781234
-1.3595965366102527
0.14911689155271463
-0.19604093184472765
-0.6531518937345232
0.22258128772012833
-0.017338384951772798
-2.67376303115928
-0.4296930417887348
0.5701106702699131
-1.9194128942540474
-0.7461125894339568
0.026128415143943467
-2.198708184924431
0.6198135949165219
0.461601988766798
-1.0954973092342948
-0.08136193117582934
-0.7468728857715554
-1.2234836144961214
0.014290797856728907
-0.16805010639751145
-0.8110041543828755
0.6778640482118842
0.28445130422802317
0.48319667029398095
-0.7093289833661082
0.3732295110367388
0.5717766904455549
-0.47134963966302756
0.16160850351511657
-0.886623138311079
0.3802964839846019
-0.23230478957441922
0.017323937002712047
-0.37551467091294516
0.5998752778843727
-0.09409634196358402
0.6411629006534596
-0.2953866365645064
0.2563888071630942
-0.90580347886081
-0.9031318937934785
-0.1401512487020638
0.3625593099789448
0.17351159707424094
-0.8419797893646097
-1.0787671439340452
-0.23412066145892726
0.026404896476331544
-0.49527047164693183
0.12360951544140654
-1.0194551786620865
0.2502540957207218
-0.8329121057834669
-0.22458042393669697
0.4737500439710685
0.4771066178368026
-1.016736423298982
-0.03963441575064858
0.05273566009864998
-0.3318793011964838
0.22929507044031797
-0.6609625172037742
-0.37130312061367005
-0.3415905171445937
-0.9540983141384684
-0.38219791596305325
-0.816167892083364
0.08118090509638075
-0.868355214290539
-0.8034530641368128
0.5355782318906962
-0.42639218304745286
0.3498476702165967
0.0298951091605727
0.7369075479665019
-0.32433196241304496
0.3719381565788168
-0.2561854794544842
-1.0124233944973622
-1.0610703512136075
0.5790781596064758
0.6839525314376116
-1.0445507004902443
-0.531004815183587
0.18486186230937465
-1.116359638563089
-0.3505652279496154
-0.9415516954917185
0.6410282935008307
-0.9817747451832214
-1.0314986286449712
0.3116283729839836
-1.2765220831758999
-0.8931733785107425
-0.23279688208271482
-0.1985861327557517
-0.164294612998554
-0.405142990553542
0.44431554946914037
-0.6639067437112113
-0.8859773482806199
-1.1273866135394488
0.11249315629958433
-1.073566293628265
0.14151098632915374
-0.9339295052726706
0.11984754903969155
-0.14164072690268265
-0.7702545716059445
0.011257773774903088
-0.5944324224115236
0.2692114193723042
0.4610409615174501
0.2661092155796606
-1.1259141368094754
-0.4907378725568914
0.4485856830193723
-0.6981843326593645
-0.8242946573699775
-1.0553248910396462
-0.10528354465809328
-0.25964835838487615
0.6030963620306843
0.31283905966175435
0.6449760835155407
0.48552063322449757
0.0693628995959045
-0.3556763337999977
-1.9915287647267024
-0.3081236973113138
0.609509135521976
-1.1732579345904186
0.5458120993395819
1.020433908392851
-1.642807555899886
-0.15368426726477594
0.5441646978203744
-9.91180471978184E-4
-0.9085893634538502
-0.8469533110911334
-0.9178998675256265
0.44218288712557435
-0.30690575902210504
-0.7154024843737259
-0.944515437882043
-0.8554452291743563
-1.6044073023291034
-0.4215416997105682
-0.4848087072951938
-1.2500335587379383
-0.27898982905022895
-0.7180678557318754
-1.4575977795277757
0.01813694165430539
-0.33431926715331584
-1.6379667859956326
0.07628128481509382
-0.5857461592525901
-0.7444547194515478
-1.1666495787457174
-0.895154871042692
-0.8784677612949089
0.7046093513925019
0.8701853233408028
-1.459451668597728
-0.6143149971094397
-0.9505943412663765
-0.26999576127513025
-0.3219403806687684
0.6898135685491725
-1.2720084120711426
-0.1496518267536059
0.7665749457906126
-1.3311561400586467
0.1557910562146605
0.7858900594923448
-1.1612092364597904
0.026715436186181735
-0.34324096295468354
0.1934161113580379
-0.5977391308530151
0.33176129835346285
-1.07435315342677
0.3502573270806648
0.2767290497255709
-0.672557159628328
-0.06175984833055343
-0.27417794129909845
-1.9227954629627648
-0.4406198308079854
-0.7292698229068754
-1.00294170089468
0.4727842679066832
-0.4209766456605179
-1.5722059613217778
0.9520428073118216
0.2831134319423822
-0.2892116543588358
-1.018651909136785
0.4984501000255211
-1.2111385455484014
0.1012046954486377
-0.052961022194900044
-1.0589282500386723
-0.03364476671854185
-0.13403791122840716
0.03632722841322889
0.46339388702403245
0.8314342405832751
-0.12463595368720222
-0.31894797692198684
-0.20166188023191745
-1.603999821126282
0.8314845650317156
-0.03751823335094723
0.19681940929977598
-0.9355033332613911
-0.2713679784364319
-1.1041934851853223
0.132662198302635
-0.04547007988105948
-0.1704951273695446
1.2305064001426684
-0.07749096807144144
-0.12279943687616698
-0.24435970257129458
0.3140207498053146
-0.8553191179817068
-0.5990761390306539
0.7304266993150631
-0.3708224166523904
-0.5081612169833398
0.4438259236162063
0.07145210466329856
1.271028389344951
0.21466031036444774
-2.608912984267576
-0.42392058481439276
-0.08140423943171218
-1.3496232730658893
-0.7241932174151012
-0.05094185633290156
-2.4247714532693747
-0.6794667474520403
0.12422004905216869
-0.8404835752217049
-0.009086169258357757
-0.9871999127617277
-1.3746839195212908
-0.5305134301399187
0.46352267954944326
-1.0231410929075844
-0.020734002755953048
0.455264485951001
-0.5022730616796481
-0.7947064297180317
-0.2580562122557887
-1.7566173130081713
-0.28800578306531055
0.11579680827292993
-1.963102127867753
-0.426488215070739
0.4404399842947192
-0.7422221855366836
-1.0581030978843333
-0.20174052816445678
-2.0219849351504124
-0.8141833727093479
0.5592898894490246
-1.0984570107595235
0.5455059070323541
0.23321624475909558
-2.0325433078064057
-0.02531177722186303
-0.3941135960379467
-1.1666865256419892
-0.532300479709389
-0.7219664499778338
-0.8181248470426087
0.6667001941356169
0.4542445060095492
-0.46406724094757357
-0.2968720928833664
0.12796419526775968
-1.4444371145659303
-0.15154076763562765
-0.8665042918952055
-0.17821080005549278
-0.188260756591501
-0.29028838120241046
-1.7002205507779065
1.1357706221760528
0.2716700191237178
-0.6801758093229413
1.2276481165415802
-1.0036077437535058
-1.1988723800791024
-0.24406263309779258
-1.173584240638994
-1.444650727533169
-0.06332889610382902
-0.14841056670273753
-1.198802555303654
-0.0075328729469519625
-0.004713114927434218
-0.9946095595540541
-0.29240782707405377
0.8064470409816629
-1.0529183583775792
0.5990311185927605
0.5416953709972324
-1.2205153092330274
0.37149760087162376
-0.3522049359176399
-1.811773708236605
-0.6416793981680496
-0.20915868795349285
-1.0235637710449488
0.735162633581507
-1.0263655309032036
-0.991236775754494
-0.756076478558169
-0.0749622069355958
-1.1537797393751514
0.5975749549382562
0.5348984027721853
-0.668164960165476
-0.31620703012703577
0.16553782874857212
-0.6914539982095654
1.309071891654166
0.5774769032111022
-1.57940622195523
0.8588021611027228
0.6793987098479283
-0.8602970593800271
-0.2035768251782408
-0.008098202890342318
-0.00577362325687973
0.15879010433923188
0.2495011111198953
-0.9793485739048446
0.00534158841506291
-0.0716398061704359
-0.6929763535983174
-0.0914838025395381
-0.7461508265523995
-0.5550503553102185
-0.5531110256973888
-0.8899918730282494
-0.3312949131189529
-0.3740301725045159
-0.4964200602751621
-0.4948652808240898
-0.14285210672972226
-0.21857248786634362
0.9640574004707678
0.23144386985989818
-0.1905477729858524
-0.032703337186588716
-0.9455930980851601
0.275086908637301
0.22787717423801107
-0.9870432364051552
-0.8746324890241993
0.8258113054862102
0.3515456034930724
0.22010638782860284
0.32239082849379974
0.4453701604586551
-0.2502813717184733
-0.8992128126108972
-0.6230670764945846
0.1347364690389902
-0.26776918200579586
0.613518858644526
-0.16318862766276493
0.8853528318577203
-0.32149251872359474
0.2826501181664619
-0.6869240718014824
-0.6339551792954449
0.3695662247524221
-0.9655844189891959
0.8652584840939797
-0.08752931083718796
-0.7060525824674975
-0.18302508587331293
-0.40047255614752625
0.6339389473344764
-0.14313471985817494
0.2453828536050726
-0.5800167972552422
-0.5918256792534936
-1.0131944194135996
-0.8526016889953578
-0.7752773389261038
-0.1793576086671958
-0.6501659677071198
-0.4266019020399573
0.2993986666610822
0.6602309056401998
0.8515667814117265
0.007345461145724509
-0.0738165129145463
0.9924474179512154
-0.48780468060415294
0.5080899803258286
-0.06322386428100704
-0.9475133608263749
-0.9321858643511423
-0.8867200297481328
0.3939774857773606
-0.13090440931869216
0.5906453191608304
0.4224709645531079
-0.8970430853707066
-0.13335544506989802
0.20789464939338087
0.31555186107837374
-0.9472880959923473
0.7336303988775184
0.18631819295470584
0.5578378904148591
-0.6468476256084964
-1.0395952533803485
0.11338574008462562
-0.389029024553943
0.9364790891542094
0.44836750851428886
0.2923114634478189
0.635730401667703
-0.28551502852802063
-0.5374074210718252
-0.49531964413258506
-0.5006687380356822
-0.4407350599024112
-0.02950021554331462
0.18235827783468636
0.22812067991202273
-0.8436623022575153
0.3993125597703092
0.12796828123585371
-0.9143839473530408
-0.34455257510913445
0.823780550568623
-1.4092336867139448
-0.8534126633920821
0.16531762614403378
-0.2947454042930658
-0.20772709733165434
0.71313192119254
0.9915067779013464
-1.235526947957266
-0.5389786480511598
-0.16484353271991659
0.5643158477513354
-0.7095574967266207
-0.39556101460554466
0.4126815956292831
0.7168136206742699
-1.6825287332385814
-1.0640609663596374
0.6467371780393725
-0.05078529261749554
-0.7486893768655628
-0.3606692854916636
-0.2345162385277974
-0.26589220804865876
0.17979716725550504
-0.5834977570360368
0.4230252744834119
0.2084474096323297
0.3942018666583698
-0.560944754896805
-1.0400064371142859
0.8172808848260601
-0.5933596768356484
0.31846512826044204
-0.40708683140201696
-0.6166056655723552
-0.6996538479106647
-0.8736999475730463
0.7186092325720013
0.31685309213238866
-0.5643404031183551
-0.5094118413789663
-0.26370206359020537
-0.9508373812196896
-0.4794838211257754
0.29650050962033087
-1.396038952283223
0.7845827194087263
0.2718958906867451
0.5599225204658458
-0.35712425912941753
0.3322591145214793
0.19430579410464174
-0.5140211186194111
0.0348136737921443
-0.512824587299908
0.4632693151525858
-0.7492531067159535
-0.6239747154394264
-0.5575302665589301
0.8086508732560225
-0.7180133358173146
-1.3659361058968753
-1.1010087367582706
-0.5927644498469261
-1.316729894425957
-0.29900053149441513
-0.7653646804167511
0.3519089085288025
-0.21085395411589983
0.06996022546968715
0.571323386152097
-0.3819308318321294
-0.2766177913843479
-0.2575241398384158
-1.2525916879383918
0.23713400375496166
1.0226509120445089
-0.2488584686834655
-0.6409256999183185
-0.48530535554448123
0.7593624246794766
-1.1134590312857098
0.9532920892976376
0.19199151692773223
-0.8974004091737444
0.1786511297834489
0.5006244245659353
-0.6010200745123994
-0.11033723677376306
-0.6757602680189287
-1.28767707624654
-0.28508039913497707
-0.8972980100393119
-1.8520652238635347
0.3046475465753249
0.07870561608321099
-1.414555901158323
0.3375253877608926
-0.7306608899251841
-0.18071508480616363
-0.019859931922874965
0.6827036197335017
0.3166144820790179
-0.3059585514980093
-0.20630700431391932
-0.09258217729345801
-0.7218769911430742
-0.029318087946285393
-0.9562410142120167
-0.43938881111007433
-1.4251066282953093
0.21017398720960556
-0.7923408064940481
-0.5050614323651922
-0.19856289822429699
-0.9631380533276914
-0.8324429911013309
0.12214282929963374
-1.119345299246646
0.6359498782151192
-0.41915070106072494
-0.61932417121515
0.3778270158804832
-0.6120101981261149
0.2493006148915044
-0.6068555815485446
1.0181876605759734
-0.37082814150209653
0.07900446986709876
-1.1619366850034523
0.29322462932578686
0.9931644979884002
-0.6375337454549879
-1.2077160372349833
-0.6480060452568527
-1.6293055543347075
-0.050804212080902696
0.9103411574801147
-1.0177914776788894
0.06922105671813726
0.21749186069330823
-0.11401154708796024
-0.06797773262685719
0.3871140445028363
0.07255271149935882
0.4177955536091643
-0.45646398407107813
-1.6319390977047128
0.20029322615542616
1.078088304543879
-0.9908125833681438
-0.7128032300307563
0.9010376625139684
-1.2406039267522926
-0.9007753248850611
-0.47101399402842814
0.06533482228055831
-0.43621771303665297
-1.01985129136625
-1.588200495493153
1.1814451276002662
0.25136065034392796
-0.05348231860589213
0.5454257597284816
-0.22271148977390054
0.16041055178549093
-0.18961091913473668
0.18803266988664846
-0.3677196460457386
0.7642298813747778
-0.5256499573126343
0.31666177418108254
1.0820326678330259
0.13813759059465178
-1.1517885194969795
0.18708540631294746
-0.4674671735325259
-0.2868913973208084
0.21480654814638847
0.06643547110977041
0.535177677351651
0.17202364092975136
0.7109819084320105
-1.5252141775039048
0.20631062593974162
-0.04869814401569854
-1.4445481091968357
-0.4069574254316275
1.0308694866000399
-0.9909082425411903
-1.0545495021455646
0.6204682735920282
1.099949425012167
-1.0383167500255153
-0.10041231902938522
-0.5957631827390755
-1.1704705453246296
0.05388078666069461
-0.9872494645729525
-1.1165361495702788
-0.2669235261104682
-0.2872783921760552
0.35484592191498066
0.14779318364254812
-0.07506402642736729
-1.4090240406428598
-0.2811857092836741
0.29269962252648635
0.9533108525736637
-0.3549467654744518
-0.9603307673268493
-0.19309193381461598
0.8387629699593564
0.06073325598894018
-0.010667096688143335
-0.09048081876420169
-0.4688656267187571
-0.3879285230917307
-0.2960317707104334
-0.3554147154275509
0.4439439917440784
0.5287770253134132
0.47238158564419414
-0.27116498861612287
-0.37699774412068005
-0.6153279679088006
0.4419175914335489
0.570439821854459
0.4453891408731353
-0.08038907547610182
0.14630624195425498
0.007292766433548507
0.2828304570138155
0.026078500695060524
-0.303126574722872
-0.3738771443712723
-0.29570210096934113
-0.33782181508259923
-0.336389024523545
-0.1515763760666313
-0.18309669939417314
1.1265470601411371
0.942536535270669
0.7512527102123833
-0.6341364220342418
-0.4047782177212034
-0.5522680840108889
0.21854804932119526
0.3960565394627808
0.2919741194645996
0.43346975652272757
0.12713354316430578
-0.10318028121544966
0.12177663294665496
0.33201507245898887
0.24472450328368048
-0.2486946948900711
-0.13478061742412445
-0.2384011551674207
0.48373771096716744
0.31259996487885694
0.03776252910844076
0.06813261744736118
0.0014165760870212384
0.08557334303615813
-0.02760075684579051
0.068142938879752
0.03281052764229331
0.5254949871336279
0.2941883764947846
0.07549736107817638
-0.19968607191309587
0.16301493112971183
-0.031655426861503605
-0.024250622399166033
0.03591518311653344
-0.05563994811534584
0.6063490009283484
0.5299708587981505
0.44031596332715467
-0.0171737520509297
0.10048065919860784
-0.07007814710907681
-0.23471882124848542
-0.1395524879980818
-0.07554490436228001
0.5102577149349217
0.14743668965005852
-0.1963992261568485
-0.3894473412826277
-0.2667272056224431
-0.1013745873511612
0.09655104591588057
0.4233550771169961
0.27144472709134576
0.16187220790717016
-0.05075603214873288
-0.3726923462226466
0.15509512940841136
0.34504504273814385
0.26961898168351695
-0.35311969828716083
-0.2281474328132956
-0.36132442661683145
0.16427836973687204
-0.02637375621447106
-0.3902300364458797
-0.31160131254477863
-0.24623350084008652
-0.2551439314756581
-0.2265680067781123
-0.2120910681982882
-0.2552713117662236
0.5942978580529373
0.5820461510481938
0.18743351005521963
0.2473833355255854
0.28826827157133134
0.34956578394540566
0.12515756352283242
0.12267163546900835
0.1152410276177352
-0.025600933454915598
-0.27354010270460827
0.317603868120323
-1.0204710869249352
-0.021635978181828552
-0.7283830284149562
0.4445850828421016
0.38106115788964123
-0.4159095470796942
0.06301710311418882
0.07791274836578443
-0.22370382251941182
-0.9158299931829619
0.13006159084021168
0.38357304827227656
-0.5414996041482495
-0.7228752480019645
-1.1410493270465905
0.21625294153686317
0.6344804881618289
-0.005733319967257233
-0.5253413865646096
0.5939127479421115
-0.27186439005844043
-0.30249057830056064
0.3774562562213035
-0.9400670252850891
-0.9738618053875889
-0.3295673790669641
-0.4126487587304134
-0.7857971890865462
0.3655611339386317
-0.6573559797080819
-0.29406450649073357
-1.1513455875487566
-0.11980208504861614
0.5723499111014487
-0.34317359645689505
-1.0642993864468273
-0.08616819343156679
0.5270184984821104
-0.9160138156662008
-0.826100806233105
-0.14963980304601868
0.03573940215651483
0.646668248791807
-0.6797067219756492
-0.3758685326439005
-0.8474990801801554
-0.6740118058630218
0.34574745002073914
-1.0685362507677274
-0.3793043673048946
-0.653285413619626
-0.774575889284731
-0.3429134352492029
0.04635276902977631
-0.1975418951074388
0.13240559702516672
-0.5692464405252576
-0.5458679410097844
0.3280720203995183
-0.39278764306923675
-1.3379293888005934
-0.0907270809740317
0.6461077721186033
-0.7559422577407369
-0.21231047369133418
0.02282418311250292
0.27919909340953586
-0.6926353122447515
-0.46195907486877574
0.5804035247691881
-0.1258484940908093
-0.3599628674925129
-0.4811323917753756
-0.3587605175090579
-0.20547677667763464
0.6778396340615903
0.43550144117793343
-0.1770910819365415
-0.05677468555332241
-0.9567620654579314
-1.1093836947706393
0.6151715516248244
-0.1682628095512767
-0.17152702903841882
-0.2346467875865577
-0.7150256756780609
-0.015082288085922935
-0.18505096358794024
0.27091084979252467
0.13535824026418236
-0.2523733928878246
-0.22571702322429288
-1.060201624405333
-0.7019757834125586
0.23818250111631875
-1.0905061569092396
-0.6827271349131956
-0.22278786113605498
-0.24178064990752765
-0.335276958878132
-0.5355414146660539
-0.18930529172741972
-0.726087911974496
0.6819506545788205
-0.3197697758183191
-0.24390125864355966
-0.7296418367845576
-0.10908294676358071
0.4651800403331879
0.22987329453765523
-1.2862667370954062
-0.3404051862406566
0.28859688636806735
0.7659778491273113
0.18481791179494747
0.8072021360001521
-1.1571704379185734
-0.857168744317862
-0.6963856513751387
0.4059592113899077
-0.4998496349599972
-0.7431676204218569
-0.4933085360850449
0.028290280414625977
0.7843401952748739
-0.7731466593855113
0.295217291894888
-0.2507416629523784
-1.2295045709440324
0.23566605354613432
0.6850327593968314
-1.0690860541019183
-0.25196321418796774
0.2898141819095799
0.17604682147595815
0.505986739967576
-0.6800277256859202
0.03394315261581117
0.18300232947841602
-0.37068396309620605
-0.519629125570805
-0.7300364059594595
0.6491306708073317
-0.4514727842034056
-0.9173772058075266
0.38750377596157554
-0.05436096774685369
0.6393225860850463
-0.5931511339508676
-0.19891246963390255
-0.9038581640942117
-0.5926145709213461
-1.3713550410440936
0.015349655985124774
0.2454434183344252
-0.5812873430158945
-0.14074834532805292
-0.8426876013796412
0.32023465974381166
-0.2897089103331533
-0.5782007282210196
0.21792302791427562
0.032720072898200114
-0.29900698453663976
0.23389188704539718
0.5280921608542214
0.2622421350152411
0.2958465345865015
0.15744504560634695
0.5873484809764534
0.40830467131348946
-1.2629736451483609
-0.2984796973401609
-0.8345590215586847
-0.795878411313295
-0.21894891498083238
-0.9533192284063976
-0.5946907831769094
0.24907603562469233
-1.4254585824314203
-0.18737898941171505
0.10498200575088076
-0.0381043359234533
-0.9956184609382975
0.21686571015518488
-0.86467624290425
-0.49295417948976433
0.1654121491950181
-1.3823702237741364
0.7737510460257315
0.24246363671728474
-0.631556949309436
0.19400501116811436
0.3673539583743258
-0.5951474722997615
0.8457346072609332
0.5632156604942444
-1.5154861345987745
0.27468532223611175
-0.8129561464277377
-0.3818849815757827
-0.6885462342558611
-0.17993945124551347
-0.5869131212515638
0.34562043059468706
-0.3671021734074306
-0.49418461934470026
0.006247784986638322
0.4382858305432571
-0.7081985615444466
-0.7212082434841102
0.23242832557150944
-1.0072980419582394
-0.31741408464251347
0.4984354612756683
0.8048371979743203
-0.1973003145854528
0.22901960666136637
0.19931719844403106
-0.5679843553314311
0.7798933418371083
-0.33308570561651685
0.08272618637397439
0.3722281307534928
-0.7677477251698771
0.09961938106538896
0.547156190845059
0.14371974369965446
-0.7176173374407252
-0.5480060129796841
-0.6863300611810074
-0.5180132516425302
0.2136638992236466
-0.41390153691628123
-0.3480486581565253
0.009206668203446693
-0.033607811208881115
-0.8695304496127183
-0.6557415879292404
-1.3447440759562361
0.4784228416236093
-0.2250794854435205
-0.6275125378231263
-0.05230276652747069
-0.20454367713278251
-0.025341162756804612
-0.6398998873383429
-0.5794591819647217
-0.7747407720278738
0.30210864323411535
-0.7763427876216321
-0.024282399259022508
-0.7017053868905335
-0.7045526718610204
-0.14355633955535038
-0.28941186131514424
-0.7234418989666357
-0.6561702418319522
-0.8108536330270749
-0.23099925231987486
0.4032477761798396
0.46784726009926786
-1.3455638757278585
0.1700910454143638
-1.1019571940202935
0.26789570640090754
-0.9124506168214933
0.12916762483657387
-1.061875075518532
-0.6953790396503631
-0.2999572422164869
0.002708173367343603
-0.3037906648973327
0.2852629867512903
0.6325964483726279
0.22702170641162492
0.5185465731946702
-0.6702388433261871
0.5955983037295717
-0.6480364702817611
-0.09393528907567299
0.3145358197428247
0.20508369384323166
-0.8861885800430955
-0.35466842425711764
0.11758530495801287
-0.9529952639856806
-0.9605513892728083
-0.7271558050958389
-0.35101864118987414
0.1910902156531911
0.2692167885432869
-0.3710019130361966
0.24229758806349883
0.16060937521126412
-1.007343572832794
-1.1493780007107717
-0.19568208255050465
-0.03811428857223534
0.43183679968704014
0.6911147413086315
0.612587803781136
-0.20082828448770532
-0.56294427231861
0.17994199520281798
-0.4910559173366006
0.5527453403332689
0.2992335032270115
-0.4847050795230989
0.6705102808569069
0.25162058724124137
0.5634173766971202
0.037633792273043816
0.5979454274185521
-1.3180067335726426
-1.0048076214878396
0.22623560992164143
-0.2157272366966522
0.008486796907170285
0.4079235071789825
0.24592574138431877
0.3791303862590517
0.6896750199500897
0.15168066384640128
-0.35146691034328137
-0.9599328063826925
-0.19834848164865038
-1.607227861448878
-0.2476308000797098
-0.8939226370877018
-0.16020628889444408
0.10657592625222415
-1.8793178793121197
0.31081136041498303
-1.3103988405887597
0.9697325727256968
0.6330592368172809
-0.0076510107913385795
-0.3009044781468998
0.4502649548782248
-0.4261067221617303
-1.2856023786118063
0.441455676754171
-0.7543481639157676
-0.33266836087956436
0.5212495781096173
0.8650395524258071
-0.265093888591607
-0.010826981175600417
-0.5512733053681274
0.499961380670368
0.3808012389658183
-0.3348135172834712
0.7179079422250267
-0.9548116620917262
-1.1923015679562083
-0.7928693755377606
0.18778714914254693
0.3553139878711439
-0.8255582564119753
0.36798609174503544
0.21378791119621776
-0.21891207566510387
0.06534116402564888
-1.5774697600535172
-0.8444911931575143
-0.36634109756655575
-0.055833419799494334
-0.37606104866527557
-0.6074729441488527
-0.8768804680858144
0.7325790756066204
-0.41767633698897416
0.7711110749131868
-0.603195057127703
-0.08124671913723994
-0.5142017979465231
0.25213737711829814
-0.05312732821103776
-0.10389784128202201
-0.33422473722607665
-0.1444072920662485
-0.36869919114174987
-0.39853673208586793
-0.07847227599516804
-0.6113378772831404
0.30915467553586656
-1.2952358002959299
0.2798892808545275
-0.7998177376994772
0.35272053442490564
-0.07329088509335789
0.19189355245666628
-0.3034294142051963
0.4031287783496879
-0.8052758696506507
-0.22230306099327252
-0.8421032994879586
0.5792191145605614
-0.17918793482755835
-0.4612764053357592
-0.5623361159061899
-0.2884293608516315
0.8912831205917794
-1.4069612790654278
-0.4305167292340304
0.005718502378361639
-0.9523066071553976
0.4093826473325862
0.23694082965665184
-1.5345416764213895
0.08907416332923639
0.5565761440104737
-0.5289461351684706
0.43005268237014516
-0.22383794937806714
-0.8193423180240266
-0.4007064121547009
-0.4725111764774833
-1.4876358981521975
0.33745486250327067
0.47603687180753324
0.012128114878584605
-1.3840322469599966
-0.8920667548076835
-1.5275367122039019
0.7205788286496
-0.8265639189032724
-0.4457283126728988
-0.6898387741022067
0.6844873647365859
-4.648112473147987
-0.4000099242082513
-0.48651686145153694
-3.0528734664568344
-0.33486882268350576
-0.3352076820235259
-3.7204243007369397
-0.9803098172094122
-0.8816108455269007
-3.70584759063293
0.4011368695031472
0.6821411023248586
-3.460773666096092
0.9045763936230717
0.14873678463226025
-3.948714961496155
-0.38672206697032663
0.24826353141931168
-3.6423531309073076
-0.14266375643423568
0.566679221496366
-3.3337090595716488
-0.5301750294457693
-0.9132337791417202
-4.5744215325285325
0.1430192694356971
-0.8732050596586759
-3.8436775454772967
0.396724609633329
-0.54285285774322
-4.12146239602228
0.37695395593668024
0.42645967296171383
-3.1138187712985763
0.15591995427989747
-0.060744292913681885
-3.4873382242096924
0.4225176991074291
-0.2983262462365124
-3.560547543705766
1.001937550409929
-0.6627778792159692
-2.8706765356098547
0.10080399026943443
0.10249093925772912
-3.8586858602879746
-0.1752794113856222
0.4603253615793973
-4.311553191405767
0.6193712102834065
-0.3814619962243775
-4.534806964990218
-0.6662115330634177
0.36583349801450193
-3.6312630740751195
0.3563658284575568
-0.14504754992861546
-3.0321938076383774
0.8644383593818645
-0.4835747332048408
-3.4125336067618934
-0.4401302330008098
0.52655956676999
-3.4555846126733996
-0.11619376705440183
-0.8285248680039308
-3.7027783877472342
-0.5722107767574152
-0.5886322947460454
-3.960457693564146
0.8409662992592126
-0.7620218034438677
-4.7040032911972105
-0.6525922235728641
-0.37887688480453363
-3.7530679149492334
-0.016707044457912296
-0.6445292281714381
-3.945791075814299
0.6108765989616458
0.1420062736506822
-4.434769724722233
-0.4196801826935608
0.5850851031992279
-4.361863961146327
-0.34217479833212616
0.8375953312456701
-4.661247949393118
0.5610460382136564
0.17668107054695303
-3.720460457198618
-0.4912072863874515
-0.45500912403581273
-3.1881916310655605
-0.6208207454686556
0.11521953960919415
-3.500242923883121
-0.9385787938911507
-0.764714639341193
-3.811556989308736
-0.9104029153216505
-0.16097418705928626
-4.250284225497696
0.4591271880922685
-0.6882335079610695
-3.822785323480933
0.6805832122053366
-1.007161603898858
-1.198812556441547
0.6823901036882459
0.5039655985984992
0.2325308716420644
0.5169530360673756
0.6610938628491035
-0.5707298677919186
0.4112236226398348
0.145892061457952
-0.3472869928843486
-0.3255604127564037
-0.7007584349588225
-0.6460121777006805
0.39935165118653354
0.20121163296087968
-0.19778815595435906
-1.0702353156458906
0.2671271285902802
-1.359632940962337
-0.4963364446394222
0.32046617180250964
-1.2909424535508378
-0.005189020081545305
-0.23665602895594312
-0.17934714980648067
0.4049813317707791
-0.21306056683187583
-0.6850939960989139
-0.9185504745749652
-0.2761413246934772
0.5452895783977055
-0.9980135715200334
0.0049950362398000405
0.6150415756753649
-1.1031389078245764
-0.21306739919829146
-0.25728183954666034
0.03692023176530855
0.5461522694494111
-1.0585098869058527
0.21849275372193516
-1.5945644608565122
0.5957566168587408
0.06516027577418701
-0.05571243738411096
-0.28086520849215213
0.050023959277214425
-0.28446509311143453
-0.5053763213681257
-1.2707545769060566
0.5522873756776402
-0.3997049896182167
0.12580208712077925
-0.47627818234491454
-0.41034750565257366
0.3784176511285522
-1.0163039119756763
0.1390546906648701
0.1901639173399239
0.10654402108704177
-1.2105227908377496
-1.5436904360313473
0.25019574566004
-0.6290807528254369
-0.35329629078501906
0.07518722368446583
-0.5911080202737008
-0.0941378871351373
0.4004478505358265
0.4702908962214985
-0.8113615945734537
-0.38572648528041986
-1.1522541122261543
-0.9112162253565323
-0.6782111627529506
-0.02742899769326991
-0.23472380678892774
-0.8686272568835737
-0.9214441472497527
-0.32676651471631357
0.7760370517967302
-0.9676746846880245
0.5087551573570207
-0.7140145099168957
0.1106407247240143
-0.5311130273863605
-0.732049752105915
-0.33275342406974284
-0.20677017389550087
-0.7321115807772561
-0.27110168446427246
-1.0133387787256078
0.6854236296412306
-0.33536254680246036
0.46823030205586125
-0.022919486731150962
-1.359251564235485
0.40076693927971835
-0.5973400701178013
-1.0646034121767676
-0.21268294185116235
0.20542373434998779
-0.2911827145312317
0.5239044096285507
0.3777425144950197
-0.5501214739709447
-0.8229100097880405
-0.2805662282172259
-0.9559725116288053
8.264868860720261E-4
0.4461421603833975
0.31585875873896435
-0.7964062433064876
-0.12229523979562426
0.2520403998168851
-0.16762258282309817
-0.3603884025821023
0.06748568874027416
0.8184521771967846
-0.9399865796292614
-0.3143581316286244
-0.08448036859224965
-0.7040927132038578
0.2821741985560455
0.7609171516533364
-0.15749309126267919
-0.7442112858875849
-0.40393102323166263
0.1760668151594633
0.10063418551058051
0.7487629392848525
-0.2870738077922934
-0.6168593329696782
0.13894052467531182
-0.15568626240861108
0.574654612336557
-0.33190451540164206
-0.7986933659282563
-0.2473923079819027
0.6015981230880809
-0.7310791384857389
-0.6554226386821993
-1.3516632850493047
-0.2097810152895994
0.31435634991563677
-0.539931463283749
-0.6717898856789182
-1.260956815065858
0.7915228943846562
-0.07007512531919828
-0.36655809958280283
0.47140882597522243
-0.6637881527588773
0.06499760427304827
0.4017312418789656
0.11298803574525669
-0.979239294336012
0.04008353482744694
0.4496008122564863
-0.25742689774582256
0.11612099586539103
0.8775221965533977
-0.21644671539531318
0.6707282090076218
0.4671873366675952
0.26573040526379643
0.8008605886312054
-0.028176136490673992
-1.381420083607493
0.2015987156967073
-0.43073561941793137
-0.5781551684169938
-0.5767685297343347
-0.10695923886337545
-0.5610109672756345
0.7564987679733244
-0.24250571821236863
-0.0022962567715249828
0.5021912892383446
-1.0327825705177816
-1.1309749572843637
1.0052386431508895
0.4699345248737764
0.4834008215144124
-0.89967896208852
-0.9265461440431829
0.09016246499887508
-0.9170490645515972
-0.43725739143521186
-0.4880529052844127
0.48859008809783394
-0.6025102355373857
-1.1067708697303524
1.135300596252549
0.29899704016205436
-1.4757558018495704
-0.4334946255713079
-0.09771043794886275
-0.3874909527986004
-0.6194302296773346
-0.33138071475051695
0.4397010360539226
0.14587876987246987
0.31693829976091664
-0.7615867223839506
-0.8683098015521961
-0.3452406152084757
-0.37883709869665516
0.24613684957463317
0.2741280708597212
-1.0294965082713943
0.31869760948848763
-0.6837830612961384
0.1561051986319692
-0.41030274530725785
-0.44942184578597927
-0.6161714881233498
0.060494473061402015
0.3655501857335539
0.4842320697493063
0.051570388562427766
-0.6499688679598843
-0.15929717629115725
-1.0257797236622597
-0.6579088323311187
-0.9059825184537824
-0.5069864382840672
0.7033279355896682
-0.7931119172418162
0.15645186315723558
0.2590027774275282
-0.7054285578109629
0.7655874351622375
0.692422645772515
0.2708804654390497
0.37337709768562455
-0.3282529676923283
-0.4793101897045683
0.7880502127598299
-0.6524353629942137
0.8208604378782522
-0.3394942342635956
-0.24412309805839927
0.2955984478905627
-0.3256838134518939
-0.2218248764022513
-1.0515663756368687
0.42763561205642864
-0.8827008820962419
-0.7435816069498217
0.10230027861483855
0.22644772865633286
-0.5706981602867907
0.6569012432829431
-0.48069051687070885
0.11801644172780523
0.4211064185763498
-0.3675709378860617
0.6672913623826117
0.3441729045530657
0.10288292412658065
-1.0730870878430716
-0.13591422917670787
-0.7664705733752626
0.1539171422806213
-0.09607531874183195
0.4637052791224531
-0.11814726215116113
-0.47133829670512306
-0.9515402533986003
-0.40042416287154614
-0.7097468461021627
-0.030059686616152034
-0.4038789799954493
-0.1637879082599281
0.6359292329472156
-0.2141931793212335
-0.6453260996800836
0.2602203781180302
-0.3774163807747599
-0.24286633911740796
-0.6457009958022415
-0.8081448817456477
-0.7464855140348876
-0.15062946445235081
0.8236544389902635
0.1317582556900351
-0.3277359385444164
0.33617764060154687
-0.7124756886440962
-0.29777212713757195
0.039816390113900244
0.6250555221129283
0.4993864295156746
0.3258549451584275
-0.9655235980780277
-0.6532039863332435
-0.5051957220583612
0.611600853845304
-0.07773021453173033
0.7636278157662784
-0.8057930575456795
-0.1613007849827582
-1.0778375437862193
-0.8491004856971901
-1.0308894765847534
-0.5634096016999087
-0.9157287865190983
-0.3892561185980451
0.4550991188431245
0.060453688995186036
-0.2765860182614204
-0.8723825465697869
-0.04651634067131534
-0.32806168496321697
-0.40296319051042573
-0.07362409390629612
-0.8202215483442441
0.23716408290094723
-0.7272461369052977
-0.25803099184839506
-0.8592943837955312
-0.7420521974004788
-0.3834336528805724
-3.9702472437075302
-0.43747180545516834
0.4706404995301108
-3.690386980431193
0.7764246629017556
-0.18698345551524342
-4.306041511742041
0.7369778447938059
-0.8936859736639149
-4.062627993206661
-0.09408014405291287
0.6768621614203684
-2.9870223941755976
-0.38448893244077015
0.8788395215922962
-4.069015919522733
0.7717016112121726
0.584110801656557
-3.2169800178944454
0.694252674827301
-0.016440344474137267
-3.404618706769097
0.8282902384808108
-0.06672732195092101
-2.990667319953114
0.3222976973899827
0.5940393619660101
-3.0617831318520596
-0.7264996166300075
-0.4041408285633738
-3.883364827162514
0.49140361913064795
-0.8563696235494496
-3.123304242710948
-0.5034483330338615
0.05681161316918293
-3.917420078927805
0.48164353923815345
-0.9623322301410459
-2.878003984867299
0.5928114768814365
0.5441779505554522
-4.812380955832432
0.6797550870090774
-0.36776438328778305
-4.157570534907429
0.7503886457898754
-0.42964028519197667
-4.637658135040032
0.8327849566431417
-0.15723009233138519
-4.878224227458589
-0.7943996114868335
0.24329012255920235
-4.136987151098694
0.8317243670173879
-0.51882292231668
-3.4589563530346785
-0.10534122460018971
0.17704047919671972
-4.503828062425956
1.050720095974245
-0.33188153678725363
-4.536229155158826
-0.2176193839233308
0.07404911976091594
-4.701141686254733
0.5666255279733114
0.7273259380953594
-3.8055169222381076
-0.7235365649594194
0.6039054569971094
-2.9949248215101374
-0.6124791536641798
-0.8008882648305947
-3.0140866288702703
0.757614148380553
0.24646681591983377
-3.619591068810911
0.7213121886374487
0.2157536438579271
-4.626743215965286
0.12959362871522728
-0.8246350548225871
-4.303178288913098
0.9633849719355818
0.15859252088314402
-3.1445336032820954
0.6293333712361051
-0.5408972285067197
-3.187994518139745
0.9688891149168688
-0.7017400364412678
-3.4099561448846543
-0.8259758584487051
0.1318275254617591
-3.149468213354959
0.5159831917117474
-0.29740697411887806
-4.395562563458545
-0.5606347292174304
0.08663481677302534
-4.861010786566882
-0.8210296810212176
-0.7482833027493385
-3.7295940674148733
-0.13925872110081486
-0.015516741721443628
-0.017352174603203242
0.32696424703749477
0.39184970909153843
-0.3278640042224582
0.5229356834183362
-0.9168058280654937
-1.0296611621337575
1.9411871052657243E-4
0.6902284602980445
-0.1310319295640539
0.9281762663990288
0.002189287873290247
-0.7027822191376562
0.07767240160428679
0.10181667715491823
0.1285875588177262
0.1908898168096996
-0.8661783020537897
0.5315553957103745
-0.5950494113726462
-1.2323146534538219
-0.836692569654272
0.2693477129880316
0.4024901118010954
0.5477393837727862
0.031305624059147
0.18755313529384535
0.1025487582738686
-0.11070342053763306
-0.30768001159142955
-0.9706532655294009
-0.6107095632329905
-0.13425561496738053
0.5114155035150824
0.5750159565520163
0.023655950656352544
-0.3813270662513217
0.682800966478797
-0.7417839226776639
-0.5770085531162125
0.25976112851015604
0.4632324298162364
-0.33018665795552726
-0.33463753790840245
0.7974085389843387
-0.6971229704281884
-0.47616261258403253
-0.6031158217910818
0.3684677217476295
-0.8404718991228765
0.8242174918077974
0.6301081098126613
0.005021765815326348
-0.05170856330084005
0.21590505236371585
-0.8349726019850999
0.42513988119337814
-0.6626039029159054
-0.9837659082140171
0.1271907275671549
0.06120328333854048
-0.505886829910748
-0.7504925641287615
-0.47976272579975854
0.6658061770491198
-0.8837138679519161
0.7365277051866994
0.5802887479196397
-0.8190971602433536
-0.45890904794528037
-1.0378375924850467
-0.2705634357614273
-0.47766584594042244
0.04911411820113575
-0.25886786572861725
0.006421885278851875
0.05949853677533373
0.12902355790231315
0.6474024224152607
-0.4494009764117783
-0.45697605905805283
-0.7892830641720352
-0.32518460882391165
-0.5646252885194685
0.4016050541689898
-0.30798042352817095
-0.32413906778766116
-1.1355874245135251
-0.36457412066526224
0.00851312081085526
-0.24781089356502212
-0.7533151382226368
-0.4361871413763038
0.12808132189347465
-0.9842345904996285
-0.14867776768576876
-0.6579363386675229
0.6904632731751913
-0.09465391847016309
0.10950989522052743
-0.48723331204214765
-0.6361600335709747
0.02715150190685282
0.476457628206491
-0.36201349044924874
-1.0401830505767145
-0.714057748397262
-0.5333338895769206
-2.7938230530439236
-0.41853517240650884
0.4616863182947377
-2.4774827348337483
1.3937278252426042
-0.31585307026613196
-4.6941279268411895
-0.035836248168413576
-0.35870289851956993
-2.6138173132401956
0.6970023130023875
0.04820733992800344
-3.8190560218780383
-0.3736995062730888
0.9977521491247536
-2.8657418601448152
0.8348392014224337
0.06983972986100317
-3.1832849840602018
-0.12637279814836777
-0.41181500619522815
-2.8188397513336003
-0.31524322920784664
-0.20986092163739611
-4.010838932928733
0.9593676754010039
1.319393222629766
-3.858615968839924
0.6296235311042986
0.29974479023332057
-4.196868936628361
1.2939229083139967
-0.37418265677218576
-3.010871774606998
0.3546848341538291
-0.5827441172639445
-3.5601519396499253
-1.1617617514725422
0.4720902759391459
-3.3004381222699006
0.21051460874797856
1.1459791156617265
-4.4434854618951825
-0.4424593987573533
0.43365194579044464
-2.8262135743942975
-0.497394627982892
1.2171898776427166
-4.183819919599488
0.1248802665654383
-0.6883883704186795
-3.437444716762979
-0.10210466288993043
0.45097882032016057
-4.228530910359217
0.2163768038691951
-0.6464153899759475
-2.727739563432827
-0.7431855054546607
-0.038237658047226786
-3.0968323357387995
1.137216546649157
-0.4298704053418205
-3.648320966972851
-0.344934883209533
0.4903716083925543
-2.909162299489517
-0.5847531443812701
-0.8416212995618135
-2.3463769509555705
-0.029048456852401205
0.9312516992452347
-2.3665836009607197
-0.9100871115614886
0.8442795186490472
-4.726264440814646
-0.8115109937818137
0.28977840047816006
-2.698086839380368
0.7605767004884854
-0.6223713337769428
-3.203820538697792
-0.9511392719684038
-0.8962073610203761
-2.3341065997053287
-0.33503193531504144
0.18892109787705835
-3.2207734086265325
0.9438979690764084
-0.2957026680695902
-3.0633710582074247
-0.16255743884127735
-0.2666999349954786
-3.1815479449385764
-0.9510199081205677
0.1914216794963858
-3.3873883255435944
-0.9843266828577428
0.6994914202044313
-2.6083194313729012
0.5444663757067797
0.7292808600355999
-4.035188891128483
0.14671602770092698
-0.8934021961128424
-3.7320711363873325
0.3437260573528162
-1.0208625062878214
-0.5520147727345385
0.12664841833998375
0.5218681391207878
-0.19797734938580133
0.05323376476627556
-0.7935926447339097
-0.8328770949344378
0.29102315293940967
0.6996971881246561
-0.932592806652709
0.3012276627059396
-0.06666824153991086
0.07218949640036719
0.2656021080268694
0.4465967758672043
-1.054876165896909
0.3934489122321691
-0.20169099646051666
-0.3417303254211229
-0.7745336780357306
-0.8412147640347039
-0.7610524494977736
-0.11943674589630056
-0.8736364104971356
-1.3650364297013524
-0.08041424595757991
-0.31017753200025727
-0.6720074652665631
-0.838798053040772
-0.08584448379959692
0.8667692032534962
-0.2333255179432668
0.015499522039159509
0.36838210252221465
-0.6277798674389365
-1.1323121721619769
0.6171840356320453
-0.5013532722642123
-0.8310247346270967
0.37395717267260875
-0.9140562340987857
-0.9481169733836026
-0.04557726791657202
0.07281346570213118
-0.3610630601956634
-0.8338496095233348
-0.5284665385830188
2.9286019914294414E-4
-0.7483460141093417
0.030963989785613308
-0.6486353807569435
0.460019790084446
0.24012558501246184
0.5449623883433479
-1.1944752443735347
-0.5001749477855633
-0.8708266891091445
-1.1708058421435914
0.30693615643855854
0.262858640257947
0.5330971336396111
0.2375609840902957
0.9286236637842677
0.045668040585312826
-0.1802204542294445
-0.39072557976409156
-0.4618828191124376
0.8509182335272323
-0.4869403529811959
-0.9167808565582298
0.44616987987940027
-0.3177121704720637
-0.35307486084935374
0.33011859322728615
-0.9613416563284152
-1.571946281058647
-0.13192322175121896
-0.48800534116513433
0.46443007597709174
-0.8419436329440801
-0.5049191879185828
-1.0120965553238528
0.08461975847883087
-0.10583430930800737
0.19339141427144535
-0.3818305716507661
-0.7085934706210271
-0.4423773061334853
-2.855773087417782E-5
-0.7486750723416089
-0.25814329491021204
0.2598006318640952
-0.4852959889177332
-0.20379089555235577
-0.7251274838459665
0.15856164614176302
-0.4430010379187911
-0.09974153324298689
0.7455632552912841
-0.917200187567052
-0.2682919743834061
0.41064396727500563
0.5397035369528512
0.10437264832535369
0.5133942846034181
0.012625615389421137
-0.6477256703607539
-0.16130867325814527
-0.7401322851424725
-0.7804445518494766
0.5509834414770394
-0.08087720342233307
0.552240730723997
0.5985229786782172
-1.043317283915007
-0.23937431334800038
-0.7009670769088728
0.21328374553275067
0.026979764068549975
-0.03223270155960317
-0.7312343643765852
-0.9685464361461008
0.2724587493528686
0.19033290447703988
0.25321382951925153
-0.4511239852553449
0.09246216578942545
0.03618121449211261
0.8181060568074319
-1.171921912623003
-0.08199399973208576
-0.05252222001396952
-1.6065055515432778
-0.9172127147730673
0.3146054628771816
0.1395356992727694
-0.9473139264170726
0.3409422430736949
-0.9300003048569425
0.1086258028868747
-0.42779128467880606
-0.28488478807355044
-0.7542000032764468
0.5141755476788415
-0.46389241678179766
-0.5657367869275459
-0.8279212570055692
-0.15684372053683035
0.3451305749672458
-0.3045187772667724
-0.426974497102397
-0.5863521920267248
-0.23012237712680908
-0.5073495019343385
0.24274890207583846
0.14901237687572186
-0.1794668906030455
-1.3080296232178776
-0.3218673960131876
0.14613069508603102
-0.301433900070621
-0.9823541868461875
-0.9799468218427821
0.5258937771502973
0.32946356685154465
-1.0978748761907573
0.29149658398901257
-0.4213746677981666
-0.37115703923223714
-0.6914259518757094
0.041191387535525585
-0.24151051788653252
-0.6363750942718499
0.5672059198494044
-0.03413849702680406
0.5989284305984544
0.43602950304082977
-0.3526183739859743
-0.7170903629335081
0.7992944518256883
-0.19381111514681365
-0.7056207312137256
0.6136142374485655
-0.1609118808221281
-0.042250432047710056
0.4097265405527363
0.060395643409202594
0.44430161840391214
-0.31706335063559643
-0.01021150762324971
0.2551439249375317
0.26171144301238325
-1.4534323796680662
-0.13942213817826676
0.5305995555590812
-0.9440573398693511
-0.10389947367910128
0.9344394461060436
-0.2152690053925307
-0.1534819958405596
-0.03515660996721605
-0.5780043889070612
-0.7705682336910635
-0.5892381635149372
-0.6293045393815393
-0.21082622420813096
0.22871832055131827
-1.2049218909373
0.1985247063536378
0.41191855059094595
0.6554020448088431
0.7735693782261387
-0.41262017828009984
-0.13593715951032792
0.09723302611279899
-0.6709370007076155
0.18650918254770313
0.31396127969629506
0.7542760432451201
-0.6125654821372118
-0.29714110399205657
-0.03432686035397953
0.2653237306738051
0.07892007248674865
0.8421880451094783
-0.14947671654166975
0.16456996835907287
0.4868263405203979
-0.7935355102300489
-0.9120312164802848
0.3260254836530836
0.18229285837930234
0.7062142356682988
-0.5162290031825865
-0.9189349260015052
-0.6750023195210918
0.13572843557751121
0.263600346381198
-0.4435508740061192
-0.6718393630554508
-1.1401040084574727
0.14166836309892547
-0.4014585642358566
0.6893604459792748
-0.5642092801437408
-0.7626486777475183
-0.10943674115283131
-0.0029730055290327724
-0.12065844874119336
-0.22947618827658786
-0.5818200994734086
-0.8425523201570754
-0.8026373944595486
-0.7519619496388634
-0.9763296678870996
-1.1095308449928585
-0.13532938144104809
-0.8006715833503331
0.18735231448078937
0.0953104111394193
-0.6980712572049481
-0.552293295142487
0.3407324801909872
-0.24817178891854136
-0.561323663863788
-0.8998790686979605
0.13691720908950458
-0.9740258541725295
-0.15440618096619707
0.2044681807969044
-0.314287053957861
-0.329766430100761
0.4292974474292671
-0.3049244494176825
0.9317530392446058
0.41543028457628356
0.2771100751054917
-0.5941060462583669
-0.36714166950301524
0.68503731479269
0.5846170859176152
-0.8796338867694297
0.7350168765953148
-0.6233856238834481
-1.0418016193888044
-0.5357332159108068
-0.9282403908831015
0.5394519695842391
0.23083449427455405
0.06462062270314017
-0.08331985141372088
-0.19282979950120555
0.6425149052352126
-0.23432465573272024
0.21995823477653728
-1.0444228696945161
0.5047315733942095
-0.4419952919548967
-0.8109856642828477
-0.7688682590600643
-0.5992690267063928
-0.35000653108670593
-1.0426983989427767
-1.1204595748199573
0.39846701058880957
-0.40032585262561904
-0.23382699020575048
-0.15948547880584057
-0.1050263492145784
-1.185714474224256
-0.37753083983347896
0.8528521351425203
0.10266163478592016
-0.8530171643690881
0.023021253361693878
-0.7238789891584838
-0.46046353208769514
-0.6178497565483594
-0.7038000335446987
0.17755639938612
0.17199088425966938
0.6837448232170896
-0.45317689818760337
-0.13475932660208928
-0.8643510747960903
-0.6767197594868094
-0.2324931053318329
0.1301720884678724
-0.29366679366018633
0.25924617677347983
0.314060572164406
0.28272274585147733
-0.008782355619180133
-0.598478945895509
-0.49051182141594263
-0.719352134386472
-0.9984058402426798
-1.0816445497159843
0.3376484602259585
0.18378558740335008
0.5977992405471021
-0.5161444248486835
0.31994785790496655
-0.6097121116758742
-0.9067557037863774
-0.18016314305395445
-0.29866823088304056
-0.40946099604210057
-1.0597281997479424
-0.37057453584889666
0.5204623836788035
0.6092376526218358
-0.07870155941095364
-0.2238958176995678
-1.0400902432813612
-1.0112439877313466
-0.38262285803910656
-0.19945874089684587
0.5438224597477105
0.6832482947995905
0.3747310135006848
-0.7061523816558228
-0.4124613623237658
-0.4039324078138756
0.03156677874600291
-0.28194738701919214
-0.5792467157482639
-0.952003285024354
-0.6058938507810765
0.20187249425623863
-0.32393235388529323
0.3182568512490973
-0.9748105420363868
-1.0227887774135456
0.2677061533656841
-0.8549919598191456
0.4960234491244373
-0.45197701866392304
0.3349616959615351
-0.592974540924646
0.6082859289215836
0.6595010663517338
-0.6416947869287682
-0.4138130672466732
-0.9653409769381613
-1.0076288226864663
-0.5287205693388649
-1.101881282820189
-0.2607058634584955
-0.0027284210180728713
0.05525598741886107
0.04544934582258567
-0.24033101031087553
-0.07332604154540491
0.23794420040314548
0.30304478257247824
0.0168111947478828
-0.9274359668545746
-0.9220761503572686
-0.5203291315331154
-0.2541517015802427
-0.3580165750510372
-0.5754791460612316
0.5393521221342098
0.7171694496624114
0.27880817083649145
0.4701934880664587
0.6803467907182992
0.3055079511824662
0.05276190830603955
-0.606802727142235
-0.7781157700592525
0.28874092129497925
-0.24150139598298956
-0.12299681948222643
0.7236594152095926
0.7100953290858985
0.19959094084769993
-0.6370834508778989
-1.0216641161605142
0.0777968877920493
0.7728635621300749
0.8286913956339388
-0.7085230767831285
-0.17757292180257087
0.49601160795834054
-0.9478201896441967
-0.863450084667603
0.20900152696963892
0.010126758617763834
-0.43999348764312873
0.5544428671575596
0.43098455480957254
-0.8417756216313971
-0.19879989360866115
-0.47537301395271714
0.1994722905716901
-0.8317993279452809
-0.0417126780374192
0.1586879978925616
-0.28810517125939084
0.3326749293296854
-0.5434612171896063
-0.42468611295102837
-0.4527717824329739
0.5007350472768743
-0.828939527703551
-1.0109012708192884
-0.3371986320538108
-0.3545931373770951
-0.25526850080396074
-0.22525463002955337
-0.8243913979711446
-0.6984252557133088
0.07558890112682132
-0.9502198990777103
-0.05578313979550125
-0.7817536864714001
-1.0346957925403835
-0.5813520355307976
-0.15966159418823234
0.5707174088782013
-0.17728535343260612
-1.1272844540515758
0.13213751443262658
-1.3913635618651436
-0.14100191396325784
-0.28929716877830697
0.04015940570541427
-0.309143846277099
0.9237467313976462
0.3898371729165515
0.5349392336475491
-0.28367089912987675
-0.3568012646290467
0.11331266343404586
-0.7165293877316388
0.09421621311388914
-0.7433478124118085
-0.46491789994999005
-0.071443859398035
-0.4531934037265277
-0.5200568963075417
0.6399761706525713
0.06741973908803667
-0.9727775124834456
-0.48699004650096006
0.49999750655530856
0.377474006042407
-0.4792026053209308
-0.2191397026059151
-0.2869235007855305
0.347723527277845
0.3836511485702116
-0.27830964875848613
-0.21235443161676984
-0.23128295477489313
0.35572737490423556
0.33413318796024327
-0.6947146204149725
0.45392442290042667
0.4188915449000442
0.44764933582798794
0.08460186412974721
-0.5375654477943972
-0.022648640546549383
-0.7131882295663666
-0.6495343456296652
-1.1919418528506238
-0.301247829245725
-0.2458941397524377
-0.3967350297107825
0.5559989202597357
-0.9378931739016462
0.7702294324340291
0.058209503101772704
-0.4392638279524208
0.5611792283289393
0.23554080464286253
-0.41922292570758746
0.19816636112505925
-0.07742105661078247
-0.9804430919499714
-0.6090706960871446
-0.14365470980981324
-0.061208780922417834
-0.7429924557692806
-0.11201754508950455
-1.1311027871458277
0.5172645440965299
0.6567173125764839
-0.07328714465710863
-0.35244385323719335
-0.2419344739322454
-0.14772040561217661
-0.2704673040740243
-0.9454620597437112
-0.8487133043861733
0.6266346148130938
-0.3011633783097783
0.3279941577689983
-0.9315333072575533
-0.5404139173192741
-0.08233681970031949
0.7035675289114849
-0.10735169089610516
0.17163321779182383
0.5064446116279389
-0.10799743793388968
-0.39751452690202516
-0.7296594724575833
-1.0459894963331302
-0.5558458543122119
0.5080968645255811
-0.20580121182410743
-0.7626222960137001
-0.6102875422766362
0.3302389590294238
0.17837729241229863
-0.13775668321773638
-0.14628508154785952
-0.2765662068013492
0.5936134219086899
0.658876273806252
0.7579833918287172
-0.8449758551246797
-0.5568088170876181
-0.15054297385223483
-0.09804268882358619
-0.21745667004525143
-0.5965374603405905
0.4663207552964203
-0.3662618307788228
-0.8430209760785554
0.445582280295577
0.6321447289029803
0.44665679717924855
-0.2581115720644333
0.39662558377194423
0.24769302530377715
-0.754553134489774
-0.31172463338150924
-0.33707873103482877
0.713561395546328
-0.9892780417043682
-0.8928300494515441
0.21625745988022263
-0.25771936600439915
0.3610098162629432
0.4506396289685769
0.37373485630816367
-0.911896342155455
-0.3088417827906382
-0.46407581054930547
-0.5835193646131268
0.1920671504876854
0.44581828505435606
0.019657632886309256
0.45200298386266524
-0.4230183335735051
-0.8673514637598616
