108.0
150.0
216.0
-0.7765948302189577
-0.9815344187074652
0.10595200267446415
-0.032406393742664436
0.3097551695019717
-0.7906921395490278
-0.12958917099178222
0.1738484672500589
-0.9351697197757207
-0.8112683903817748
-0.7398421666619868
-0.4258851551552774
-0.5122591790773626
-0.5095806360532309
-0.7409860873949699
0.526525902556707
0.6722078701512838
0.28257553927648676
-0.26751322927543414
-0.5721431132972874
-0.5832174526534946
-0.9182676919480401
-0.5218764423742749
-0.3414387942610757
-0.20125625936095426
-0.4741107591485685
-0.1578964859989345
-0.025144555684710666
-0.7613336611922927
0.4813322178088058
0.21032418683815274
-0.5588383562348109
-0.20713838750706293
0.6022467893681376
-0.6030187577581263
-0.390907552539346
-0.7484379051511298
-0.18766410349098767
0.35988938236002793
-0.19619513319801402
0.2769135503571689
0.23684130745421544
0.07047354576349729
0.3164675003859789
-0.09696873194038108
-0.6357007259730079
0.3072587455880483
0.35184583369376865
-0.7472290555036043
-0.28565985951266903
-0.31074376705652296
0.40770449494070987
-0.5426484458147983
-0.4079424046498094
0.17905055665754321
-0.16228969054526918
-0.8526044302958238
0.7612722689908289
0.6822262984840974
0.35894000834977396
-0.6531719848656437
-0.4484574689400727
-0.9577057573499367
0.8520244302166446
-0.7159547347670733
-0.12526793475365083
-0.07209649738809953
-0.711831224560166
0.10955325764238746
-0.33823300694881253
0.2416438471375049
0.07516407129195513
0.3655403418212252
-0.42206412884053196
-0.6646580253833497
0.6748378922040058
-0.9557417823287836
-0.9013648647747392
0.8043471812660122
0.5368884552242855
-0.37300659326884766
-0.08193562872307099
-0.3302658694674501
-0.6891326749003353
0.06806888145782237
-0.16106314391885787
-0.3297588603293769
-0.8993523349425793
0.582476524237404
0.182203204103801
-0.1924432926618409
0.7645214404802628
0.06971928065803372
-0.17296175546921652
-0.8662291099740849
-0.49787361238363753
0.05434108466037447
-0.3052776730082387
-0.8297723733358527
-0.8389373341976025
-0.9708570925259179
-0.2115741474721997
-0.5045042789221351
-0.9959136969189072
-1.0069736991520182
-0.6261614685243213
-0.9860073801149339
0.8450240454726373
-0.07518119316085539
0.21531085592565408
-0.11570567476353706
-0.45426422538021993
0.5151608052730376
-0.1708625597308574
-0.8969201001368877
-0.45055827989540276
-0.4690243691805346
-0.2793780586908957
-0.6897358464841605
-0.5004387446319875
-0.044855809906657135
0.6791186521404287
-0.9754556403128105
0.5962126547438591
0.05236137162364288
-0.2983643976646616
-0.35593221369454303
0.619480063118596
0.6188588676380666
-1.1031476385168169
-0.2209898235161034
-0.8542434496472344
-0.44704635320283476
-0.17090453062435884
0.12957504210808848
0.4579042205510593
-0.2871666103349208
-0.0894266961775765
-0.19211662988133776
-0.410110275848146
-0.2836888587095554
-0.7671869635766122
0.49946529333494916
-0.5096089220192217
-0.790956917419448
0.062047093136711806
0.2133865840215761
-0.8300992626955362
-0.7448639583105955
-0.7280862984948608
0.610185414417065
-0.43424726078205766
0.18279649943941426
-1.093302035964464
-0.7955564608900524
-0.412306399930606
0.02776978058031314
-0.28033493083137623
6.890472176460222E-4
-0.11902872628196492
-0.9369667980967341
-0.43288060706301273
-0.8482105549265526
-0.21758466411212118
0.41047741952560757
0.08701344422516952
-0.27243837437469426
-1.0869623204884487
0.44061189686648716
-0.5683134099307545
0.1387229133990649
-0.896880277145269
-1.022336542255074
0.05824214573419323
-0.1819874686387497
0.5230423866147378
0.38746754334803973
-0.745798609432792
0.21127720771707698
0.12116814986361302
0.2512129183386443
-0.6130753608763134
-0.2266827167405914
0.37609176359966956
0.22268653711679937
-0.4481054568181709
-0.7426704305246895
0.2997417621417169
-1.0772400845340222
0.5577977248082715
-0.041742319387685
-0.32587131646781237
0.48607315162837894
-0.7797118688276863
0.5000635457613541
0.20446797139104067
0.6890588639619858
-0.20328233932428505
0.011955029946744316
-1.0400495938131262
-1.266793911701513
-0.5032903656549176
-0.6871093170118723
-0.35326591611407443
0.2988660933066411
-0.9277411277759474
-0.8645143627146499
0.5242678702374821
-0.4591548901836534
0.3757132093810874
-0.5845542164442586
-0.05573609880333904
-0.9816298821882358
-0.734558355051285
0.4472278988347052
-0.6522478180728556
-0.5560643549478327
-0.478862505415282
-0.8270619078286761
0.430027893341174
0.24681260563764948
-0.6406767343814158
-0.6524182573175299
-0.8942818591902693
-0.5223870541361149
-0.756695742948682
0.22408420368130705
0.09046750174634592
-0.40292312974433275
0.5801923439681983
-0.36341317820805824
-0.8738197755876801
-0.7098022422527225
-0.9017441107401627
-0.740344314243
-0.31355638128740815
0.47422114857554004
-0.9555228775691667
-0.2651790898618801
-0.01947240029526005
0.48768148843210435
-0.6616382301458021
-0.7174657462188875
-0.5370748320929096
0.3772672834785797
-0.23072075318164423
-0.04599604917903287
0.06407780654360554
-0.07132021488621579
0.17450518295820863
-0.19656960503311918
-1.1277512906307727
0.49378561881344685
-0.9915358238919618
0.5586818469967924
-0.17186138505602838
-0.01035447191121114
-0.42257155676011543
-0.29652772665475485
0.031141350385165856
-0.7379528375690995
-0.3145757623632864
0.1815729819040419
-0.0029217492755436144
0.34592588365537263
-0.22687787328607226
-0.7561466505522114
-0.34436762714135866
-1.0934726037071951
-0.7316811794434779
-0.7931441669857942
-0.10490024321261492
0.061330704088608905
-0.3039839918335351
-0.08380630384860865
-0.03694811352797985
0.3660684782691416
-0.1690222390933874
0.0506181838412585
0.40471534801706927
0.7301985982737926
0.14959933370268919
-0.7746685342129419
0.6232162269510092
-0.3337059556619605
0.28247652531219997
-0.00834627463742019
0.5185164361328451
0.053476126468694714
-0.683735631237117
-0.817986367859721
0.7001103873929598
0.19820565673638071
-0.5109783452560867
-0.5665534234478105
0.4279941915275372
0.03498464430710362
0.3764635201953706
-0.7380163647861391
-0.9132450600359618
-0.85733781292221
0.31029266612020523
0.6071603362299014
-0.8251384745889275
-0.1987924946241458
0.5915339016375453
0.6120834658088967
-0.275843511386687
0.4060928453187033
0.5068961468367962
-0.3220234964395749
-0.6799168540196572
-0.20734039172552501
-0.4866200679025043
0.32539246672685873
0.2922210702482796
0.6024769454966143
0.026812646823084468
-1.1280046083559583
-1.0815228371123335
-0.770371554990341
-0.04046768664913469
0.06471439362796302
0.619007057098264
0.3157088812997474
-0.3106324598285321
-0.9422169733930224
-0.8970304485766737
0.5594445028654058
-0.7538593608819755
-0.6239511355524855
-0.5699746287682268
0.23962744815373213
-0.8796614497778384
-0.01085524463299852
0.34464743807391623
-0.1664791950764624
0.1467217273593416
-0.13737189340764414
-0.7275861748949504
0.5969810551701535
-0.41935217523241236
-0.8744133761585827
-0.35513540347061073
-0.015333727625766212
-0.3235135302947532
-0.8677562330594021
-0.8436433503848657
0.5895711600336887
-0.4592013041452574
0.10900722616898469
-0.31363955116141606
-0.3217208531809523
0.3307854986109466
-0.5702010193542194
-0.24406735506430363
-0.21349853136516028
0.35303552864446075
-0.7008299333183236
0.2786773204584588
0.21237109187058673
-0.8301510368139197
0.3062776356269665
-0.6229472485812952
-0.6920803032292322
0.4453312331790065
0.7686129109855808
0.18401993288451365
0.4348062440128215
0.05913391803428314
-0.34481306659946837
-0.33325882866835965
-0.2957516984117615
0.27971546144036624
0.03701279645579535
-0.4548722051896326
-0.31692536757467504
0.43403887421621057
-0.44976002516656693
-0.12838100439039973
-0.232635936924832
0.16672726554169442
-0.3522420583034498
-0.314079627923181
-0.9155700058807567
-0.8844049077953302
-0.3453746899002249
0.09071037133288778
-0.03421976513735479
-1.0539716790497644
-0.710035699722376
-0.9065862116133101
-0.6447060310266
-0.17778719115956
0.19597960115386673
0.7116131558645663
-0.891325484023801
-1.0828683583365273
-0.6441779610050604
0.604875256235526
-0.0601384370774274
-0.5918624823575812
-0.5847234265338822
-0.08703586330530239
-0.09491856528508544
0.8676639585779057
0.8291852869690315
-0.024675750529562012
-0.28170218423542126
-0.1989335171858773
-1.1124303408114173
-0.5417470999482928
0.29604665553223064
-1.0293307251666255
-0.9079682882509225
-1.0065534676255539
-0.49434890597329956
-0.7442927051857205
-0.6082700007697781
-0.3344691689592665
0.35745322071735386
-0.341673136554102
-0.8192453395313887
0.5139162902381328
0.44713042435503236
-0.44892065854841134
-0.2681109660058922
0.5542683136016091
-0.14339939832955254
-0.9060605472789105
0.7638609017798726
0.7051717340669763
0.21865096370970175
0.12383335618603022
0.5565365267212136
-1.0393027139377093
0.08858427559410056
0.5805735433939216
0.06250984075759596
0.5385629090022176
-0.018096605075433172
0.6428234775525739
-0.7484212831046022
-0.26023645888696334
-0.9355558702670803
0.347079167044774
-0.6288549846090716
0.09914147187926696
0.40785925760784747
-1.0972413854364562
-0.10713074247736944
0.46092077837516265
-0.5881269775746857
-0.2107067360052866
-1.0858801392189394
-0.6695278558827457
0.3737122372523052
-0.0435184513561238
-0.11578206671749933
0.5065159866414314
9.701297108768177E-4
0.09936967061943489
-0.33455124236993
-0.03361132916958863
0.6361403216680657
-0.06532421282948293
-0.23917196026960105
-0.7513780453555161
0.03330653015019358
0.5200129897368525
-0.5384354840056815
0.4683141598641884
0.13114735808562347
-0.4208802658745017
-0.6561584264261575
0.3279241033360998
-0.6586441983249417
-0.656894947336142
0.22948323654597932
-0.3152361129193047
-0.09587544953788522
-0.49580140578560367
0.42257146896416314
0.2727147986432967
-0.1700533868038911
0.08894325880251913
-0.6766341943798904
-0.663421699653138
0.2446426535964933
-0.18235429726027208
0.5442585741934833
-0.5176320064391827
-0.6664786315895352
-0.3825590736211075
-0.7541984264601324
-1.0518984244623348
0.7453515061866016
0.3397797815534339
0.5599884163593664
-0.6910660964606077
0.24216319854601517
0.41408135142214164
-0.3880632151513962
0.4299278155491378
-1.0428669363860794
-0.3695503403828246
-0.3942708579798141
0.07573357967233325
0.10111475671511304
0.055356788880683655
0.5953884862054952
-0.5816901159600798
0.5212794599167221
-0.7165726516351639
0.3261495719456911
-0.41271537024254695
0.6300151680432776
0.1490365656275253
0.3427469729792843
-0.822374990393233
-0.3303555796920642
-0.7544751126704062
-0.7374077743257492
-0.3082190870050949
-0.7926021486481767
-0.9878911239194953
-1.1233526909757492
-1.0777730568847983
-0.6026682964045494
0.16740474345170717
-0.9409500333096369
-0.6114158449951181
-0.5669891112520732
0.4288352786430802
-0.8463117121829746
-0.5999952127571506
0.1044903790418662
-0.03580116253596357
0.0939489006545384
-0.7248276053227135
-0.41101725438946174
0.3621122347080801
0.4442620245794975
0.021814821885203742
-0.45333799752062115
-0.20332416559981034
-0.7222374320807045
-0.5464078610595768
-0.771373944968766
0.2806180688213056
-1.0343354133859617
-0.07237028427447564
-0.5451014300048959
-0.7587266285303133
0.34755892690384804
-0.29689292820048974
-0.946070426874777
-1.2976051938127704
-0.5064924606384464
-0.024218216814773735
-0.8226372333292846
0.43957112010160326
-0.2808515741144953
-0.7611135294914819
0.1741641267733152
0.498825814416887
-0.8702941740543725
0.42149003758871195
0.16912628955556688
0.3752721990647173
-0.3406309324038848
0.010763722507139466
-0.9455226983489862
-0.3960940898498595
-0.613057398910942
-0.06261187152268638
0.4641566131390646
-0.17358782882320767
-0.398967289133432
-0.5020121633044385
0.5968191022987033
-0.5853874570842162
0.15533161531249015
0.08729981464601262
-1.0774386555011044
0.010186899852508736
0.392016578445253
0.3688552460707478
0.4151008741563891
-0.8624918119245312
-0.978433745686259
-0.8471885911168467
-1.1255633420784696
0.08309563288291463
-0.37685163736779326
-0.8863315361535754
-0.2653196898437055
-0.4337411192680648
-0.40159717696495223
0.2509702354505747
0.5555045251424103
-0.5972003004903946
0.18658389318757224
0.3664132339895464
0.6766773291036811
-0.4857831762581516
0.3360459144613071
0.07365756039230459
-0.033907916592614634
-0.15187003132921434
0.12422506569189828
-0.922628461969641
-0.9620448890226636
-0.3012286690983893
0.2741121270408862
0.031039440256871404
0.6306839406755305
0.36780548458482476
-0.9183284975290229
0.005036190042906286
0.27907075818358973
-0.24391062611251316
-0.1984305320052643
0.39426421489181845
0.7094082246015572
-0.023481406766374856
-0.026427189275168
-0.36334418825169074
-0.8299591846065645
-0.24572077785308438
-0.04741555371445113
-0.8791772494788123
-1.0569186820191567
-0.18316174542951424
0.46511851530939113
0.06787482540664744
-0.08491414767951053
-0.12202906463955142
-0.1642131575300266
-0.5146449357866634
-0.005804844819779739
0.17631216323994972
0.6291467140457736
-0.026634300055794105
0.484725643477483
-1.0967940397982994
-0.6301827299184258
-0.11911894610188885
-0.058030389666467556
0.30749505021726165
-0.48849487843403877
-0.40418804725916563
-0.6928211480719018
0.5170945129296709
-0.07839986557982817
-0.32051123767345874
0.562566593369046
-0.07662671597365676
0.45331659035837646
-0.9383923653637626
-0.6028543847871453
-0.7778148994265407
0.1706473275378264
-0.48503999100340023
0.12153021408014925
-0.9030244104528073
0.19937162324845334
-0.9548695647737787
-0.19362291557145744
0.20558302035241283
0.06543039707895747
-0.16427952682796887
0.0830338385679706
-0.5940718758974921
0.13419854312788368
-0.057913944029416506
-0.40853904344993913
-0.34693490135175054
-0.28322327257164265
-0.7694057095585766
0.14112145469430656
-0.739150122183539
-0.07391270161972231
-0.400419899288306
-0.8090213671952461
0.27375172560387995
-1.1217347641982558
-1.091323700237775
0.34124386437878707
-0.6846597348371734
0.2509408389243782
0.4399226442008936
0.19159565156656214
-0.4299405402199284
0.5254700174737442
0.3636146305978713
-0.6553973329749017
-0.015253257827367485
-0.07549137939648026
0.5647982224646951
0.35878147739352634
-0.07157575751304615
-0.8296909164298029
-0.10232208871216861
-1.1659906175941475
-0.22718809576842083
0.19360667888734748
-1.037163605692278
-0.06281506363571424
-0.029817071594408943
-0.9534892479428502
-0.41548772396643724
-0.7752667173590562
-0.046782022822314515
-0.7930834923863558
-0.19979438530097707
-0.30503184175157516
0.5853792983615339
0.3588641184199618
-0.25717549622357117
-0.052323482191953964
-0.6840480356085975
-0.656021773645105
-0.28904353855650383
-1.1683402739211772
-0.6238161659324315
0.4147651701561992
-0.6457418093262854
0.6148102636396208
0.2851179594087901
0.620644779010386
0.3057658241577961
-0.5348613305354813
-1.1087289883386322
-0.9610412951591519
0.032496876898080125
-0.2403152619616127
-0.837849820101027
0.32597686320192876
-0.004750372253081772
-0.9599771297730868
0.5835624744051318
-0.5720200837449223
0.3469842777450327
0.007722901413692121
-1.098296787180179
-0.15554433459586883
0.506069858538427
-0.0337245361106297
-1.100029314207069
-0.43590824766848774
-0.8129047583349304
0.04699975982474382
0.36967526957741703
0.4197746063076993
-0.37537674201839843
-0.8372825715948815
0.4067570142990057
-1.067237987773309
0.4794966012254568
0.4435132486332948
-0.07088962356133796
0.2681637759365029
-0.14934785526364122
-0.9041468172527835
-0.38247223506240985
-0.8542847609155104
-0.09449232145968225
-0.48477495117541336
-0.8258620540477744
-0.6769446416512384
-0.20283347958948994
-0.1406041018566769
-0.004849710616469046
-0.48950332851932415
0.22978305091972692
-0.25688075661885357
-0.927117372438243
-1.0760657174766879
-0.2651142359320326
0.33194058485709366
-0.3415324061367696
-0.7348883441133918
0.3019712431608462
0.5457926394403873
-0.02978137166394685
-0.07159065996508387
-0.06517019002086152
-1.0979055204643149
-0.2973722990130967
0.22099918442104677
0.34762883759853613
-0.12404596883778046
-0.2283404317298724
-0.19714221183528502
-0.4613012950357934
-0.3432189957832504
-0.49275873151269106
-0.6918351686819212
0.04561200574434474
0.1314131143023189
0.38121961575039254
-0.010119561681141165
-0.30925489390945005
-0.7862403193870372
-0.8368703028381126
0.35938850792629656
0.466662230797982
0.32038873007745994
-0.4201816837139905
-0.15888817917751355
0.08305689699066215
-1.1260321233413575
0.018232308839282403
-0.7240530483827615
0.41375423507568976
-0.35269916588973965
-0.32117806039167784
-0.11949387148285935
-0.7731186009768705
-0.8595882350436305
-1.1031453955408705
-0.19952115539493875
-0.17380616808602692
-0.053607590159703095
-0.6219509230504154
-0.1890245757626384
0.44134828701980794
0.511657117110593
0.04789792964034047
-0.3890342589911492
0.010262295739229144
-0.49854721379579175
-1.001140221381247
-0.6787979127356422
0.5825916220431988
0.19505766442881883
-0.16729395779228984
-0.4872143358249055
-0.12318551513720634
-0.5035409845642922
0.5140620859368931
-0.3976934571922604
0.3330474620536971
0.5084586644714644
0.20580431180062547
-0.3911636145337491
-0.5494211524272596
0.4271534420636774
-0.19983942432633925
0.2897778797970815
0.3989390202702117
-1.006888393149917
0.362259353635901
0.4245606392251568
-0.22544774062430878
0.2981824911453688
0.2733188454265164
0.4631702040521595
0.3389760464683523
0.5458891912470506
0.3231382878478267
0.43191543619030554
0.47801264353611134
0.19473370430423761
0.031132376056549792
-0.789519972209548
-0.8283426615148884
0.5227325311795346
0.1232854646175973
-0.4367435503256353
0.36007470682581433
-0.31517652999565504
0.2776283695901885
-0.30865300779946864
-1.2013104456646173
-0.5484456971955401
-0.47577826184508715
-1.0614031894904568
-0.27036332620932796
-0.8596236132700077
0.1814848313146148
-0.15165179836256332
0.24296487532544084
0.4495470171164378
-0.12413049876305124
-0.645965454699923
0.2764894111822245
-0.6380296140856478
-0.19959058150027104
0.305320456969264
-0.129413012236217
-0.3216955008737707
-0.25676650524315625
0.2861674634824946
-0.42583917417618583
-0.696728338566246
-0.7629117439740295
0.12553745974272573
0.11026884026525259
-0.006974617070806138
0.19238832372905576
0.45528403003615137
-0.8314203844741028
0.11166337886444168
-0.12804594050021711
0.15164458313934873
-1.190793251635508
-0.9784661595747418
0.2788093761424659
0.2574893964399721
-0.7722308803090676
0.47577589199646625
0.17503788470104623
-0.27165644841632747
-0.5934056114622995
-0.6566086710029042
-0.2859147839742862
0.01941891410340045
-0.09108022930745054
-0.17866046004102565
-0.21988469420021545
-0.0567727077893337
-0.4082636359482719
-0.16012785076760205
0.26438544693548843
0.32995320822944235
-1.0026995786420234
0.10115464382958622
0.2915669272849609
0.6088452607024654
-1.094944618355868
-0.13427677085575015
-0.2400115778748218
-0.15900079633859854
-0.664761693485229
-5.9514995527594564E-5
0.006359069441504627
0.24358789159626854
-1.241513832370455
-0.18873713194541203
-1.1298189418384075
-0.012434611381673738
-0.1226555696087663
-0.40479977701123454
0.6330266456493289
0.44761688237841873
0.44682022045968967
-0.11453192462976204
-0.9114435366360056
0.1447728072146217
-0.09193553538967772
-0.7551965558958436
-1.1228117960885924
0.31209194088199815
-0.13866848707296794
-0.12200610746080909
0.3825883399729657
-0.13601493764712724
0.5207023687923897
-0.3382736092793202
-0.032304934855032164
0.024675832125471264
-0.015070601379865822
0.11441525013792873
-0.7285341024457613
-0.10042754453150306
-0.3586914568309938
-0.15974329087665434
-1.004296180370011
-0.6080780953870991
-1.2544936908007536
0.19546243830668514
0.4917269600340364
0.4412962979740161
0.038957697749236214
-0.015641206535710772
0.34131775878270576
-0.9603338788154693
-0.406694899890994
-0.4290890260776523
-0.498723927824371
-0.4373373939052501
-0.6536995649412715
-0.9301670746096774
0.6494496844283865
-0.5845671340852919
-0.8646161296118892
-0.5605718728227966
0.41466217990390386
-0.37204679657214834
-0.6529250775722157
0.17926236428406855
-0.6813019949233057
-0.3135510593169307
-0.959245708135922
0.08545736852088731
0.03543272550491257
0.5571883256783259
0.20312898423192627
0.37486003297908554
-0.8880603256236487
-0.6338922350191875
-0.44576069774299465
-0.1862790942750984
-1.082753829107469
-0.454168816293483
-0.3034241469944214
-0.6431585784662206
-0.04395638830401193
0.08744453781850804
-0.5100879323395525
0.20659574413491955
0.08127170671829931
0.49135220946572
0.28181125374745086
-0.954119633993892
-0.8293444470330603
0.6176562981334154
-0.8830957321683512
-0.8487086652223296
0.4716818038235744
0.26237657627989597
-0.14535589709519994
-0.8559164317189756
-0.5136515423901119
0.3593465605917075
-0.21872981941855488
0.3387042517153504
-0.528024353938424
-0.09316585416863472
0.5492216709645291
-0.8359031870321871
0.30600924624917525
-0.28938505884779436
-0.4224585551239616
0.15131547635470416
0.6585901543666824
-0.48397269399983545
0.17070391090877898
-0.9410152448295865
-0.21942326237120163
0.3889223383932128
-1.0266196077679461
-0.6192534218138085
0.07153818777939239
0.1532100896348199
-0.004436786841943321
-0.7689313285167131
0.015403168101307855
-0.6926127019262504
-0.04426883948001599
-0.7150767569768046
-0.9495591143771388
-0.4904392827804514
0.22906714821734114
0.44878412337957874
0.2276959362648673
-0.4247969172006781
0.6160198290455469
0.6222295463940181
0.27408672788057303
-0.28691483193722106
0.07515270944056313
0.2560507334106836
-0.7751128023483652
0.31770792492665356
-0.18778499528533804
-0.053658612538846163
0.30081346250663565
-1.0839778405052214
-0.7601481154417115
0.3823211504504627
-0.8031571703789259
-0.4404207833435181
-0.8933058536806644
-0.8740942352308454
-1.082725037915833
-0.5397806302247404
-0.04205867499027226
-0.04799637895365234
-0.681113403442839
0.4618886884817012
-0.5229517361766439
-0.30437923744784534
-0.16928297838598227
-0.15734241519715422
-0.8985591761788261
-0.5162901942340627
-0.01581766847249221
-0.6664037416322227
-0.6737973422557291
0.10406202376003171
0.6493487066110528
-0.8723794471636734
0.5166833635032775
-0.633564586432337
-0.9792737089487785
0.05693212745397816
-0.2618841925010223
0.40027554479635324
0.45965294744724844
-0.10653505106006281
-1.0405955798876236
-0.46129384449234634
-0.7890506784170604
0.3790664459153646
-0.18152839914977137
0.5512689883795455
0.014668400849622516
-0.016656214240039564
0.02642294427773829
-0.13371600752917792
-0.7394427652669727
-0.41438660703670893
0.1215547219301179
0.6560824763312767
-0.2573424676793771
0.21150264294368704
-0.8539570845113729
0.6771204396128416
0.6572169938884916
-0.35842879462262167
-0.9506904780057531
-0.43386720128510514
0.5913426929436807
-0.7698176023952932
0.47472352140363683
-0.770715566562282
0.6836994813072506
-0.3084591649124205
0.16320933621912073
-0.5688867480863434
0.35205269882755397
0.050375781269536304
0.5052230315031203
-0.09100425839308648
-0.7826413061726504
-0.778464118232632
0.10315326068785893
-0.4083455640924634
-0.8378426191857684
-0.6768893517482831
-0.14435090387060562
-0.6459055981496772
-0.4105435135040782
-0.3710088887242096
-0.9664379464561517
0.3994297271056629
-0.5721226945569852
0.4618316624411538
-0.0985442180793405
-0.12480996475916656
0.489577505022245
-0.1975064720322765
-0.46046463423352013
-0.7735340244113151
0.014538867208438958
-0.6181025814517551
0.5753418352603903
-0.0500913734659904
-0.8605483743648521
-1.019276895143215
-0.5818773589066544
-0.5147255654302397
-0.5315054943575306
-0.4866394476673697
-0.8468805856638899
-0.6516546968017343
0.461449489873154
-0.26849530430233415
0.029638580033162516
-0.4289514743643851
-0.9072544883641193
0.562662760470621
-0.9212194153112516
-0.7638232863740757
0.4069869044048539
-0.8249977513254398
0.3974482974863786
-0.26410411147585094
-0.6317097400855542
0.7562368952471067
-0.843657466428533
-0.16272462557998177
-0.7796509700591406
0.32496158605370945
-0.8468948011658491
0.11975451775598248
-1.0612849193967335
0.5907036330908189
0.06165685832807035
0.19612923896565507
-1.045551273574956
-1.0897808783048168
0.2830157839291675
-0.4579538584593453
0.43983435035434726
-0.6451139292528509
-0.42960143687779156
-0.20947730778637555
-0.5696818498754567
-0.931656967818283
-0.798705660718954
-0.7423274311684641
0.5037631057085289
-0.13193906652087514
-0.09221242150736056
-0.06915880038467963
-0.2994460595925899
0.22143843132029672
-0.8766134169399344
-0.09957618791775193
-0.7703172317807069
-0.8271835172170047
-0.7534573672871602
-0.7806488964920995
-0.5958665955119918
-0.07579240899957089
-0.749279183227243
0.41924491692184845
-0.5531616286365219
0.5297321936292323
-0.6804278898578521
-0.2788707504007026
-0.2862627581425605
0.1269993811154742
0.4419514378867419
0.2454046188862716
-0.8401757496392173
-0.946389579507222
-0.23311072860842516
0.3883418591723103
-1.0688635495471865
-0.16189083822289185
-0.320018281789118
0.32188890307797874
-0.2984376954130035
0.16372811988777003
0.23785346510666164
-0.8171423674978882
0.44119013207759583
-0.20855568619810186
0.3852893138957642
-1.0728571409750873
0.5157252565262389
0.7447645208365529
0.3134116590645057
0.10760115072469066
-0.35689227150287534
-0.7693498154833293
0.42548156151373545
0.7424800896519553
-0.530080592396216
-0.2474893392272798
0.820468960879605
-0.7171486975777422
-0.30914735240745256
0.2672065740229281
-0.5341261495123513
-0.16925322683583527
-0.1996776090855552
0.004857027275721728
-0.11745520653157522
-0.6087361638826431
-0.6821481695762915
-0.7441581530123463
-0.7209744563524977
-0.5135578670916144
-0.6904351542773428
-0.2580292393166152
0.33589321204721273
0.6076931382353676
0.6020696806974756
-0.4034533671242529
0.07841515765688103
-0.6919743117416732
0.10572831793255527
-0.6034305944184946
-1.1297338842475353
0.2173457590097534
0.47101542350036035
-0.008916246494439171
0.09632164405145516
-0.07972966573428236
-0.35500249111193294
-0.21905737516928905
-0.8139712958345955
-1.0404665091503928
-0.22370891380198382
0.2264578925739144
0.42106477791485925
0.11837204801201825
0.0873661752581138
-0.0819706123809758
-0.9581894901450566
-0.7659993746729604
0.3345496284577604
0.5940113571175877
0.5629223482257212
-0.21154639094876843
0.3263707011892564
0.07873761147862472
-0.3550279955560003
-0.02718187792212266
-0.8752484104191354
0.2796848812272516
-0.292307328400537
0.21227770849667432
0.21194021782694064
-0.5318418018352512
-0.7697125607105512
0.7761458784878587
-0.6247763159198604
-0.08076576511499925
-0.06674655468026737
0.3881592890008463
-0.2873249812055406
0.5235313964509775
-1.0036395165335315
-0.976279713914956
0.21884441566394064
-0.7431587679028137
-0.14865651892487258
-0.42221354258352345
-0.07325247149516571
0.5894203768014842
0.7108337071375206
0.5246594561349806
0.21432770360973663
-0.957410740331417
0.17944322153205294
-0.8949383941878004
0.5653895602810013
0.23933814076866747
0.144424300544893
-0.8804220867136765
-0.031273697563067804
0.6293427913309949
0.6770091713901627
-1.1144589657422153
-0.5895984349972463
0.6178705157672734
-0.015188362728319133
-0.8414032689508866
-0.5566677009404369
-1.1024816805080861
0.06522579766111584
-0.6526738436177616
-1.0621189012044616
-0.3387433374141655
0.2253037913244237
0.2677887310964537
0.32594783445843395
-0.6123754813766271
0.02142177684811181
-0.6283652583804267
-0.3679127033084933
0.060494406673069816
0.06287233875905589
-0.8413284659257453
-0.02485864846044976
-0.7746854478678825
-0.14132515395216527
0.014796056396492122
-0.4474926955581498
-0.191829460420906
-1.0380777012617692
-0.8290605743219509
-0.738691567607818
-0.5538897240809125
-0.6063294066483097
-0.5749490242356219
0.20782677514047262
-0.7683377605063031
0.48784005534240177
-0.0016063874359780476
0.2531087544887997
-0.17362742521252308
0.08384813682183798
0.05585863280298138
-0.43821968617018997
0.37547879804827566
0.11254807561847334
-0.14931265722084977
0.7547414533845821
-0.8083696191386963
-0.5940476994346314
-0.9437102539845735
0.198186763786267
-0.41206456206226777
-1.1514522935325853
-0.744931918655845
-0.8646162382672532
0.05022565427114333
-0.27845071056121373
0.6883978464575706
-1.0773961602926403
-0.9492753086549413
0.2285032650219623
-0.374791132326166
-0.5959772314165385
0.7901154011034882
-4.2599289930961726E-4
0.010339719699094767
0.3224308094228346
0.04909572372102282
-0.07381137014762217
-0.7962955559865418
0.4827676564135945
-0.39809204136482207
-1.0242500747305077
0.29507517253969473
-0.4909027919824137
0.06827636676076619
-1.0124585655314924
-0.051307925231429026
-0.01765536703265881
-0.8843084824263708
-0.5283733626357292
-0.9293556039887992
-0.19453652671080096
-1.0215019030475636
-1.1662741204506406
-0.4030183667226584
0.07516027388871874
0.3801500616944861
-0.9897856892723411
-0.2892383198156964
0.6287498453252316
-0.08748362420545823
-0.16582140396472045
0.05807747917429151
-0.024542608074354388
-1.1487140323552671
-0.1307100355959996
-0.9357608810312573
0.30507218277050036
0.694743404089522
0.040120106887627315
0.36009810919788465
-0.19077146281314308
-0.7655614096565357
0.19989703233218797
-0.4250490520865697
-0.8382583613390193
-0.4262351138905892
-0.4040924953665522
-0.8544846986830384
-0.12222076945359264
-0.431158068306749
-0.8514736052592992
-0.48880633240047977
0.20078372083262622
-0.6033535803796043
0.407133780813997
0.6777485235569735
-0.1595800121838429
0.4835932824661577
-0.5897743061151178
-0.6664237186955758
-0.8272760588096126
-0.38869691555412567
-0.5418311497308566
0.6438024792181323
0.57036272506722
0.708973078938561
-0.853964536714202
0.7321077164738108
0.5606330774940803
-0.9445611480201473
-0.8610034988410497
0.22774084103508324
0.693567177494084
0.5846396403687214
-0.5280271734897914
-0.30673379617674496
-0.41725513849740437
0.022467961796431936
0.49660752192556895
0.27301828190010363
-0.2780072141982425
0.35046232610563455
0.5998792874326382
-0.9805749971071087
-1.0273553611968258
-0.03840746285354645
-0.6887509918552756
-0.6929791025648416
-0.8542648645040738
0.29281475456978007
0.4123748844930771
0.10009314433736799
0.6719708039854171
-0.2793998062021054
-0.06016339324922787
-0.8598518725514028
-0.22850636045504333
-0.35648691252366094
-0.7624920520167822
-0.8596852126729214
0.29270276689051794
-0.361579575600902
0.2496740818538926
-0.7100721619520025
0.5099536266154544
-0.4877597287065326
0.359140340241493
0.6630524721471778
-0.33113914256215654
-0.9613905661190998
-0.3122232218202082
-0.39937548056742966
0.14361648334411387
0.30527898802623216
-0.8048146720669581
-0.2776582527419323
-1.2801985218746845
-0.40700554080749823
0.03731960257410775
-1.0703310456467043
-0.967501118288638
-0.02253328320078773
-0.3222234210726333
-0.22951574303904887
-0.8798421711065867
0.33496241669240967
-0.9993573832042518
0.432870609535951
-0.7896268764592639
-0.7535727900767506
-0.05920566728245596
-0.715751966576123
-1.0736844676475485
0.01862147652461293
-1.0675292157704523
-0.11779211613851566
-0.36889122421341786
0.648187323886739
0.2763427550136488
0.4813406238711404
-0.3855636728705087
-0.7431480777873378
-1.0947670732637882
0.06415217205682874
-0.1493040614067431
-0.7780537938165859
0.1296153160323824
0.3534193594318753
0.28004717338126034
-0.7000380691261422
-0.7624272949681269
0.3717124219213979
-0.38601938409483355
-0.38786655197291703
-0.4973080840404218
0.44304329616409033
0.5136576217475999
0.6157326984037591
-0.4943261882664707
0.07690148269157251
-0.3592489669324331
-0.5656271439697174
-0.6440758493654928
-0.09645311300973816
-1.0024218397300901
-1.0658702723736104
0.04212057902861361
-0.6903599671436454
-0.09609948306701319
0.3457227959577315
-1.0154131264640347
0.30826592097922884
-0.9828989311786037
-0.1899475082957299
-0.5089176996508444
0.4983335081321248
0.6239194365199509
-0.44196229984115093
-0.3727726445224147
-1.001608610878167
0.08855865236482768
-0.7916103619768007
-0.7146715515411689
-0.4648095221469676
0.10495956630709433
-0.14762044158649265
-0.9794973984987425
-0.9177258604441454
0.0020398888745208426
-0.15359359738536735
0.27354255730935667
0.22826925904616838
-0.06697061351347647
-0.5623871778276418
0.44558762416287284
0.7419132399372875
-0.5528931983936123
-0.36209255348085223
-0.20054639010379569
-0.07063751001948429
0.40505545968742573
0.17268535551538297
0.3375255003215257
-0.3849975840566499
-0.9338679279203581
0.6414362037663768
-0.7046421216608816
0.47312715584867504
0.012935223083794864
-0.07588444946500562
-0.25548865821641376
0.3539509450749356
0.017564596122563857
0.3351996234103978
0.6683262737692988
0.43321168032100127
0.25421375198114454
0.4602795670558175
0.3347150643260725
-0.37643041151745016
-0.6157024844576467
-0.2433280043991724
-0.5225453672242291
-0.3642722222060643
-0.03915436360480927
-0.6561570171286211
-0.7940966781784525
-0.44239214739331745
-0.4788764157311231
0.30311735137305507
-0.6005626945128293
-0.8923458393745002
-0.47740057871853264
0.2499286692298892
0.39541502738240175
0.654245250206502
0.6927593975888489
-9.452500475794321E-4
-0.06255922441243612
0.2884242648807568
-0.6301503828789193
0.4374152456509022
0.6421215825643878
0.6408502835626685
-0.8680191877597635
0.5306125393902301
-0.8013997079268331
0.16966540311448267
-0.9437442974011447
0.5845395739778068
-0.4407474779358983
-0.40327550293212716
-0.38968244085290543
-0.9347503391904041
0.15934286465011038
-0.3444073673918809
0.4916405278550332
-0.3179125333181523
-0.4833273086858007
-0.2502080924036692
-1.0354574097824332
0.8180631769466056
0.5168231967905438
0.32983762736438543
0.0914255244366521
0.18484592131723354
-0.5714089569964179
-0.8165473871302024
0.032054813491601934
-0.5909370346514732
0.21384348380071672
-0.6946977170358848
0.2939211057777658
-0.2410493880715335
0.17733878292935654
-0.9694272428973418
0.5094096952468062
0.6062494379442563
0.16524016013472032
0.1597696163733776
-0.8234368023863446
-0.6500774045215891
0.6589970605796929
0.06704775626717462
-0.053803855533535436
-0.035368856567303236
-0.47501157954998396
-0.47104457746635436
0.052258128436903827
0.07713879042995947
-0.5897493983597353
-0.4852970089681175
-0.1932216183114458
-0.9763336800169368
0.5790968996728957
-1.1726241865527411
-0.08226116199049134
0.2016551328752125
0.12339392613076616
0.5588900816021956
-0.5627247535959669
-1.0453602663015478
-1.0164870232686132
-0.5356016529036925
0.4855282320284409
0.07237856434438937
-1.1286415162467875
-0.7505703482468858
-1.1374295152072578
0.6117195307825518
0.18221038435421102
0.11950378116972026
-0.18795345507101718
0.23656792154755654
-1.0572002153226274
-0.021532967993730417
0.513943502341765
-0.5941054183140941
-0.649779349027124
-0.24633515420094257
-0.827197784794553
-0.16319675282938953
-0.892425078936509
-0.7378476548696585
-0.04356649765877745
0.279051348341183
-0.5445631513546892
0.07960329787339518
0.4072910927094828
0.10272686430375612
-0.9252816328898639
-0.16368286424106604
-1.0896732982917297
0.19660616447632448
0.5770776902608928
0.8252310024788907
-0.6142173794025143
-0.8992786745865387
-0.514109175255406
-0.557709022845738
0.4006045873582506
-1.0394058970145905
-0.5364860514536878
-0.7497632825685722
-0.9461948705735554
0.6874233931698492
-0.9180860771148794
0.5941174327766056
0.005156621558632906
-0.35341188227614895
-0.14635039099581423
-0.56260226642035
-1.0272210685323555
0.019047974284588914
-0.34900283111763253
0.49923383861160436
0.6353520191904464
-0.9406160078324824
0.587323521267057
0.3101964467178165
0.6700420362668288
0.7472275036641918
-0.06889011393828014
-0.4038612470802306
-0.8386854307309902
0.47108905987764443
-0.7385433521227889
0.7816109510148205
-0.9715819614933432
0.5849447118270324
-0.4863100023401369
-0.5934655818635921
-0.924597056753028
0.576098757022282
-0.3809555802902669
-0.32225571956195426
-0.06498537495711304
0.18493803715514354
-0.7727974537921437
-0.907071566785041
0.025996593465588035
-0.32502222669357433
0.20748049793119228
-0.9959881452983143
0.18935141353904775
-0.28303417612723186
-1.0592043388771069
-0.6497428433779551
-1.0377719984605958
-1.1100235815716344
0.26195473424695337
-0.4751841171480374
-0.8450706555438662
-0.7436059946924307
0.6668383049590404
0.7329670652491361
0.21197591755966558
-0.21622178831411176
0.5267857670561237
0.5707359951240644
-0.21354803966619795
0.6677848955672003
0.38773163032104774
-0.35926438554969525
0.2696844356493837
-0.9232757305415484
-1.0744095893170587
0.049205985505905867
-0.5569580060384732
-0.9254832032936771
-0.04652541447520823
-0.2589990304587335
0.7681350898823075
-0.16783780970887152
-0.9231206622010479
0.002428857833489507
-0.7167814391688858
0.28290431215434425
0.137816838681777
0.3291216914547334
0.34334320456540557
-0.7413871546497995
-0.9415538687758788
-0.3033258483592332
-0.020445454438003614
0.23602978900820445
-0.7817116300814188
-0.38333389654720934
0.2035313778453845
0.049105265377752234
-0.8363187979763854
-0.7375648650090512
0.3848839833474303
-0.19008200795978492
0.39107789649739977
0.25619937884986704
0.3335681131695155
-0.4295677294799325
0.27864068230374067
0.2673983788528859
-0.03196194296973229
-0.27820351719298414
-0.18814051145391333
-1.0404964041051505
0.44562071741856396
-0.33076755394885304
-0.8872886317681662
0.1260077478202484
-0.12390909083919448
-1.1069548723704619
-0.5890696792479597
0.3726770533277261
-0.20642445577302154
-1.1133360525368674
-0.9763860340112422
-0.8290239369962411
-1.0615283835434546
-0.006362282711627317
0.5406268216845008
0.6929636259717153
-0.3832257465343771
0.6389939047406422
-0.4350860215763391
0.23705709752504678
-0.18829441243465103
-0.46110225557184725
0.37129184643892554
-0.995806045145099
-0.8531994072625482
0.5315218350040861
0.5578527427932347
-0.14633797803534118
0.48343389078610305
0.5612600947316141
-1.0623731927228652
0.06638812834519295
-0.10608282434607533
-0.4169028784102598
0.6111846907762872
-0.21093105084287106
-0.10897922786755662
-0.8718336502829419
-1.1867296706187445
-0.022417668162165633
-0.9665211636016203
-1.1313206270894458
0.033600297410656385
-0.9536825202577662
-0.08810236415447475
-0.21047794443371612
0.6295050009592659
0.7189867407953473
-0.41735277293947953
0.2515701744703449
-0.0672736409637312
0.02934476784167814
0.4528991490022303
-0.3511597964212894
-0.5444002428581451
-0.26482656612890976
-0.5870019061498045
-0.40897721510405105
-0.13881602390228442
-0.805160479153931
-1.1253309096888864
0.1494105536632252
0.029831029170070054
-0.7345859299259037
-0.7870558244620793
-0.11736465327060779
-0.9129588797124966
0.5907174404111079
0.4215926448702682
-0.8867923913432503
0.46259778758472964
-0.3039804130864678
-0.4943015243928533
0.15257669227276233
-0.2420194013250788
-0.2656402619491566
-0.18435471086578065
0.032108231454868505
-0.40021486907633047
0.3938366617050639
0.3012134818526182
0.7325127229399002
-0.4712337486278946
0.2965965004276077
-0.5518419920615959
0.658313336042397
-0.5387047161534833
0.3815659158781429
0.41335716870159844
-0.6663940041946113
-0.8062853121747265
0.18503405194868602
0.25365044759324423
-0.6437165717266877
0.08128221679390732
0.342161793954316
-0.3918565202354507
0.2537335329839558
-0.20988843409802538
-0.2574374476535037
-0.8986184219918013
-0.40798221440446725
0.8330147367565687
-0.5771675150732253
0.3309867774757508
0.19084915912566486
0.44526366694063146
-1.1438956044604678
-0.8304435787829539
0.599947296554322
-0.6999663968565275
-0.009222153035984082
-0.45229007568437424
-0.47939523245737925
-0.08847339118339612
-0.4772674181407564
0.005526130189052982
-0.22349093041990903
-0.10263699618971911
0.5189826825406626
-0.003607285396027525
-0.6788414180666341
-0.6996443491367353
-0.2744699515739107
0.6679357298290318
-0.06190600579319561
-0.8424820148963921
-0.44913464597798786
-0.3290860072655531
0.6758824140691231
0.35267407116076616
-0.8412382181226007
0.2045426007373412
0.051060816836817284
-0.15970750445371612
0.0981065816901195
-0.7368120539925288
0.009841695556168258
-1.0465269278772287
-1.118076675755333
-0.26535808118604487
-0.8837889426605797
-0.858208126421818
-0.554647559140707
-0.7485304488774902
-0.6662939928479263
-0.9665626914354176
-0.8176750942114046
-1.0316667967853588
0.14980700529361868
0.25289990100551646
0.6217525349064489
-0.9765660012519608
0.5143548373677559
-0.07943517265767745
-1.3124217869702732
0.4645708273318137
0.5123940154828992
0.37681348614913296
-0.8955221109724215
-0.8084873631033629
-0.20860054938488864
-0.3747952023251313
0.16253527313858773
0.23069010807610227
-0.09499193551467813
-0.40746280283971403
-0.10865018775017155
-0.4833086332860469
0.6428183433027151
-0.43895008920377276
-0.3605082269722687
0.4219249201451618
-1.082993761282009
-0.19467599116744977
-0.5292912442807329
0.5174398500370525
-0.4913139230739482
0.4109664733632628
-0.03931863571882361
-0.15204268677911806
-0.4614422206123382
0.5720534256905365
0.277839136853619
-0.20184442469882968
0.026808612922062942
0.6339503931833963
0.15415606324523662
0.4172585753547163
-1.005465041953032
-0.10442218295848843
-0.6034398287525942
0.3099801389717685
0.02522044815567576
0.040228436525998126
-0.8916645450842418
-0.1654871908613961
0.27042537054169985
-0.766528705811667
-0.9999197814403683
-1.1292594553418458
0.44394203668602694
0.12721708762857808
-0.4853200231099136
-0.38410704776716087
0.5406648760906921
0.11031753264522262
0.12258888238002448
0.7170402915985234
-0.13860286209663847
-0.635381141745358
0.6535385309484233
-0.30137564595502564
-0.946876417354686
-0.08029683495438777
-0.9377117527954061
0.5823511103789257
-0.7653362210077294
-0.34547535988265266
-0.32937719576876046
0.0748427246184615
0.4993851205496384
0.6118094766437197
-0.18372278432347208
0.5232312325233184
-0.6319881557057079
0.18660439645068458
-0.5803478875644545
-0.3593586013750519
-0.04092805790698644
-0.5576719612142934
-0.5113788913755214
-1.0418689413112425
0.20721853885715794
-0.8505934098328923
-0.37753129657125767
-0.6432600091379208
0.31366544151258197
-0.4618269415916858
-0.7590483350707863
0.3650199683930793
0.20430144344587187
-0.05899421456039129
-0.8728202308914541
-0.45313150682215264
-0.5267936443895077
-0.7756114386092707
-0.36362958163319814
-0.5230246400824748
-0.10894622819990214
-0.7287975451109112
-1.0093139607756452
-0.46246054384683166
0.2699695011861912
0.39776167859733663
-0.8071704769977046
-1.1849354042273168
-0.2897650947684394
0.362633191652574
-0.3938915480269887
0.4477494551629949
-0.636421046219268
0.43122678766175443
0.42841848313411973
0.6276897517814459
-0.9112054965313222
-0.4324079750051367
0.3672240936715897
0.49153680335681194
-0.7338445881571046
-0.11618028662559071
0.22485650234871735
-0.7730508870198723
0.3795087328630935
-0.5572949673694261
-0.7987140469017889
-0.3136196874688386
-0.6187954182118806
0.25870105856116304
0.17188067571264257
-0.42743610520622155
-0.8308649340574112
-0.08720580327623483
0.17471935049029058
-1.063430754711107
-0.7852767541244547
0.5999161301653431
-0.3080993703359126
0.21472426227494026
-0.3149303849602868
-0.89646557538908
-0.7981546571545518
-0.5494952963152308
0.1460259809106395
-0.4165974005705479
-0.16643343296221977
0.06493921478043402
-0.5173193517925936
-0.8142404413649893
0.20706893207345295
-0.838985743184089
-0.7240664780150333
0.11499884825708331
-0.8404047985373606
0.8181856496973043
0.4493095927356617
0.32886404468182084
-0.327805856764098
0.11798645208613896
-0.049258205050211744
-0.46405106211297703
0.10764673472742312
-0.3387976976633647
0.7144112616594008
-1.097731685300326
-0.36912797075055914
-0.18639023614186406
-0.3582441036034233
-0.13281877691653163
-0.5152434609644932
0.32572969094682513
-0.042668616947442735
0.22884818563243492
-0.053286750586421565
-0.32002117365664645
-0.7257722164986486
0.18757547190934382
0.13096418494140835
-0.5276326557549117
0.5191562699525567
0.13878451221473034
0.5004698596219128
-0.932067952137488
0.41398467195689637
0.140868308843353
-0.48887374985837107
0.7095150575497542
-0.27983768113789204
0.0673724356006153
0.15561290793893567
-0.06234082679774941
0.21788419401552886
-0.023323360259498955
-0.4416130071204595
0.37118377408819514
0.5300254974633017
0.5457000209391027
0.18030182812832554
-0.7506528692055624
0.314582502753584
-0.763128548056878
-0.6265114021900168
-0.2470473244767191
-0.29919418697773437
-0.24192173375917567
0.3271655444298315
0.37610195420382464
-0.25522188323913
-0.6821159481952874
-0.13242334013431278
-0.24071196404212244
0.5078854326579196
0.07345712380066381
-0.5687584732384693
-0.9265996858706185
-0.7399076493545954
-0.29629619357703557
-0.046833501708534425
-0.9643875094858312
-0.7847583736745434
-0.5360207592740153
-1.2698284987566557
-0.9018475630475505
-0.7024514927870855
0.2112511725812614
-0.20508130925508689
-0.1794753408996184
-1.2054197235584576
-0.629846750715217
0.16676615274081968
-0.5697416600409038
0.1546500160669878
-0.5786909793863091
-0.4139300007670189
0.4335652222495029
-0.8471790500962106
-0.588574895577948
-0.9236352759158657
0.32215979870720146
-0.4290093913525862
0.15548385149685323
-1.0277441862060162
0.10101166770504785
0.6731179784923048
-0.7393774097832494
0.07421681023674853
-0.9501336859127151
-0.017766410814132567
0.3018238455588113
0.17186601734591841
-0.9966662805650408
0.4621115166554277
-0.40355979743500436
-0.9284453147488415
-0.6064459461681825
0.7038857116264462
-0.1366667712125538
0.5701810505524404
-0.1600168221398554
-0.7207269486612571
-0.47456444424275757
0.2556928496726489
0.23189886909530988
-0.5847993754147208
0.29339353007298874
0.35822452378314096
0.46845019921518866
-0.28888272714393065
0.14549223290724855
0.4254150549167831
0.008139889847670738
0.018943011458516915
-1.030581596618937
-0.7087142594673111
-0.8670484905544961
0.29473266923224034
0.6137360018994195
0.5450767562735803
-0.2980365149226736
-0.21275483849814936
-0.26508874467764026
0.22938828579999315
-0.06333018105476412
-0.4715937625399268
-0.8124075496612084
-4.194196132585211E-4
0.12940253254181736
-0.6029285336834601
-0.08543730394174398
0.540565989280411
-0.6755840178043306
0.2557132899612366
0.3321541022960537
0.49148147818957144
-0.6544798184519064
-0.9017472729789339
0.08103033772129287
0.12271577662427931
-0.06811373670137445
-0.6833103246287408
-0.8749990415842805
-0.5275688539770961
0.3974500752760802
-0.6089464058519722
-0.6371806184116631
0.16961347283145517
0.2113666281295627
-0.6451206314673338
0.35260480151703016
0.27338797206375376
-0.0035645027465045697
-0.9657771386163915
-0.46555389549371956
-0.5205784263493181
-1.1681804820642179
-0.6163893197192879
-0.8262098263740854
-1.0938871579683993
-0.8912674876348976
-0.5832985353571737
0.28844069690447083
0.6296434909778913
-0.27615629486603954
0.2735475412960384
0.4082604538682583
0.4490845052185607
0.1074479054949824
-0.04438722453452326
-0.246513151358549
-0.11722759245813513
-0.38735270647333303
-0.9467835014933627
0.4445714622275308
-0.36481927354692817
0.24011298431749606
-0.19746745584620728
-0.4870916155350631
-0.7279031194315558
-0.5115836041850873
0.14937549610954173
0.4528282920978308
-0.6542590831728425
-0.817522893053664
-0.5469157611195082
-0.9600412479000195
-0.5015025190312953
0.2597844814310793
0.022776099095956296
0.03862905516236145
-0.5901127208327615
0.25009839842366216
-0.9070039070464733
-0.5997888157116252
-0.027698991131255526
0.650129923158651
0.5886907998113909
-0.4646458628456011
-1.0114298524873218
0.05373451984488418
-0.41184652066462196
0.21200085126894916
-1.0320715269799745
-1.254952572172787
0.1254461448029625
-0.9719362171724163
0.22568799170110834
0.37515079119077693
0.3610825580823903
-0.34272074861731766
0.6264959349207163
-0.023776559877406667
-0.9167777864959132
-0.8486713876025095
-0.4370649098547222
-0.5053911338745569
0.3049323515051767
0.35813775853979635
-0.0450462730867123
-0.12573832330534457
-0.8808830919029118
0.09444573946740147
0.4272083099260664
-1.002377740523342
0.14536860405957905
-0.6829839091735528
-0.11949298526084857
-0.624532214125837
0.04182038954414517
0.2145153768326534
0.3130483455460107
-0.8381329862453082
-0.569296713764782
-0.9230299002825303
0.37677861975478444
-0.1571183318392931
-0.6426547388315814
0.219500480041759
0.30970958335802984
-0.31158671960839174
-1.0175532030293495
0.04945165121220775
-0.05082792651876989
0.08601903618780536
-0.04454259642203739
-1.045998545496972
-0.2750576366473417
-0.6991840067636995
0.6114766606796233
0.28467642665110177
-0.9047364576128454
0.7294528595488394
-0.5158188823791928
-0.8710470170241513
-0.9543514350538707
-0.4391915459214097
0.7192825161896904
0.3483534694506714
0.12185513568275994
-0.09407281828094437
-0.4798519730773548
-1.1078748945716859
-0.5283625621896109
-0.8056150202634765
0.2910378205027743
0.49601501781710844
-0.0547861913877078
-0.7639253861144554
-1.0721519775972888
-0.7534234170241374
-0.458674227115227
-0.4029806021830487
0.6369099959647626
0.23230234794647867
-0.9359105615413883
-0.3075432272189804
-0.47103343467148273
-0.46900035068643253
-0.6350320086470678
-0.04809955333650141
-0.9940523139398061
-0.1713114336970869
0.07263164782090488
0.09389932248637027
-0.29328389904691016
-0.9094999213312568
0.4757475907194066
-0.3292606754904113
0.6566666672238877
-0.18149411560117715
-0.8260216084046261
-0.7188210834058126
0.2616712354451174
0.70196377165352
-0.007282676111205007
0.6437708744845573
-0.23916937319729892
0.2810311659937165
-0.6072555111375858
-0.25004925541000034
-0.27327873175127737
0.07103090612955579
-0.5550859661660985
0.3702337851800343
-0.265584858980697
-0.72969595065514
0.556652966492046
0.20738888398349264
-0.006891478900267087
-0.19233199635695686
0.675291511892544
-1.0596769456492283
0.3520292711940548
-0.2411280442110003
-0.22730144057943974
0.2777455321871329
-0.13687395926077994
-0.7343538287289466
0.293731857892359
-0.7060184344886402
-0.4954299076794445
0.29325366348796916
0.7395437684681382
0.43155262939060984
-0.688262191406313
0.03085193432517389
-0.32626900352190913
0.2164208174664959
0.34182489831031876
0.4685631078534144
-1.0111528015042783
0.5208511802909305
-1.0525874616709074
-0.47961680899398407
-0.4089778584282001
-1.1100183255843752
-0.43864081536177807
-0.8132563338569406
0.23208140907907732
-0.4008164493517022
0.5772227941891792
0.10036880293693565
-0.6645968952109723
-0.1679843416769178
-0.567238686080148
-0.5497194517838105
0.344406998700562
0.08573805196555578
0.1771679099155696
-0.3589818351479774
0.3693835753390418
0.35717875727684145
-0.21013708119369434
0.47200360199477154
-1.0781515181304688
-0.7274495019144831
-0.6991688549662016
0.3000309228344013
0.23028896893135875
0.5568772787844497
0.5569002496539421
-0.1458145482208972
-0.6846748537734706
0.41569919205102746
0.002518595211542384
-0.4767647466373172
-0.907542308677744
-1.0018490414039327
0.2522339993029473
0.1640184842385239
-0.9187703961494881
-0.42779866709140374
-1.0195698606645978
-0.20639375144436997
-0.793910899571592
0.24782145360120733
0.38295577172213086
0.4869939387966805
-1.186941310234002
-0.8983548667122402
-1.1247341741204833
-0.8496370484342204
-0.535947151294614
0.41392218605011055
-0.9291943705140276
-0.9666151675878403
0.43828606112537444
0.28447436290113115
-0.31675494497478945
0.6049023881509258
-0.08451727882883481
-0.5039903248509595
-0.5795480635364921
0.7785895325248383
-0.04473310354851394
0.5038922214925579
-1.008564511303577
0.39197243757550704
-0.30490936828259124
0.25124058254913334
0.5667683503778139
-0.5062552225019563
0.04236698806834869
0.41378733185114525
-1.0029543227481115
-0.8936386721283208
0.25619110354022656
-0.04191169401550844
-0.3845969317998115
-0.5970578041852721
-0.987860709248242
-0.8551481040302094
-0.12375439054257997
-0.7537309244008268
-0.8737579522022119
0.343520371054399
-1.0203798047811907
-0.48355847211312936
-0.11234113305805586
-1.0755019672277646
0.36698746954464395
0.1043017668769215
0.6394553420459793
-0.576423451567687
-0.04257288081065351
-0.8895028944797769
-1.128074599285773
0.45480952538408903
-0.5020165873398837
0.002655754273463779
0.25793246146965954
0.4399806516029121
0.4949581208673
-0.5167944851769887
0.15210591392038733
0.4046940089385757
-0.06096423242668162
0.13483140054474899
-0.6816200838095356
0.23669933779287505
-0.5020816216783521
-0.47031394543294996
-0.07324582225353264
-0.4385429962625835
0.46198233143676765
-1.0774549801346267
-0.12134198157826645
-0.9178487833555912
-0.351633955194839
-0.6410991382736537
-1.0683938744495105
0.06692935655629759
-0.8476403588635418
0.278949257763176
0.5262423462873813
0.7025559418105719
-0.846724481925873
0.4056365007693364
-0.3954202408362346
-0.12283409060045786
-0.23044882615287313
0.36004503179231584
-1.124307609344734
0.25127559890462986
-0.478504306174545
-0.7043025211021551
-0.24373898564529606
0.4737851023002719
-0.21495816567505888
0.358137866275911
-2.3593170378865836E-4
-0.23330046111933941
-0.6541468582971246
-1.0281704690524838
0.4229699135798691
0.6515590513099557
-0.9107975433154629
0.6232537205214755
-0.17446508250264003
-0.18740696252298092
-0.9907438776631331
0.417078145925613
-0.5290508262133604
0.3679416887791092
-1.0019542697908699
-0.9939820030313292
-0.6139961916566964
0.314873166455728
0.18020941477836863
-0.8218237101975122
0.10358965209097903
0.11137759777015026
0.16449757466950551
0.23658587341763065
-0.8840588312889757
-0.6496292312932314
-0.40272564099333447
-0.4606841769465878
-0.03234264361165438
-0.9319549036964347
0.27614975702066574
-0.8502834451199683
-0.4091409431730444
0.14901027940585712
0.6137355177258846
-0.13439735892658014
-0.22536679133875245
0.3976117128142678
-0.633518525759415
0.11543966223662157
-0.9607831259822861
0.1599154905589233
-0.9291820945935175
-0.6577895881160479
-0.21617084620172364
0.47175693764202076
-0.43792507763881094
-0.9220833797403482
-0.9146043917165776
0.5054139657967678
-0.09133902816299651
-1.0238482070452524
0.32800695334362595
0.23594873346596518
-0.24807311060681725
-0.17741969617534853
0.3879421691689518
-0.23894849360626913
-0.894809240036179
-0.3080423918039675
0.41717438071930446
0.21825292654173126
0.06394066909338172
0.3321981235135981
-0.12682450101334727
0.11715135052612542
0.19561553450351293
-0.7980535256484933
-0.4558619454748747
-0.3001020983725807
-0.9554445163746388
-0.3729675761377413
-0.027054259301113045
-0.24535905951339884
0.27958244593597587
-0.8840353416202349
-0.644586358417967
0.1430679724944686
-0.6268285340269206
0.43621424542217974
0.050808198289809856
-0.9833682019053622
-0.026428532368464028
-0.6293643518327838
-0.7314461605758497
0.31491212108964445
0.40367716688449307
0.03226732162716133
-1.0453390630375623
-1.0124356483544341
-0.5425735196673073
0.703139542920406
0.6982902570245128
0.3526226447152064
-0.12966258364795222
-0.957603888536932
-0.01011870853558278
0.6669356059432422
-0.2606348888822242
0.6780384253665601
-0.045232170444004245
0.1499857974764101
0.4690232120252813
-0.0900185214244233
-0.6129151868766038
-0.3479930305138442
0.6410544432990749
-0.6946558659051706
-0.17430441768939547
0.4079984794945835
-0.920305658408264
-0.6759771917278506
0.730000232187726
0.23491345585642795
-0.02741043297762848
0.023659044425356535
-0.30327593570247313
0.024996380383087772
-0.5983816525107519
0.5144467740581098
0.043344616965493896
-0.6111523528453042
-0.2788332219412241
-1.120829102572266
0.5563032083926082
-0.06229814657433003
-0.4356745462236985
-0.05432399004724485
-0.3027792598776982
0.6150426531812958
-0.37350157146737084
0.4346707027472328
-0.20968144574064407
0.11718692378443543
0.2778895762810648
0.043575113679469715
-0.6467474624924349
-0.7756387963300543
-0.7135888764406871
-0.17480519478068293
-0.9128044217839253
-0.944220393201539
-0.8741497115800092
0.2819983189796557
-0.8637679235852627
-0.3464814662850756
-0.8284592170860485
-0.1679134457678625
-0.6130530793669874
0.3628222224913044
-0.534519675259152
0.12950319403271365
0.5169890748019087
-0.2511540409859533
-0.3612383687519527
-0.5653485911985087
0.5598786718805814
0.44546850115964354
0.16677137112154536
0.47459087492467145
-0.27945685968852785
0.14425586833124818
-0.2739362983901189
-0.6281439500388657
-0.5107676929148165
-0.3388398065867
-0.6919752259525145
-0.7370111802309823
-0.6446980382912324
-0.5241084590458136
-0.8912031714514714
-1.0287440307589644
0.487916867733478
-0.5008963219910721
-0.6486808419199599
-1.0310057392934218
-1.0568159102609944
0.02086177081090746
-0.11220343545374435
-0.9871882840840444
-0.40898216168639845
0.06227874833131027
-0.47484128009421306
0.4866616490147744
-0.6946279959969659
-0.45910542081927075
-0.30925896026851707
-0.13604639458249218
0.4279554045969639
-0.18512675349377447
0.8651860701589953
-0.7400082659225079
0.5951449633070591
-0.25544499087502875
-0.49088183218800807
-0.19621819734701135
0.1147810012211995
-0.12634021759079953
0.28855652525157355
-0.06304699288364363
0.7186145938229627
-0.19917514176825732
-0.7956306512057797
-0.13094062168627635
0.408384866782951
-0.8118168162350533
-1.0186439160346377
-0.5581589929736803
-0.02807691128075551
-0.892890653730325
-0.5706647479899535
-0.558227285186435
-0.5444896305521535
-0.9527069606593531
0.5084538040028816
-0.6223635293273116
0.5787225453241522
-0.9387323486705619
0.670373510906788
0.4149942575693562
0.8329294281805545
-0.540944073777713
-0.08075756721421026
0.3025693484590783
-0.7148373919213923
0.5077567228456933
0.28229355086779306
-0.6649297527089759
0.42988956050996874
0.08794666891026245
-0.9337058559928763
-0.15587735442364553
0.10834855185252791
0.0953996678991457
0.3024087800688015
0.6319268879755507
-0.08887686231300075
0.43686229444454466
-0.3931277611441505
-1.0379237842050526
-1.0055118724546415
-0.30589897780790476
0.2981271725621062
-0.10970894974870798
-1.0231390734419867
-0.7239635937913822
-0.8153843429004107
-0.38918863684747124
-0.590428378251256
-0.7647222104333956
-0.14602844063390685
0.11530017017435625
-0.36298892576532255
-0.5068403963015583
-0.6490111238234875
-0.9096156505662488
0.22337015823406928
-0.45587944494966987
0.10435869529636597
-0.08219402598828048
-0.11019520413197968
0.13756927539095437
-0.8886392541439116
-0.20820247520497034
0.4652706820149321
0.24495785677871917
-0.17897337037495817
0.015529953366971995
-0.7301288084186764
-2.5544144280693903E-4
0.5536580161133269
-0.019012929814631766
0.35498879870806516
0.5565683348914345
0.5321520518067376
-0.24248294801710676
-0.7378936293047452
0.1770496513284675
0.6985557649875588
0.2901780391812685
-0.9482612594078579
-0.8127205354255311
-0.8327742875084752
-0.984041919374309
-0.4724433648369757
0.07782997372457195
0.5062365939239056
0.2783195939521259
0.13544951042907588
0.16789876406696627
0.48508307903871645
-0.2299249752162792
-1.0703508325161168
-0.15465669087646605
-0.5944658057206901
-0.5471945185155538
-0.37637754806347407
-0.8066140787556947
-1.1516951368725303
-0.5286168940300046
-0.5306135992259413
-0.5820807870561238
-0.02363988657446236
-0.11455483848703324
-1.015683521708338
0.07698264563786496
-0.9359367646630221
0.333589035021147
-0.5964781068840715
-0.09463581695553885
-0.03506613907340849
0.25023408356317334
-0.335935899969895
-0.7911008698027667
-0.23909080663473564
-0.7669707657536305
-0.27852071281556096
-0.37126990415574546
0.5798928071516802
0.07605529415222873
0.5718200292864272
0.610582119441004
-0.25042636944870916
0.3469169789343261
-0.037864163655642685
-0.43510859684722647
0.7098028447094846
0.3088414787017669
0.6680523703705685
-0.43893052289451034
-1.0086167780364375
-0.24832360581954213
-0.17478281327924627
0.5222618156525544
-0.9216158690948301
-0.9008335749802849
-1.0808601528558428
0.19052730406522028
0.3225742764810884
0.3503281828876567
-0.5179731331542499
0.2279052892806405
-0.21212726209444635
0.44731342824198544
-0.4441377648352588
0.3032927920697041
0.4172178460296096
0.6356948238464273
-0.693212208536086
0.12312831104974374
-0.2921640328960776
-0.7627060951552304
-0.11153929322147386
0.1644709634473148
-0.8456522022099939
-0.2358026175720881
-0.46356329350603
-0.6875375516266421
-1.054005926247032
-0.7984178633008412
0.5291857525943322
-0.3164563010820066
0.5809413270678021
-0.4148527577613505
-0.7939474144872283
-0.3913009685773714
-0.8441766137397305
0.8471087423618462
-0.2063038096564109
0.6537108983605314
-0.5023468888892016
-0.8534418047299984
0.23403513606830856
-0.6521335888292659
0.1730460305766444
0.0291660040261985
0.266351304566006
0.02068828173311641
0.25462205433350815
0.24688708431350562
0.3620118867760275
-0.7603915042994955
-0.8625018675383215
-0.32499135692417164
-1.1219253613997877
0.7608086049484818
-0.40595154912382625
0.2742299975782276
-0.7702337348939798
0.18773291296364414
-0.17003266486085164
0.4935847600488101
0.5821480352151952
0.12417427189454446
-0.022564688317140078
-0.5228645466102582
-0.925858556666854
0.21186807526066956
1.0677292370353433E-4
-0.4260536423893346
-0.07043485767772027
-0.04945670257863851
0.6949914313721729
-0.09630460729123283
-0.35276968825397986
-0.5311912718491524
0.2526429273618858
-0.34562904359648505
0.37766037899768745
0.17084829610602717
0.5113747049446117
-0.36954189817187877
-0.1306962256158516
-1.0052854191227465
-0.6806217259307269
0.5266325084297282
0.38023757065913805
-0.1525698557598145
0.12917961013538176
-0.8376186634918988
0.1912115481943675
-0.9799682990933957
-0.3364299588163714
-1.0597953880740847
-0.8372556875848032
0.4477395977197504
-0.7242293202724608
-0.5139965217664886
0.6641624484546919
-0.02990219068647277
-0.6722258310802518
0.28797494489612435
0.4821225455122039
-0.6056846940702597
-0.8696859101343094
-1.0498023571340374
0.011028584271281562
0.4862904792013279
-0.9427047254161728
0.6068051985352441
-0.6178166538600643
0.6226218351891488
0.5282576301964984
-0.006691947364368763
-0.13264866781805248
0.1943095882773088
0.48661663693362817
-0.10150960592333716
0.0510391438748475
0.7898161044918502
0.35854953796954286
-0.5597141525931721
0.7063876690170899
-0.3760563460088252
-0.12454898429433832
-0.43194137474550853
-0.3719779235551958
-0.9706308141857357
-0.24472505492057794
0.16150858314932903
0.33291885444301744
0.5828758329171517
-0.9729287368226543
-0.6696474996118694
0.4557007331572131
-0.9754631187169513
0.45601114639116525
0.06931647061798998
-0.27045088639134285
-0.9374920596537237
-0.6311649218180713
0.0670112383389283
-0.5015590587110459
0.6135655684470878
-0.4273124367281933
0.07225801573903141
-0.5425548231185678
0.6381106593411628
-0.7559396210725812
-0.961541433664254
0.040722615584246974
-0.2847382370612337
-0.7909436041836857
-0.9880462601958929
-0.3958616610605106
-0.09672691889596037
0.5760202010365174
-1.0190021936315101
0.11659066192389271
-0.3328309731462392
-0.07408743799942072
-0.7380850339899063
-0.7747661706935295
-0.4506301258536823
-0.2686667231718018
0.1310583149952167
-0.22405081820475814
0.20042566601288997
-0.9891791774983179
-0.403401171202447
0.19683638844108503
0.37744183770303336
-0.4785940172139205
-0.506549718940965
-0.7088776945131069
-0.37265452917752595
-0.2433858052820299
0.0121568704052345
-0.3517000160683349
-0.0693560997912396
-0.9454547579634613
0.2276121775269406
0.10094555818491487
0.09507027952958962
-0.077942449251638
-0.5192290355972483
-0.00236355273278172
0.5400703737801185
0.3438019211080636
-0.7796123475862398
-0.7526175175489771
-0.4654338722218821
0.278220327314013
-0.9224165449694783
0.4667686458101064
-0.2590917257526575
0.6682988162868797
0.018384360112879063
0.5164210215110913
0.25054617312827887
0.2381519528202896
-0.23099520438387486
0.0024215284198508017
-0.6338058499723642
-0.19877729044704573
0.48485923427782535
-0.4347635979294944
0.05168791264414369
0.44210980786574283
0.2735278133203713
-0.27856480489419
-0.8637807224211275
-1.0071573160054552
-0.3633186786946669
0.5648446378967117
-0.7804795069652033
-0.2124623065437057
0.6439430113540181
0.24033290421692094
0.118809936891754
-0.054330011450113166
0.21745840422446927
0.04045658318000307
-0.9591550894942397
0.6284301159022985
0.21395145184584563
-0.38926642729133965
-0.8134350107976687
-0.8128991857828789
0.6479624892364122
-0.43902268810936484
0.02275192157974412
-0.7249129778262149
-0.4872216483374292
0.15831703131738287
0.2299942675809548
-0.1809524056118683
-1.1911066830846455
0.13023301184827538
-0.7235942437408627
-0.08927543486927744
0.2837461713508284
0.4949812290004247
-0.16081366425550528
0.38464514267612604
-0.9960913778116847
-0.42489556633832015
0.04091605977697801
-0.9898209127276059
-0.33389192319520333
-0.7052129832505922
-0.6349044255662161
0.11712240500079399
0.5028990151909911
-0.04570768077029727
0.3701049095614635
-0.49274343801550624
0.17002568409032093
0.4138774965576383
-1.0137108639530354
-0.4247575321479077
-0.7037969405247768
-0.6067849935830575
-0.8878072531969569
-0.021239889302054706
-0.4578630173339304
-0.6027850165145516
0.11171327491742554
-0.05616831733402751
0.08300370590112974
-1.0473698734094972
0.03787911114494872
-0.7717859303079692
0.28758668701677237
0.7065977628357683
0.3566529423418014
-0.13654357295312028
0.712400878780628
-0.23199118881054678
0.5466875266494027
-0.2604030186768035
-0.6479330753297222
-0.20681406799797308
-0.7620651094445994
-1.1273496952977926
-0.989518591238455
0.5099817211184243
0.8108551473395559
-1.0799742099022103
0.39596475000472625
-0.5869785922755165
-0.9640112554033574
-0.2492802005132228
-0.2870248981572344
-0.25006530501914204
0.029838678769591464
0.46120826795893566
-0.042057427182702244
-0.20445982451554448
-0.6458272284507627
-0.6391577357234444
-0.9411675027388482
-0.3052317966408672
-1.1804198319181272
0.46687036591323616
-0.4494323022546898
-0.10183820306143722
0.4279788711304749
0.04254177055879932
-0.8718236481928089
0.49741209376009904
-0.6542250701965105
0.46596256971687383
0.7511531926449929
0.17646280960305488
-0.2548966650682766
-0.5936189035619724
-0.5236644553430835
-0.3702955576471258
-0.39395307299789345
-1.008794944502495
-0.0930533642340392
-0.841401492794147
0.0010905970006540417
0.3381429106274641
-0.24019029222769886
-0.6826560255400532
0.26452890078263946
0.13289434727713348
0.24274141822638534
-0.3827545446814999
-0.39788261646442413
0.44202802839981037
0.35035272214939583
-0.3368192871627958
-0.14017373289557666
-1.053019366297702
0.7873379311054561
0.7882039793546092
0.4256047291522397
0.49359184820765534
-0.8754351775194948
-0.9797152772560338
0.7908982525964124
0.196066234568927
0.0427068090764082
0.3327143903407567
-0.469063949010035
-0.9034541496580089
-0.28877334636774976
-0.3143722274236867
0.0557788941736975
0.5774332753804232
-0.7889518209547359
-0.36052433627769576
-0.48350957351840074
0.0436501537476116
0.008971106535046378
-0.6089380377447455
-0.7861236566319634
-0.2974875275429096
-0.9250516963088008
-1.0727405196774324
-0.10321846059939813
-0.14787819376145211
-0.9808630408735928
-0.7735574149763659
-0.258897592609183
-0.893069651916975
0.11009903154863647
-0.7279031846275044
-1.1099624750616035
0.18947754336323094
-0.8223482793307186
-0.636519686268629
0.1594374985333992
-0.8653988753375613
0.23956062632647027
0.5043175745501244
0.2640417137824743
0.34644797126261956
0.19490171600631018
-1.0399434018884157
-0.11473074675185001
-0.5645356779417776
-0.04555421274837949
-0.30920173132236334
-0.877336604523572
-0.32970820472447354
-0.08091668360042775
0.13717090240681107
-0.4662300371586794
-0.31087814303479155
-1.0637184348621018
-0.2955709680600085
-0.893889945944416
-0.9639140269860872
-0.3695386609930576
-0.1791301724109033
-0.46936356034750837
-0.535934061015172
-0.8567553493022805
-0.9867379268447393
-0.3094129543123408
-0.34461273235374923
0.14071194384905783
0.5687650837449537
0.10767545245450634
-0.585119539197612
-0.13834868500703043
-0.7614451238512336
-0.4496227083626257
0.6737580575678112
-1.027597220888425
0.23388286021494567
0.3008952375940875
0.6071747867435395
0.27626447056421055
0.2783106228147823
0.6463655621227524
-0.5078508074343617
-0.7862004369222029
-0.06707967508926825
-0.05988158542512616
-0.7736758221663802
0.039402581292716295
-0.4624831079812572
0.25484199104424127
0.7451948112103204
0.4302617573987705
0.11369434164371799
-1.1130335121426773
0.030621997135491696
0.2705566147398329
-0.3707971578887136
0.5907580576459902
-0.5289664948329587
0.351039444085895
-0.038082772819826666
0.6116927694895701
0.18717197529602217
-0.1064741865468039
0.27712513284976675
-0.6569946028128935
-0.42713786230287554
0.4919312906912893
-0.9188814100137875
0.5164339628457429
-0.9003115826138908
-0.9715942622266598
-0.02047789376422854
0.11228586857996893
-0.9686507795885622
-0.7575142260327652
0.01499797467682269
-0.05526178998363675
-0.38431781009135846
0.6166746824431142
-0.6661783085130553
-0.6587300990171991
0.14635880844195068
-0.3748334033424453
0.41474546731312767
-0.05155288287127165
-0.9260031326070045
-0.6443385722815049
-1.04374453683767
-0.11386934680726252
-0.9026352367260454
0.5274292977328365
-0.32649816567373235
-0.34819220036468385
-0.5024239453212421
-0.4081426795916531
-0.5766180572671452
0.13563192768854218
-0.512728443167027
-0.9331312697188408
-0.6677589928939849
0.17133830554093976
0.28851007202728446
-0.7598870048799999
-0.6461818909776773
-0.15098383471253402
-0.16939368291718124
-0.21907793386885188
-0.8521267341277392
0.024383745014338418
-0.09416929105835681
-0.3864505033965569
0.34804795492889273
0.6665527241180159
0.13887286723877162
-0.14665701836976294
-0.9409801093002891
-0.0684238591893487
0.5987155178661054
-0.5548407916967542
0.510366347559656
0.6271220157565875
-0.6043095471091245
0.12066477951550225
0.2889249105088738
0.16418260303665266
0.2423000308492682
-0.021251036440223157
-0.8617030169308976
-0.10256256011921518
0.3699783946023386
0.3037797482489379
-0.4230333330967473
-0.9212205863487667
-0.676783485371035
-0.40453591560808483
0.20848625574335203
0.70178139884309
-0.3657068014194121
-0.5142457898553573
-0.16827670002197784
0.39376035431223094
-0.15887261066320857
0.3099264142140549
-0.4406961281992351
-1.0906565278180977
-0.16877321944691345
-0.2922598478387771
-0.9927884684733741
-0.9321103188275238
-0.05072400962480867
-0.9628165947688759
0.16377768908989127
0.001625656023471489
-0.3588675029708814
-0.9814169518229968
0.08154207066503256
0.569588828393411
0.7867933807719112
-0.02974261850411333
0.5489499581672045
0.0276147371729243
-0.3996910045754852
-0.32359190373649815
0.36269654251394184
0.5414530947271867
0.6783432706006538
-0.12523402333285222
-0.48733165990408717
0.5871102566038079
-0.3167777640135544
-0.2472443690547006
-0.3272074501573256
-0.222872685769476
0.09728480700130532
0.05351320239643478
-1.1264898802080594
-0.22138866453998496
-1.0030427419545775
-0.9746664997222036
-1.0359429742766793
-0.8010791180720603
-0.11371114914737879
-0.8776576705144468
-1.0835061111724342
0.10261201444426155
-0.05474177004195669
0.08085698328987385
0.49593373971739674
-0.1160778464200169
0.125100577969032
0.3031620474813484
0.397421782971243
-0.24913952963326108
0.39380715887919426
0.32778246322000076
0.4380335641449513
0.6324054560656531
0.1447576052179157
0.2133655803129621
-0.780207615004713
-0.38829548822328613
0.5129854203224671
0.7131559884169462
-1.1885817250453832
0.716050638880854
-1.1711529329251174
0.09263548095460918
-0.6422540125833043
0.3798379477942087
-0.13825679102181376
0.12943795566527533
0.05881013526328163
-0.6696168887537738
-0.531393489864018
0.5843889775131578
0.5780210116708038
-0.2487735218268633
-0.878702076270809
-0.5314699232443812
-1.0886085933587983
-0.2623835758810836
-0.5327172162574239
-0.5433953107817303
-1.126798562459487
-0.8628920674482038
-0.19739236870365467
-0.01697703888642681
-0.8147991006150401
-0.7975451194353692
-0.17287082017037456
-0.4269218986823007
0.6517401225874165
0.19445617510425786
-0.9316417268689469
-0.16142307812698528
-0.5815253997106301
0.6574022784329281
-0.3876893926557091
0.4332773952926815
-0.49389387306775206
-0.9523032230081997
-0.4145439564667933
0.08551342511937055
-0.08624551742797776
-0.10764741604251708
-0.9009807904810376
0.5164001053751146
-0.5616689357527977
0.8379289491724803
-0.31356077560457335
-0.4004480404455974
-0.013175563743421844
-0.5860929598934812
-1.0015859403551135
-0.9921196091592471
-1.0776641179567683
-0.4343695553957798
0.5026601423145111
0.6586022860063425
0.06013983704040989
0.476507691995601
0.040891515051262844
-0.2938365292669054
-0.8029304507002838
0.06738503992434032
-0.718357546388257
0.22084916935201276
0.38848631616306323
0.05259962537187996
0.3549327291124637
0.18540251420816806
-0.06996681139346397
-0.12929069780156385
0.6577177487758014
-0.7786248122152795
-1.032332540723007
-0.06682366719988839
-0.5249447551482096
-1.0035503107947255
0.47260260780631963
-0.7648552290522745
-0.5160261137120009
0.5337465508269983
-0.4180624616405216
-0.9974589700638056
-0.13074650608129065
0.2947506659131811
0.06736205976282285
0.5577815443056231
0.1262046301376358
-0.14965356313293438
0.7405039896588957
0.35262718746536664
-0.901651113249593
0.16739130198356977
-0.5214224948841363
0.557839835341531
0.3389595888683876
-0.9601453934298064
-0.7932323892411816
-0.7968276773309556
-0.6769680986988006
-1.0334296442061042
0.6879660736778159
-1.025283476856826
0.7115433901592383
0.11851821324225523
-0.4539614566591955
0.17065225570852985
0.7950719875152653
0.3514802344567592
-0.42131797789472175
-0.562964432529463
0.31595647160365486
-0.7487333143297181
0.588140979731765
-0.9983555778436616
-0.6492109914287957
-0.5628267734433986
-0.7827045443714626
-0.6487010289081429
-0.8026619163616853
-0.5430995701899255
0.727169357003115
-0.39750710306874576
0.4209899498177526
-0.6397362275741235
-8.37326348178233E-4
0.3825301797954496
0.20910186552319981
0.4406948313352363
0.05863980779438408
-1.0507702042997684
0.050977978387163676
-1.0832069004820986
-0.2797774860054628
-0.59409723283949
-0.6546594586982104
-0.386824018294417
-0.042766045217024366
-0.9360665950013733
-1.1417865705411199
-0.47261440661549986
0.4409424222402664
-0.8993963432791385
-0.9289222301610813
-1.115493608141691
-0.8567111090349568
-1.001064683140399
0.3736674949100405
-0.962346829940994
0.5139360630233852
0.2780514028201559
-0.4468743196010671
0.28463992326051896
0.008468965272001772
-0.611826311019633
-0.8472649571363894
0.2903146132897629
-0.879148850254796
0.045096604515211504
-0.020671790497141775
-0.012144875934037812
-1.1236547669112709
0.5345657950682475
-0.009498871394791723
-1.0717490828430918
-0.7241190185260407
-0.366829545053296
0.4103781148706146
0.6146797230563935
0.10995053746245911
0.07650046017399925
-0.1063642801979213
-0.5202828054349107
0.056606167568676743
0.644614838894693
-0.6903309012152381
0.11471058217721321
0.47605246795906253
0.3715154290311926
-0.4443464607834329
0.2528797363004694
0.06057793684294211
0.5773252756011535
-0.5139528590454875
-0.7289860837698603
-0.7006488445490623
-0.6357573150788268
-1.0698456878286544
0.6374242283974006
0.608174664024088
0.08711341763685916
0.22824337526493277
-0.9016507449416105
-0.35010615140881396
0.6123387754219343
0.30578842290069536
-0.942691208234885
-0.19944569725603162
-0.7357368155039425
-0.6662248630807515
-0.5796944019571293
-0.4041992752577696
-0.41819680269412024
-0.4757671127315863
-0.22501910706685435
0.29925861449523244
-1.1017890318756935
-0.06871103683570577
-0.6445194516266985
-0.29734162956581706
0.02986446051381802
0.652812560801878
0.5833419979859645
-1.1826453961800294
-0.14073858332036115
0.3924076038441425
0.461131110760343
0.22213554813529898
0.1557008459508652
-0.9805733807444839
-0.9215157388967846
0.26856457793302785
-0.9528476638500405
-0.6493363610979457
-0.012911581347266145
0.6037225031002784
-0.6771429592281685
-0.1805758403162621
-0.10348690955023557
0.5047185098573065
0.006641720634529372
-0.7541104151638898
-0.6267235470926604
0.007629748187848305
-0.16328105701115347
-0.9033754969873738
-0.5196459548911087
-0.761756118867351
0.6087473654362188
0.34975166935197977
-0.5683438554292514
-0.627395826176824
0.4841384329220701
-0.03291853105417894
-0.9642280590948787
0.46247111211824654
-0.10057267131890656
0.4177643077132915
0.2037652032445036
0.4566545405745292
0.5975528580769459
0.4932440232556711
-0.07754782110014347
-0.07464389044378947
-0.4530718137407786
-0.10630456371939612
0.25341438525872356
-0.5986286683602328
0.48549719232038513
0.1963024818158805
0.18673663230637996
0.022145448520546968
-0.9565492515375874
-0.2944497242316079
-0.656050181269767
0.5404050360425675
-0.7949817032684041
0.5184726908322624
0.5216050185381726
-0.21180978992005872
-1.074721641286197
-0.208340857752176
-0.6565950158678222
0.008591804869115932
-0.8105855860313121
-0.1431785851702201
-0.31655282764323467
0.3530133379044293
-0.20594429827502297
0.4192800523945803
-0.4666824133606023
0.2057092054956104
-0.754420457892473
-0.9161473540549298
-0.462172057146854
-0.005004056877765553
0.40021354288713046
-0.27178904017145217
-0.3691744157636881
-0.7996454257253713
0.1101388763092774
-0.6675424392422823
-0.9029596533932969
-0.660299035531341
-0.8165972998523635
-0.40159191226644075
0.4191840443355831
0.10729074000651523
-0.3452778061051614
-0.5493063153524137
0.13506848553585288
-0.669180754635285
-0.3379242815060833
-0.41927220369916746
-1.1167384423669087
-1.0477327395179687
-0.46020575869570035
-0.1544999061221103
-0.8852281460477616
0.402451979826094
-0.6914889529872766
-0.33581349218236894
0.3340407894854317
0.15898943549463532
0.37557433947500063
-0.9120624009973792
-0.004198630074160282
0.449653019568968
-0.5252618419200507
0.29368114821139873
0.21716977504108959
0.14620338936629096
-0.8540663364335396
-0.3942837562185794
-0.5665544927189401
0.12587716645499678
0.43076545114991466
0.37158961420870096
-0.7219256558168269
0.2696014092193158
-0.29454731801834994
0.585018160797449
0.07315208593721681
-0.9224577951278492
-0.8138700129933598
-0.7272132786396547
-0.3455278810228879
-0.432966321094389
0.34800835383313894
0.6359493161664632
-0.9363721981889803
0.654031166281068
-4.0438299346440927E-4
0.5297746580210043
-0.053358359482289036
-0.17802502155530056
-0.8341803854109394
-0.0018165699253134627
-0.44436055022778215
-0.52751522602772
-0.6362018607316102
-0.9121925376226059
-0.34781224614611844
-0.6138113447596575
-0.3933896515890676
0.6314606239060674
0.009380029590284165
-0.10665159891658063
-0.6692257246798474
0.43824535423600003
0.3096102359358853
-0.7845845346310508
-0.3179495079534592
-0.6742259339669548
-0.7051513392740133
-0.5117214289992174
0.6068345215504763
-0.28278866996519153
-1.024290868059093
0.30600935922665395
-0.3087023698353827
-0.3583504667537663
0.15320729653654416
-0.7423099963526869
0.4442297776516096
0.2680593533150603
-1.0259689385009052
0.15616182391919037
-0.1832246192855533
-0.3058611351209817
-0.9084418735087002
0.6675454951244914
0.43050077973525847
-0.19411802785739204
-0.957196721314591
0.12751979805357697
0.4312814467804972
-1.0176557979230094
-1.1223892588513344
-0.030446708711463117
-0.6686261823339908
0.45524666125239227
-0.734280354404259
0.36526705716798713
-1.0689055133077943
-0.6649676097392141
-0.015185559242942112
-0.6159686082224385
-0.7772195040216238
-0.7047251338911705
0.2443256215417864
-0.7497256048430003
0.8342120433944521
0.5818780596292296
-0.4119618334132257
-0.038989950172802414
-0.6732776275579098
0.34533258831204255
0.576488282800557
-0.15087186106646183
-0.5636419882382734
0.21908011074353903
0.0044627791633716244
-0.10565280141345215
0.2818994618741262
-1.1090489310314964
-0.2258005534918059
-0.04039790447019179
-0.14155158877441298
0.4070217200372842
0.6690388064072041
0.3540562489592895
-0.5113847607604852
-0.7552962357459941
-0.0635459163816651
0.29796534233198185
0.06024841475979723
0.22707120110094778
-0.7720868617824104
-1.0035400832165167
0.31387485481131416
-0.6093697346877542
-0.10268846048094887
0.13016257989238214
-0.8660295102876405
-0.40174930915345847
-0.3682924079655444
-0.9701137450081362
0.36250151635548694
-0.5484856036544808
-0.9420954731467748
0.012147060879168805
0.28506233226478234
-1.1086615606409749
0.21493407347068674
-1.1336951566851265
-0.8200143826905163
0.09309526897090929
-0.0837159556805217
-0.2782131779285872
0.6376956665235274
-0.3230790877402368
0.5782508260379831
-0.3305458256895325
0.006871084228520769
0.36686280549527056
-1.04313020909596
0.08053464918712444
-0.529534165554289
-0.8519092215250632
-0.9422632322664216
0.6227867631215365
0.5275169233876881
0.05934658944102554
-0.46528416953115576
-0.8240703012721228
0.11421633753698189
-0.3182411093869177
-0.07033261052900307
0.38185109175840043
-0.4738206704798093
-0.18895339662536279
-0.8772362594203355
-0.3376034644250533
0.2282792426117184
0.31071497051984165
-0.43831658429656145
0.5628426910112787
-0.8349146169384225
-0.7359823797699374
0.3312858831354259
-0.19277663342568072
-0.9017386443071836
-0.4973472643378237
0.1746920506190758
0.1526922968126926
-0.6877390044511705
-0.22543155898033096
0.4867537070013672
-0.5514160939411878
-0.8586978854334523
0.6527118535853133
0.4124122111827654
-0.543581926113003
-0.8379776137642769
-1.070511093610134
-1.1454196419501979
0.40402778848710663
0.6555863122210898
-0.9394884270069376
0.4093236681448204
-0.742470529309829
-0.31367106157047026
-0.3747512924946825
-0.6439961850653726
-0.7622437930767462
-0.6648203504685471
-1.093314693799773
-0.6526749846594329
-0.21152199426231919
-0.765333284980504
-0.711085353554342
0.18098625468640525
0.40211554699304747
0.4226730944140351
-0.39088957178843287
-1.0194685693546228
-0.02000599102831812
0.3957511231356319
0.564085501236169
0.5374150284311621
-0.3990049049890782
0.3220016868230855
0.6887195109975907
0.057447064365255235
0.6550552588218314
-1.0031152736068465
0.4054338032387845
-0.46140860224164676
0.10895184015475588
0.5325270236710132
-0.026674595557547292
-0.7895390238483926
0.4843715084879097
-0.40476479261266124
0.4640904816796922
0.540839069865247
-0.08371376519148079
-0.7639673081410143
0.23343535754729394
-0.003746575117661654
-0.7794721467001051
-0.5361727413649281
0.5481892061049545
-0.29213032064678635
-0.8257842332619456
-0.39413273647285735
-0.5448489439512372
0.49195936625202147
0.2390624613548716
-0.49818645666510597
-0.9542697196434738
0.2074125705803843
-0.8998529268988615
-1.0847249967220536
-0.7279280609876988
-0.7854676948607611
0.5695780689206011
-0.3805754717043173
0.629380540646141
-0.41267426807170177
0.06508904216409957
-0.03561866379307877
-0.8614301837401179
0.552346759859971
-0.5077912104318919
0.31868311473282757
-0.46583150332000944
-0.11671832042080117
-0.20745401335146865
0.5347508903073601
-0.6544405444561538
-0.21124634464133996
-0.9201195512557478
-0.3866142202470444
0.26509588065309125
0.47127731681950985
-0.20746917328092856
0.7133040569976454
0.7813776627238552
0.011082014309649718
-0.4286561742652817
0.7965032884056492
0.5644138137897199
-0.5640066852190415
-0.8962234106677216
0.37713224735488693
-0.264227022207184
0.1537488333835107
-0.5031462609125384
-0.415436782995331
-0.6242645087022027
-0.5480082803592374
0.3907721918774299
-0.7086315097192463
0.28186583811010263
0.23572889092021596
-0.2600551526547966
-0.06975834978820503
0.7725585726929105
-0.10632446084745024
0.15078369777818743
0.2002148680457403
-0.20201468160345304
0.4606961727407946
-0.03082859835595146
0.23938931130727936
0.6943844250812421
-0.9258164737131676
0.005963231269974869
0.37140625026763535
-0.16348595803713206
0.29515262202271514
-0.5557909241415608
-0.7438694712863869
0.23306242747498734
0.1796436832098951
-0.8384426216213433
-0.3329914941229225
-0.9147168931197258
0.5042061891533803
-0.26305109742940014
-0.046497291434460006
-0.5413767074746678
-1.0667840315455115
0.11537005299595038
0.42014503322782537
-0.3065913225627707
-0.021618181626433225
-0.26109306183264896
-0.7609867208588441
-0.4427391317053577
0.6248411456131702
0.6566509119959886
0.14071828650357304
-0.6214877893271359
-0.6953834835076553
-0.8424501452508412
-0.704518016543083
-0.4015578484958512
-0.3675914581240019
-0.6562515124246063
-0.8698717802097177
-1.16231609557066
-0.6230651328083852
-0.5503464840642229
-0.7293616740747081
-0.035899125273736114
0.28022784316684685
-0.21233722426597212
-0.9422528257268813
-0.398623677821532
-1.124659786394264
-0.7973972267087723
-0.6564589030848126
-0.9178305593306391
-0.6697495077543254
0.32003467899273846
-1.0082599020616636
0.6672773529935447
-0.413896927177664
-0.09920235962430748
-0.6353671817018419
0.09861018612641695
0.3718783656442836
0.17752282082817666
-0.1964284726837582
0.31907667624263375
-0.042607550328520365
-0.8829133658851446
-0.3390555725468545
0.4549904369664543
-0.3754232806184998
-0.9389894218608332
0.17604576191764618
-0.5091876216150653
0.4221355643092992
0.2519242812551568
-0.3008346353406878
-0.9930769017359568
-1.0714379006427097
0.031504206966095356
-0.693187310809994
-0.6824423837162582
-0.638960576045387
-0.3498899295800587
-0.13017046139572924
-0.7833190762868257
-0.7027313600083661
-0.28013079480305086
0.6319934304568644
-0.09526052923713936
-0.4588604278073376
-0.3072166657954959
-0.7736484707650172
0.36605172413979287
0.7392460476902387
-0.7158120994559298
-0.23135819156289894
-1.0054072908569889
0.23768054769001784
-0.7011366958769606
0.27029931657079126
-0.7128811905889779
0.5425626582259687
-0.42197111009607163
-0.6199135502223584
0.05882433717190756
-0.8157626029851934
0.06949059857025039
0.3100814917581909
0.14437309233806622
-0.6816176781131976
-0.6867488905986147
0.12893330061452848
0.1550125090756843
0.41411311537328543
0.5665513667510427
-0.6270135070146454
0.2781849223341468
0.630332220269233
0.33175550858932434
0.30796250175710227
-0.11585774593352238
-0.08993041226100494
-0.5446006548081191
-0.025293852590129014
-0.021245626758943918
-0.12882441793692087
-0.4994230761931613
-0.39022553671047955
-0.8514838392419272
0.3697830214110676
0.2052134957667189
-0.2655157319080496
-0.34072315026935973
-0.7583645040956891
-0.960350217415042
-0.9108399341469469
0.02887392779513617
-0.5336888633378772
-0.7056012940408256
-1.0491594968184463
0.5098477665403289
0.5824939194429181
-0.8039959413541754
0.21823925463863258
-0.9036174246845586
0.2255081372035036
-0.4911988045648967
-0.9516758851179216
-0.31120049991775334
-0.6896261250541666
-0.953601810845997
0.15539831504107188
0.6735539300348314
-0.4621919714805465
-0.7414728463323359
0.3007813959102945
-0.14814613369511856
0.5903938740014723
-0.1890343803179043
-1.1768796430281057
-0.7606249697623979
-1.1174733220826019
-0.1147685993867685
0.1546668647545333
-0.13400021474972917
-0.3745731958703392
-0.2676927023397914
0.5129519800214792
-0.35075613333713157
0.7177769154750971
-0.27824064127731185
-0.2322610906528583
-0.6644765575969106
0.49291010176112654
0.6491951610868344
0.5790389561534952
-0.3641291164348058
0.3070255519204633
-0.7100474417669006
-0.3341937150029341
0.14130234234006048
0.6512915074847061
-0.4489864734502098
-0.4315352848598474
-0.7731613238421828
0.20412490522541327
0.6711627445627085
-0.8611156567960266
-0.6881700823487642
0.4624575453967795
-0.7893521788462371
-0.026402696367017527
-0.7455592485037728
-0.4987167136739868
-0.7303519149964016
-0.0012443132611756167
-0.5798946629146802
-0.100455737016897
0.4456896297786089
0.47918268418654086
0.41455577595955084
0.6439802832975539
0.10890795513391328
-0.7269825871623938
0.1902790103978108
0.11610324659845427
-0.026124185383667984
-0.35540040570572806
-0.6487942255722862
-1.0644998927289786
-0.0071336577742386435
-0.6989842056178175
-0.35958366612519976
-1.0417525361718516
-0.9457263581759322
0.00940837122855552
-0.8201540693200398
-0.06966128515948625
-0.9950396213354659
-0.16648684539035785
0.5637529455322446
0.6910275312927576
-0.14167025720626308
0.3323708267856615
-0.05559160334808098
-0.5397348209311525
-1.000682321711599
-0.36473984938873755
-1.0792493860227423
-0.7120238049532609
-1.007643561351199
0.5740692562287932
0.18323359276303117
-0.2389734780342534
0.3005449485997644
0.39202642894509554
0.6665788271274621
0.08748705266576821
-0.6564058535241573
-0.7186423248912712
0.4926624042643827
-0.4301211205230513
-0.5271724991889543
-1.0058995789798215
-0.4449531889552788
-0.3497767408009672
-0.8174568116894604
0.24895571352093074
0.27810620520774126
0.5352595869332355
0.25804247652855755
0.6133612776492673
-0.2774712600928715
-0.8310488005588059
0.5073975466096475
-0.4636300104780031
0.5737727005121509
-0.4456005672833717
-0.06779630853125271
0.4931670564066875
-0.7819489943165717
0.5771700089718487
-0.7477082202782863
-0.9722956578220097
0.1481328107159901
0.4338177916905687
-0.261460024101062
0.16087450323203825
-0.26591180678282106
-0.34771599241959833
-0.7308219028153948
-0.6324053476655246
-0.7958635096464034
0.5948954159349793
0.4641621498175059
-0.9262932877209211
0.03370192632530707
-1.0253997696310413
-0.8069370965548156
0.613056235261578
0.5242497672872704
0.6386631720866905
-0.13438616989897478
-0.11126837153259396
-0.48674109138706495
-0.7735702617588935
-0.18603123526685747
-0.6149586113727284
-0.41587486940303187
-0.8041671735257455
-0.15608004332962466
-0.4080515242874877
0.32665769380086856
-0.07463928803880474
0.4346119670149038
-1.0224463914948316
0.5525902955884184
-1.113937517550939
-0.8210688750486619
-0.017753772747683524
-0.6346633478308095
-0.6950052560846852
0.537261579863851
0.22847699202859412
0.059833575378384414
0.3365432662013838
0.42019133410464493
-0.6276245963799565
0.4888979264476326
-0.44882134297801385
-0.4501116546745262
-0.4331501786669063
-0.6216435059202114
-0.6177001259496285
0.5376142967572054
-0.2111383698489211
0.2947277874117588
-0.4210147544586604
0.016923476509066688
0.1272075290569046
0.21422798634737775
-0.706762951363844
-0.1541637248046962
-0.5739907641214941
-0.706397762599617
-0.5133139216017536
-0.18698234522822885
-0.50647825580708
-1.000299405553399
-0.09532334171266874
-0.2715100731908468
-0.9621965722848643
-0.8031033816164452
-0.5382225369386385
0.28159428732326464
-0.6795494444466574
0.052555208241630874
-0.11870881725703986
0.3722487628628933
-0.3935479993149343
-0.8123281169514808
-0.6511085117306981
0.36489853002394246
0.6460045716105985
0.47490446239442013
-0.3719634525663235
-0.4917305078190469
-0.9296150385033511
-0.5894043717363365
0.12397506985177575
-0.2357754756281197
0.4572122644874479
0.6237628668798068
0.28456687823608573
0.5344736246004345
-0.9605280056522519
-0.7086443362809078
-0.3926739459922975
0.13736653762724507
-0.9471267420000697
-0.0040848434441549085
-0.2446028454014295
-0.6320044220324785
-1.0641954264367814
-0.04395764535485777
-0.4821972859453478
0.3617311381505047
-0.5036963217261151
0.3585704566738216
-0.11808617949651017
-0.973316803101055
-0.0035359785774382937
0.07627881673589415
-0.07444280312633896
-0.830960117462581
-0.14501801642092327
0.5241553071139277
-0.8058100666668497
-0.5726009912411189
0.418346135203418
-0.7261186506153033
-0.7246773742116004
-0.8893562674324514
0.028947993503027323
0.4423839885003269
-0.37667713334043
-0.3233102867387978
0.7120596350639264
-0.4198662739098147
0.020228949071067124
-0.8499235947828558
0.5060208055803579
-0.8317102340015119
-0.1847991139674781
-0.8542848609327692
0.5921046597344324
0.049245069648455
-0.3441995420548905
0.17991235248561635
0.3719341543759107
-0.404177237829103
-0.9385570395995002
-0.07285737299660772
-0.3651959749322879
-0.696176140892022
0.01793623298483759
-1.0607230543241566
-0.9896272928934179
-1.035625335931752
-0.7869632969631964
0.6952725937519825
-0.22642930184700374
0.21097989611883922
0.6913048599875795
-0.7471718671706156
-0.3119026848041449
0.3084321164361771
0.13809072298706934
0.6204514706516484
-0.809420747012763
-0.20675967426830552
-0.04470857348918417
-0.8557800340984174
0.5007578458431821
0.2210775545297977
0.2235305161809182
-0.9141791694672481
-0.7542204729433513
0.10851174632015109
-0.20344840019371874
-0.3076033924364645
-0.14719566286702704
-1.028034573792296
0.4813901379649901
0.24038724700724523
0.46114844253239506
-0.4386762349396793
0.5949661581445966
0.06841945824237605
0.15829386961247813
-0.22919047879707885
-0.5643678420436279
-0.019916614771502607
-0.12012901665841358
0.3032184075526373
-0.4356008378355588
0.5543985230245893
-0.31825644393122615
-0.9469378421606572
-0.6865591827651571
-0.3086232687953334
0.1480676131732319
-0.49667158399453554
-0.43281421961778244
-0.7512994195497138
-0.2832556667047566
-0.34292159714704384
0.5087006078955552
-0.9460714611724389
-0.0027675835847044876
-0.2217698739253066
-0.1530621773851162
0.17672778120113397
0.0285699505692011
-0.08731971870010079
0.7800425783938186
-0.225955141487565
-0.9367968839601362
0.47870166992491
-0.5546809254553988
-0.3774621609961663
-0.24596879528512583
0.2433978955313142
0.47661498043981615
-0.8707679869433417
0.7454860328628223
0.5311440256276462
-0.7422154432274563
-1.049966250099385
0.29873889017058997
-0.6723172018912034
-0.2513759300942852
-0.4814432379972081
0.5146150936498799
-0.8318997894464851
-1.0915574946169426
-0.7813785299705953
-0.6560038171607203
0.5968889173998995
-0.1405727266553257
-0.6043335696503846
0.36996537021760223
0.6073709585397445
0.3224004806740068
0.4304237519302992
-6.179136167297722E-5
-0.3274901351976256
-1.0401207365537335
0.7923823287548047
0.08625771735314439
-1.0413535750402068
0.2492239322333816
-0.7527932814907119
-0.9369541437691007
0.08957700938276278
0.049425945984853475
-0.8559135652137048
-1.1551291589660198
-0.6733819202948408
-0.49381066116498057
0.017530951309331376
-0.8496500102791843
-0.4001028259013487
0.45160237434776507
-1.1525137878421046
0.08286741928115396
0.5878801050153241
-0.36797373730434113
-0.7471694414437589
0.5506973124817662
0.03693320316999362
0.34893582110958765
-0.6039527768653734
0.24614953828710634
0.10600592830439073
-0.09696835623822708
-0.08595766864612493
-0.8228696251777499
-0.11525278730095634
0.5172305079635681
-1.024842831606655
-0.5923535610862463
0.3765541051306118
0.5023819496690803
-0.22938876692963017
0.4230780665204618
0.11326625939171261
-0.03151907083400322
-1.0333115732108737
-0.5951782394566992
-0.6047084121236064
-0.18786485258580293
-0.48383442836497276
-1.051908177051015
0.06588570099752775
-0.4131423038609313
-0.19297575655371582
0.4311438845104978
-0.38234725686687276
-0.3178454887037111
-0.9205796307142823
0.28387360246588694
0.459230662355861
-0.3931889268034957
0.5093592078817621
0.35904943705860864
0.17274370866883365
-0.4363360774016817
-0.39744060552041177
0.009870295715534095
-0.33450277875007756
0.4372409534519527
-0.100730217227438
-0.7616915591521731
0.3326183760195995
-0.11562462411969672
0.44833531184409176
-0.2579394466546754
-0.7955920348458488
-0.5753789727055209
0.4004214498701336
-0.9033190597440934
-1.0096390069457237
-1.1499034718247156
-0.5759555809669616
0.5338073557460423
-0.22151919102920853
0.3343524608284368
-0.3211109152961159
-0.037487553282731866
0.10127537570578175
-0.07306430740402954
-0.44293374405521124
-0.9550790164935355
-1.0854496393829098
0.6486518260304489
-0.3392749800088443
-0.24940261134839034
-0.2079602284325617
-0.9620646518843525
0.09959178727084654
0.24340740513723783
-0.14233447274414457
-0.05199900497865654
0.4741891887960485
0.4897108028897472
-0.2081539909693268
-0.5376627721616147
-0.33669765903589055
-0.15043961485185967
0.17081157676844838
-0.18458721325522873
-0.9499260693691396
0.5129415785068718
-0.48901432865748257
0.05898699512350451
-0.13230656123123447
-0.5931161152103486
-0.4924241106661337
-0.24658852378338075
-0.2958902345279141
0.07356099048520283
0.022745261854651175
-0.5448933699730549
-0.03957896514981215
-0.8951531496466377
-0.17748713179515607
0.03733224005789655
-0.8502350755085103
-0.45836508589215474
0.16636317377961657
-0.527165518852667
-0.7026776760017591
-0.054229190151617625
0.26019260183848747
0.6314496048010018
-0.17280845198515968
-0.27370916801230355
0.22623045769181552
0.5935332659286767
-0.17679200357586813
-0.8430577038571802
-0.7549348512426043
-0.21704206758563876
0.6043484819523476
-0.5513144085016664
-0.8468807249011291
-0.6697016595110377
0.16325393978450256
0.06003316967506155
0.5223838011161869
-0.48260171434406884
-1.001634046026519
-0.26467092429477074
-0.6592090369005289
-0.49616125820085827
0.17400438358419149
-1.0596847871876653
0.3667152586473857
0.005733175075964451
-0.6255122230477954
-0.25920857038058553
-0.2607534174850025
-1.0652895340374615
-0.7850691695123447
-0.27367593095766457
0.03348001614315963
0.1988549760874324
-0.3959279437058958
-0.5147909613085694
0.1232970866095372
-0.22051126295782017
-0.47357178990167736
0.6419437679861328
0.4692946177083648
-0.5809854887721725
0.12015174568857521
-0.011451324126944636
0.48529055884561234
0.09460737960009163
-0.9260638404266267
0.5344989349052723
-0.7903139962452076
-0.9578680485066434
-0.8714684562067818
-0.12125672623411617
-0.3676364511845303
-1.0304524154670407
-0.26472154135851894
-0.6996265993338858
0.18870607578019505
0.24513208236519693
0.13056870219694092
0.5187180582617753
0.652730750896115
0.6619489919462458
-0.638151577775756
-0.2654716542621167
-0.3263288241097897
0.09362978657343854
-0.13774234273134228
-0.19004262568183286
-0.6252455917320678
-0.22966159690022345
-0.0992728973708305
0.4064475981884067
-0.1902676201450454
0.544713525560149
0.8299458208515453
0.44246536503366773
0.2734982816791949
-0.9509623050927081
0.21289566242827712
-0.7122726936663709
0.4102696035938182
-0.6537003676663455
-0.15774618645944333
-0.06713004150349028
-0.5423249765234589
-0.954767092657309
-0.8176979062849518
-1.1076495387242065
-1.247378082289174
-0.20269299272387475
-0.9975359608178795
-0.20653649516923592
-0.19728892269850418
-0.33273244170351524
-0.5145410871234849
0.4203520531252923
0.5498592908127788
0.2393791215027011
-0.7751606162410178
0.2624053306803906
-0.35028777705077463
0.2009620298828553
-0.34016273840570477
0.35658847307930797
-0.877851697358002
0.04837665816529855
-0.3804030859816196
-0.6656977099002191
-0.8440485783987078
0.2816147161227351
-1.0495690407721727
-0.74382212390979
-0.5453374980172678
0.5742256151068313
-0.4614099405882081
0.35609046481736295
0.09878229405580914
-1.0114064469679043
-0.5575486173792819
-0.17182359760940552
-0.14044888215253395
-0.49271370877746284
-0.23749694193007237
-0.7277551591232282
0.3428225066435452
0.5978217989255499
-0.6986484033948569
0.3370800085868739
0.32702403527298846
0.5648662693780006
-1.027886655203076
0.6119951246131385
-0.6779170683499646
0.5695105783812918
-0.10843400348329334
-0.7237574600482183
0.6874022879754617
-0.5586798295513019
0.1851721452125432
-0.37585007305695806
0.23613174577507023
-0.47963181078153727
-0.4437921625266483
0.23580409593892215
-0.7940387868114132
0.05698410003216934
0.3106438635449307
-0.7728291032302057
-1.02223583940149
0.1956938755292989
0.5211245066106026
-0.7033530001560707
-0.8385470484185807
-1.0599292584584132
-0.9953051552150556
0.8041080541531729
-0.4859903837790928
0.2862912381881896
-0.4583971312737842
-0.6038845843575938
0.1900613193357407
-0.23541197483397902
-0.7063674787431431
-0.4855334188770277
-0.3833676065011581
-0.31397632327058156
-0.025869116291926477
0.43600938510030673
-0.7050505447526244
0.05860262102016422
0.5283324204585295
-0.3520463429540871
-0.525953906205577
-0.04376756014943527
-0.13977705141909186
-0.02129711265573495
-0.7412994702162475
-0.38063499511852494
-0.024928910306438855
0.41020230860254303
-0.6335155019026274
-1.0248649437721093
0.872184496853224
-0.7477931450763854
0.25670007847052767
0.4188485896157178
-0.9301000416197573
0.035572503802624104
0.4779604809662216
-0.19992040186527985
-0.7215817374808184
-0.8659343624776261
-0.26309849052416534
-0.17498854363157867
0.43792534164142516
-0.8450183856276916
-0.38912123624759565
-0.5663055789762216
-0.23008316504738252
0.02595400598873032
-0.07387376388805142
-0.380878600327395
-0.6661856647953386
0.22893720084845046
0.7350897492646797
-0.2996171330048358
0.501011954195439
0.09596852562868334
0.28326515697037336
0.422693883397902
0.19469303541952282
-0.8125810344099939
-0.7485716003779428
-0.925997020249633
-0.08164717853617912
0.24428891562427102
0.1429138496240523
-0.5534346659027206
0.26917043289305975
-0.10588293375839125
-0.028795167301911433
-0.6057134584928169
-1.0119891981658586
-0.020724520940437873
-0.31666485382042675
-0.6815713231160258
-0.6061698528267759
0.44875529357297184
-0.5378689469557505
-1.124576369878546
-0.5519482922537021
0.3921761686197753
0.660529226249399
-0.12442129392415614
-0.7831654108450268
-1.113984007927494
-0.14365147227393543
0.22770262620225246
-1.0250604720051373
0.23128435995902139
0.4834046638593326
-0.4276653868028658
0.3303413369515872
0.2486421731106438
0.13430764453242858
-0.7765377390495405
-0.561003791822008
-1.0975084032460691
-0.8688628799254333
-0.9544231184742662
-0.8198866921716678
