108.0
150.0
216.0
0.3424630504623368
0.28796509792242925
0.4197824156852101
-0.4088210952344585
-0.6822388849539
0.42755065735597075
0.24758220636538927
-1.1047441763782901
-0.1360332055588531
-0.23170424429990677
-0.33149997686904686
0.25950153937033094
-0.5773364906878233
0.3361359613198259
-0.03662768425162914
-0.23868183139187046
-0.5366002486483662
-0.7173582810206793
0.01242778242345447
0.5997048306607616
-0.854987274171187
-0.6724849552683444
-1.1031998009241764
-0.02769393590343055
-1.1105513223158603
0.3861109228854805
-0.9736761400279663
0.5624032308630268
0.3964698749955888
0.4976977466791668
-0.7154535005874326
-0.4697260962122563
-1.0830457457440965
0.15035229763330787
0.049220998545871496
-0.0030355368590956285
0.24940694258388443
0.03275148534403788
0.27554213726352583
0.31314083141286136
-0.7513778336049991
-0.49092971071119895
-0.6019895550808593
0.10229268994003203
-0.1483096594404151
0.41319218827945076
0.4425376390946661
-0.3989722759807403
-0.3047230454735738
-0.54322915865944
-0.20978527174066344
-0.14228647341137649
-0.2420402906580918
0.39832608485701987
-0.06544532111896428
0.4660330814594862
-0.6854940808996989
-0.47546279473497977
-0.28226073899310006
0.35026317259859424
0.26028348675381885
0.14961287298381779
-0.37796897227231613
-0.6329036560996688
0.3365757294307953
0.16476076947871382
0.7267750949849603
-0.633829466619331
0.23998204866136622
0.03299402633384815
0.5695386890294767
-0.5458790285949825
-0.3838944583454551
-0.21863906582296633
0.42789140711196394
-0.46270056877029514
-0.17180352219291864
-1.3258369896133404
-1.0124980773482453
-0.18818910715091725
0.286794192637893
-1.0114539620714136
0.05691928975314216
-0.34267344896546825
-0.6141742818010325
-0.3739086104495349
-0.6618667021872086
-0.02401903078906295
0.5856880891295575
-0.653915846274921
-1.2490800023823028
-1.148222111610592
-0.9680864653236737
-0.19033441964880204
0.3938616386933168
-0.3345816099824688
0.3548159076965761
0.090395952320272
0.17999712855514088
-1.1152542340374612
-0.19866857362260365
-0.1744111795487801
0.2752656534080095
-0.21980673443423873
-0.14900654706521357
-0.36143427082026586
-0.6031061797017383
-0.7812147542068922
-0.28737922687640477
0.2644954829637522
-0.00836647985737086
0.5205972652639893
0.6344663605994981
0.5401215174929784
0.3027841755734233
0.5666531740382522
-0.8627663295058432
0.4792195374364426
-0.42588958368044527
-0.016810627837355964
0.2747979179472604
-0.28917637680496705
-0.5657257384335294
0.655305974541689
0.17575134725875663
-0.2010173530020544
-0.740244368059359
-0.4717991173561541
-0.3340871346307161
-0.7307010708127891
-1.0648546684770774
-1.0085545450347768
0.18266111776813732
-0.8750523069205292
0.3511346291726606
-0.7422131123990302
0.459657258036234
0.22725157128484955
-0.7344163152445878
-0.6188271683114256
-0.6041049352811668
-0.5445461835320587
-0.8203811787116102
-0.7810820920394207
-0.2094595282545199
0.42760791746595633
-0.26904690136214354
-0.2741538950860323
0.23007306969266464
-0.9204864180038955
0.4386471400123908
0.708677098769931
0.409190674229619
0.10329398950835032
0.6701466659405305
0.5442855494718576
-0.6342309317744229
-1.0936818444309544
-1.0243829386285703
-0.15500755558411125
-0.8729514779858625
0.4841877623291432
0.029915746053567893
-0.5468676077787609
0.4707394629276933
0.5089976955215614
-1.0548991433864858
-0.08646661204732696
0.48552748889682495
-0.04192170762714196
0.331087923750415
0.563800274682226
-0.23344449670969342
-0.6914719067798047
-0.7168887395559447
-0.17565444432483804
-0.5252088057494806
0.4863739673549048
-0.7860904166227703
0.5168000324721692
-0.880669329709849
-0.4071148025912713
-0.3939014856193484
-0.13738561602363952
-0.4428526514112798
-0.5437627654919992
0.39799517649744226
0.3363355976305466
0.003032228430220355
0.23988247740253463
-0.6545493055694844
0.1956897243654249
-0.8450561378862943
-0.5471170746719135
-0.23872891102423888
-0.23874226308810978
0.1563051071684405
-0.392686536737054
0.6077718829736314
0.3257352217356867
-0.45084484635294086
0.18690387185714571
0.511969902085389
-0.24930312285313205
-0.8017945690704176
-0.8324798852316253
-1.0248051456030114
0.5378008374914407
0.0953392410601596
-0.3774935787578617
0.004164448716598795
-0.5992786764364266
0.18924120268922165
-0.1692834360581274
-0.9613558565874868
0.08902640825209292
0.5049556494805553
-0.20706110818255893
-1.010403721376337
-0.6855108310263056
0.2713345503691929
-0.0646043417882448
0.14987220803933266
0.03726911116960944
0.23574868329487075
-0.7899397444778091
0.3701547610237687
0.2529664699356796
-0.5052588674045354
0.31839991598301937
-0.48913639865781555
0.45440492260950993
0.46857214620327564
-0.992013221469691
0.0012376058575686644
-0.3934626211246565
0.4452019843450316
-0.8492692168980038
0.03006539254864343
-1.2594650499300812
-0.4979562325593232
0.13132102304985824
-0.8622676285500692
-0.9698096217244346
0.1388889987552437
-0.9485365597977444
-0.5592133031590518
-0.8768921746197756
0.155568113489381
-0.6039039949410244
-1.1366336077312638
-0.1941226243668619
0.37607201841581717
-0.04688765957523054
-0.3084923269917956
-0.5463016199427575
0.8631039424579762
-0.12088566374342853
0.4227898788271963
0.6443234182992367
0.14901820624492487
-0.38548316169920505
-0.5271242259084359
-0.8976878899353552
-0.9108250550735433
-1.0476822747712473
-1.013894888151508
0.42462950578831815
-0.7516782146177354
0.46395991118698815
-0.8313298331888607
0.2556180254559162
-0.7170511438369249
-0.41540491355074316
-0.3451175818427979
-0.5280855253544477
-0.06879920931250556
-0.806312112907041
-0.7148636334302481
-0.20407972295315926
-0.0205844596975659
-0.8471446883279128
-0.7646829630708816
-0.5602448976068017
0.5434524105855432
-0.8842756009807571
0.10730382918260246
0.27478774083444324
-0.6658956354355006
-1.0610527787367598
-0.04531441107603618
0.4486470240584259
-0.38966208969794786
0.41515894243076307
-0.6297263037285605
0.3417479392589344
0.23745125396306038
-0.04047219132216629
-0.9604890164567806
0.41709506275273694
0.32731642732920857
0.31931700195736984
0.5954607229218821
0.5685924450316439
0.6423576071932336
-0.8180967610846285
-0.2244652830199924
0.22425160535576114
0.06572083465063358
-0.8708656445541699
0.1745344209781693
0.1839176876073161
-1.1624866144202601
0.02225397945228988
-0.6729068929694595
-0.3928487186150134
0.5869535924726816
-0.2820311090289058
0.04659885432278854
-0.24971395564005933
0.3379088043436305
0.3063732126679076
0.7537374728203626
-0.9405062495304726
-1.0388937004917984
0.13052485637012207
-0.6072650395827499
0.23724549036145756
-0.8165144009590329
0.0782345674218722
-0.9111867961032503
0.4094788214184057
0.5629096553028989
0.15734823467580597
0.4749416192613567
-0.6037981147095299
-0.15473114962697795
-0.5415868010440531
0.5572567636656391
-0.5378423371774536
-0.6482762082657869
-0.8360807274917564
0.05106885723830646
0.4541153300054467
-0.3395957653384201
-0.0068609536923534215
0.533862753205599
-0.3077993441118019
-0.5888135940050031
-0.3954959703264155
-0.2972059090348306
-0.7055184694192813
-0.5524711803420412
-0.7460779031029865
-0.8302485123267598
-0.38960641025868836
-0.528365014252764
0.4954005829510271
0.43223707468807426
0.09842127861867642
-1.1500892973363421
-0.23265215375749618
-0.6749756832638167
0.48751359791518556
-0.49499772547393145
-0.2678731712467427
-0.08755601617229482
0.7954185204747615
0.3901924826371482
-0.15274704238507777
-0.24897598181375902
0.1775513800969487
-0.9695748019280979
0.545891152434687
-0.5627210718973457
-0.6781571167142797
-0.47754451766900163
-0.2711700563384174
-0.8536575823747892
-0.41880104342248314
0.05717948987878949
-1.052120327159121
-1.155302951162382
0.26489863794552193
-0.18539825487652728
0.16559964786118694
-0.07576323960133169
-0.03665084322085626
-0.8146327920514198
-0.6429415313334182
0.09112750346044714
-0.4057117665810888
-0.027036799147102174
-0.9673977938341561
-0.10343232853409351
-1.0031269221311494
0.5838878712201674
0.3477977228569051
0.2925841765786498
0.265133513579784
0.5691808319914446
-0.5859318422425486
-0.3150509803246788
-0.5677604880859295
-0.6100713083566999
0.8731667475849799
0.508434537132288
0.21328013824846262
0.3436128104782969
-0.009185934475420597
-0.14009248213921524
-0.8564239919688369
0.19830975783567972
-0.3637539369498213
0.6164749271467918
0.3990180671764372
-0.6073746470832425
0.6651866472126315
0.5859193600365395
-0.24028889183542487
-0.23967635926702716
-0.4522349172548008
-0.9955702124439711
-0.18812637205930094
-0.3245610404250912
0.594998728883306
-0.5925725377727684
0.7582727143434977
0.6118276400233097
-0.5005357929902158
0.15700471563591437
-0.4281298622919744
-0.2540417942822028
0.23599225752746214
-0.14645809572222798
0.15049207939469042
-0.08900158561035248
-0.02361651448384269
0.6583026277220546
-0.01758589994985593
-0.44311665248825666
0.4953112897885786
-0.30368873766279963
0.3055507746698488
-1.0092469929413328
-0.3111648018086719
0.5372580980881542
-1.046019016870916
-0.9288890175743477
-0.8461426476943221
-0.8708535167825763
-0.9717780879901362
-0.76804576736573
-0.37440999823272153
-0.8488880610634422
0.44722613631928265
-0.2336365488574811
-0.27605758996836716
-0.17524209069521013
0.3453375438047283
0.632598208744133
0.019760184790222304
0.43717584985287017
-0.4264168487340338
0.14434313719835784
-1.1505299540784488
0.2480499789975402
-0.7195218432771832
0.548041068862281
0.47189204186164824
0.7014757635998069
0.3340044928218666
-0.2229095741924876
-0.24785389042387254
-0.9980852716338957
-0.8066847359070777
-0.7616458795612281
-0.36600057068915937
-0.9099345186883053
-0.04153458419475685
-0.7935941137268894
0.062442410905257845
-0.11055841457329747
-0.019420919251403306
-0.9577920637447285
-0.1757263633747778
-0.8505281374427225
-0.12347693312120166
-0.03558732224720356
-0.10277827804309532
-0.9086355256482033
-0.7224783099254163
0.5970570325861942
0.01803810485859707
-0.25485067639032877
0.4525327219318901
0.5979627827737662
-0.5426311812969028
-0.7830417741381915
0.557072376137387
-0.2624953861964094
0.3712861359314507
0.7256125199003676
0.04987483971974511
-0.8521895788249809
0.5353917930196372
-0.7087249272895184
0.3572536067493371
0.11853426382092586
0.3411707280102821
0.1408907039301564
-0.06479227102518229
-0.3042694803079758
-0.6226540243356544
-0.95507839311053
0.3569002368403484
-0.46666951762200765
-0.2286826258014692
-0.4139690880263199
0.43519922540045436
-0.8569608068532476
-0.5972533196386668
-0.7115906633011869
-0.0321491287729948
-1.050665416224627
-0.7074966898487419
-0.7761959902187636
0.4864285634469672
-0.546358839080937
-0.3138002820848381
-0.8803772990826902
-0.5846664826612369
-0.512378430482101
0.06871007324784136
-0.09865353238496621
-0.31802470563119073
-0.7466463436750503
-1.0146951089922003
-0.04844878555792625
-0.6239186195103995
0.47723172236532246
-0.12516982205959523
-1.0822031325032704
-0.9020954043187753
-0.3511253245664931
-0.6603799123460876
-0.34729429792293137
0.5825464570484681
-0.11723768539213276
-0.6185162888221427
0.18514962014679767
-1.143769003511344
0.4887199759592904
-0.40008829313714506
-0.6506278043550004
0.06581388474169182
0.0756033360433511
0.6070088592394752
-0.07698296424411498
-0.23546179390639266
-0.9939604786434486
-0.42727954288881653
0.5146982204554713
-0.5886461129781982
-0.27436095880300443
-0.8248586259382332
0.17418723846739007
-0.44887097677005455
-0.7116328312525398
-0.4653828606773908
0.3921037359628976
-0.6001898769830528
-0.9992636033472992
-1.068291608504458
-0.15338483383043308
-0.17516301315199279
-0.927556184723377
0.4910893924149083
-0.32672732273339794
0.6630885705899495
-0.09877104991880356
0.4089821311677818
0.5549076712169952
0.25570204228761373
-0.42809407462008076
-0.3678335781198715
-0.22027697224270776
-0.16327842721384817
-0.3955700744731632
-0.9184643360116488
-0.5994813027270673
0.5240213048424655
0.37283465505244917
-0.41862907761652973
0.2512948649653271
0.6248367688904257
-0.2619004161605291
-1.0955114907323869
-0.7147915417878858
-0.36319991836207405
-0.9368937940535006
0.5726669643864938
0.3074922857387489
-0.42572642893432017
0.30400225377052437
0.4674311900675672
-0.5751199286071083
-0.8362271141082805
-0.3664084685147484
-0.21212225611233507
-0.11293952341898732
0.0800577975910034
0.09764953022692381
-0.641855672115623
0.4193527018288248
0.1843709104963144
0.4913710859377683
-0.4154646433851144
-0.1555276308536912
-0.3090890891513407
-0.6345974606070858
-0.0730577553917788
-1.1739412022775715
-0.7477778416917962
-0.28498429100826655
-0.5886394618347957
0.014185454192219582
-1.032083704577049
0.10330375428291066
-0.6513698777084571
0.03874988910365201
-0.8518696611847739
-0.2755047470011847
-0.16192147160758227
-0.32190548080857345
-0.6668787389827641
0.05322298237511039
0.13818241609885318
0.006264814648120971
-0.8410257161344217
0.31826471866063716
0.5233590953159056
-0.8940534948324934
-0.10007026370699082
0.3633997858337062
-0.7781165598975351
-0.13705970700206133
0.23578920828063019
0.3260521054880494
-0.135820519898782
0.3397415430879634
-0.284681471780022
-0.17618161844640398
-0.4077786918397164
-0.9845802256275032
-0.07335680005608038
0.026309902858091323
-0.29571935028990176
-0.6993247216830678
-0.8634846111339564
-0.7167045399625878
0.4621222451941717
-0.06196878108451083
0.3630756706038137
-0.3514781260768365
0.5458176306433303
-0.7373053845553967
-0.6141437651519198
-0.8168838077890956
0.4833927301257643
0.6648185913419524
-0.8943322194647376
0.1425292696414154
0.40378832106194734
-0.864335586837155
-1.0998445092472477
-0.4272675566941362
-0.32465802488767687
-1.136928622381958
-0.7460242493869782
-0.38965054908884367
-0.6367714944576454
0.8068136225126786
0.42544842696269713
-0.36034738223326285
0.6919157624869815
0.36511320941990005
-0.9906296422835363
-0.18234339768825322
-1.0113979487021287
0.6510671745622818
-0.42717678187332403
-0.8430147442310588
-0.1756386013060455
-0.8969736278077952
-0.2216863402795021
-0.24319000826190298
0.34755729326566864
0.41821577445915475
-0.2387856475582192
0.3188003835091458
-0.7900255987512906
-0.6151314569430867
-0.5888408470272727
0.27525684457330873
0.7370659801174387
0.5846549940952892
-0.16246738178400358
-0.8311700656678915
0.3585787314036899
-0.4960480334855375
-0.7409908350518818
-0.04267927787301555
0.30388568058894383
-0.6008114867686488
0.2600702968342064
-0.5602243992213256
-0.5492764816714246
-0.19307726639079825
-0.5834450004914707
-0.8919719437022257
-1.097040681557166
-0.002038423652967158
-0.5937314262286444
0.5562798284561838
-1.0558452211774245
-0.6474192030603189
-0.05751922915710753
-0.5642174229762836
-0.21141123216134045
-0.5180143846609124
0.4451575044328017
0.07551273888987485
-0.6276231090133034
-0.8046176304160261
0.41249592538343105
-0.8424783058392238
0.5658790551163221
-0.9313897625734687
0.49772598423522446
0.30088363883939334
0.2228350395070657
-0.7977926256404713
-0.9170284944603309
0.11567773213932747
-0.3676849353867214
0.15389122437457656
-0.35579545672401747
-0.7904314910037958
-0.29097398818807463
0.17808273033535424
-0.26507995505901866
-0.4801161076875929
-0.5614289975721325
0.3055468460353758
-0.6688940535507611
-0.32192504146360135
-0.3566149452935095
-0.31749672853773153
-0.13666780615828297
0.4787673491489769
0.41343616132064
0.5801524231482077
-0.7071647201934245
0.3636139204998608
-0.5117434514691312
0.1855073043791925
0.4581512231224319
0.18331963265685053
0.12317891460051496
0.49155509589262186
0.09154385081491925
-0.29137082409178433
-1.174010887085329
-0.49676218064314387
-0.2875304784095347
-0.7807182233511409
-0.29456976760918463
0.09484396632937613
-0.816051317804681
0.33101185552137724
-0.21033987251770406
-0.6236593074242895
-0.4727814632425432
0.36785200356448555
0.02002257469002609
0.5649819168718306
-0.3313218826672865
-0.07731381874631621
-0.42936823841287625
0.29840539827258783
-0.3912028890356304
-1.0705121493157306
-0.7908353139092763
-0.15567235626528236
0.08066027900212376
-0.902785182548368
0.5831339554584184
-0.11000811036162114
0.5560447874013307
-0.06306025467555898
-0.07403214691719288
-0.9047885026673951
0.5032086308176283
-0.41941895837087967
-0.46328839249668835
0.5282517415954846
-0.22023269941866108
-0.17306541801988365
-0.0651166968980154
0.022126215215182633
-0.9129394859201663
-0.3869667017267764
-0.5478085850356647
-0.09166172924588485
-0.6378295140824846
-0.7307288888012281
-0.1004905652005124
-0.5808406131674948
-0.6176225486513727
0.24755738948497855
-0.3847644013081503
0.3391544231913761
0.4588301113463695
-0.4487270369159396
-0.8139931759191941
-0.16518122490963627
0.17642591151562148
-1.1365616613867016
-0.4808942394778224
-0.4416728391130295
-0.10659648056082988
0.7257650925248745
-0.37774039854500496
-0.0219768410948011
-0.18989415304112686
0.3026436267103064
-0.8144425218209904
0.0194351619083106
-0.2894932864636772
-0.16408676550520823
-0.32584297768386866
0.0605745343242289
0.5631184790331041
0.25811978356906756
0.24792649574600992
-0.39760703102630784
-0.6267490749805406
-1.0287446474514355
-1.1046355172363485
0.39621130294929086
-0.2645285480100654
-0.5400975288916037
-0.659701514474186
0.20519913544531138
0.5708115995550218
-0.43139717758122537
-1.0396110694768566
-0.07540725544249378
-0.5920609316250315
-0.6652956392829343
0.20337215316896232
-0.6215591816392463
-1.0426289653249463
-0.4370337283964856
0.06001795876159223
-0.6372842568136593
0.49021841342963635
-1.0352982603392047
0.2656374031456048
-0.38872808186965446
0.47551941520353913
0.27363864488913864
-1.0305209945819302
0.16461442727791736
-0.17394260719536433
-0.5647075233244085
-0.6482947349945788
-0.9591563177091484
-0.3679311066755745
-1.0465993673315603
-0.4188861546620003
-0.8722394648518301
0.18939050087945078
0.3630310345540597
-0.6152705249542004
0.2301712445298651
-1.0569311990527446
0.46822160563602266
0.32200943511201835
-0.6373552598091888
0.4543342007182061
0.2800607623504066
-0.03525367485349394
0.27839173786687865
0.408802915976336
0.5892145455584137
-1.222451895552843
0.08949229262493354
-0.8853704268702315
-0.0380417259758143
-0.31815722022891224
-0.7223910704528337
0.33891918358401335
-0.010686085714629513
0.588775166689673
-0.49728479484993376
0.5659644476488748
0.2999418979492952
-0.7585393797697468
-0.5230840637229187
-1.1051676793574454
0.4989054172829709
0.3157052202701818
0.14928338440455824
-0.8951053858140527
0.4185750625306076
-0.08233155668169512
-0.9152071397372348
-0.16257955708227326
0.40725318023586426
-0.3783729429031167
-0.031291915317640626
0.41205002452377315
-0.02807562282202659
-0.9954910957691897
0.49176365870249095
-0.21842206824338925
-0.8526646984518894
0.25887667991173136
-0.6713253252123604
-1.153253167887953
0.04430981167939886
0.25659333206348517
-0.4475469785835838
0.43447831279886445
-0.7467912254237352
-0.08308425028653219
-0.42923975477086695
-0.9095968820456594
-0.4054984518851343
-0.18182339301296702
-1.0024655328140808
-0.8804963959179138
-0.26507561737151
-0.08652410810281194
-0.08780412760983529
-0.08397477094563839
0.06944695614671531
0.5536096715450622
-1.010188482023412
-1.1118641256087627
-0.4593228520622842
-1.2395113223286203
-0.8472460549869381
0.23129696166828523
-0.5886927345728297
-0.35753469464393955
-0.19026446252522652
-0.34734725539790634
-0.7238746229741067
-0.2727394823816537
-1.0436915588321307
-0.07524841542603156
0.3751279107884294
-0.5438247901282103
0.15066699746367648
-0.6336758982326735
-0.9015360061415603
-0.6863227709514091
0.2356311817671692
0.1829520061929035
-0.07061018109780834
-0.5447376927622667
0.48488274783111024
0.31476820311217285
0.4997207908572329
-0.819292340126994
0.23651400782182147
0.41034351391737245
-0.16070853197420965
-0.21848727242131671
-0.16841301961153446
-0.6463512912955351
-0.6483054972828584
0.10785828003192673
0.4523211587989851
0.1757116424637975
-3.969781782277921E-4
-0.0736932157475165
-0.14988778535835565
0.38252743891517743
-0.2198404738867267
-0.11265125705804356
-0.8302818300132531
0.2755682734610322
-0.8388627510528178
0.7960389487332892
0.20379691243724002
-0.6599030750752044
-1.0752847240308911
0.2013215251863777
0.6283776329377743
0.5967340585832889
-1.1376286365411465
-0.09002511325154122
0.6568439834722885
0.24979645786803548
0.2313571492172811
-0.7047610568177479
-0.07206496496098469
-0.6533575404686353
-0.21408528078634723
0.16356592936964084
-0.8581129568796597
-1.042674615211742
0.10584990479734019
0.2568417534150621
0.37367280816468124
0.07912171461297611
-0.8541956687794898
0.007308086264485765
-0.8497799892757221
-0.2869827985017504
-0.6863446840183675
-1.1684220686142963
-0.47404689164006286
-0.2109541539651676
-0.9296524475281529
0.1435028004883186
-0.7902209926096286
0.3442445155185976
-1.0111150120228938
0.46750844157930177
-0.028065735121980784
0.26749611607018126
0.27904553423028816
-0.6454088502616411
0.1932181929275342
-0.47914723244117857
-0.5255312723894141
-0.4268245476941467
0.17560463779366708
0.4343850240218782
-1.232201151554338
-0.7934569617065756
-1.2309883035401434
0.13458819403806882
0.38406765018517586
-0.15775360098056346
-0.6826315628693768
-0.5374384909468568
-0.8457611613181878
0.3791212058739058
0.09076550309805351
0.42923983445920444
-1.0179742660222084
-0.35738326221902433
-0.3240008171902821
-0.8435723688223864
-0.7939038470773626
-0.007943006019362833
-0.5339870320499313
-0.8335522306458342
0.08142621514782045
-1.0320172475199887
-0.43703515602254717
-0.22790551769729578
-1.0504322627575096
-0.645347960948985
0.07415729586163143
0.31586858833428033
-0.19772501747450746
-0.286692481258121
-0.04714604707529773
-0.25089579270281953
-0.4700546902922384
-0.7700913874114163
0.4859612680864817
-0.5714519748665541
-0.23478356573975875
-0.3999714338568276
-0.7034952305296921
0.37155356974236736
0.4402422164129562
-0.5838881476820482
0.1459182333999488
-0.14416453965442128
-0.941527489107761
-0.3053185949232771
0.11766378863876385
0.2858496782511723
0.3244292827496671
-0.12023530847306116
-0.2811539119198209
-0.4214501749455339
-0.0414788083842298
-0.9085718366399584
0.45809644069778827
0.36895121289501703
0.3042022807363792
-0.20673784296292533
-0.06346523764826864
-0.6809788504082253
0.3195557157019843
-0.9446011412629055
0.07996382786293327
0.3333766065869522
-0.04041442199971267
-0.30532788842739605
0.37262255025441193
-0.6706779541207581
-0.7818312975840833
0.13138519583660777
-1.0807259265969547
-0.8590680420032923
0.3272917919762462
-0.4609346957381247
-0.10815447309633948
0.10438935242133039
0.6137970346877402
0.19842497364417355
0.42700503047189137
0.3627826487256794
-0.9922293049344673
-1.0569288898463265
-1.0019772187836984
-0.3415603244640223
0.17379468480837776
0.20468741701038037
0.24648807453628438
-0.23969025111875325
-0.11917795689145352
-0.2577166501915144
-1.0230147732265067
-0.1892004679548009
-0.3328500938399846
-0.33297997982863864
-0.8636653791468804
0.4746287784050139
-0.01473366372251332
-0.06751821286930544
-0.12174189217053272
0.7023093108155447
0.5219418224200432
0.18967475432713904
-0.4392242439207923
0.19644632205961565
-0.634903090368617
-0.8190762614006696
-0.7876307278882911
-0.39164108540743076
-0.8012389372026865
-0.45102557791535286
0.05644975402976801
-0.5276166137575661
0.40250671749020894
0.6440441433953513
0.3565016705523078
-0.7101392127907437
-0.13177108643778546
-0.622295159888549
0.3392029578193619
0.6789155856965997
-0.5121253855370705
-0.286539546513375
-0.47141230386035415
-0.017955517753450917
0.5184412134512008
-0.11147078784950382
-1.048452582054852
-0.7277464271168775
-0.8877046788168725
-0.008093386737349446
-0.07575489811867235
0.15615806024351472
-0.4091896445686186
-0.8169937320189219
-0.9543765486071897
0.16095308976963885
-0.5870922433538525
-0.7468149278446131
0.5845831122276132
-0.18664722863878222
-0.21756174269304465
0.5180722808628435
-0.9826337877855964
-0.9456870085178607
0.5729753064524159
0.5742646837820301
0.4445991224078252
-0.4680997979727984
0.010498345658856722
-0.27586106133785254
0.6476809652586305
-0.7189348097607856
0.18920480319599992
0.4719469152515491
-0.9344693805560094
0.3800053599895898
0.06481544100228609
-0.6721200725372372
-0.6990938847721129
-0.482559128866169
0.8163866509275625
-0.2741483402535262
-0.7444560185059282
0.3177264469052431
0.10577576203969946
-1.030591002637893
-0.18392796546196755
-0.33630530093921623
-0.8344261414154093
0.6070108645840768
0.5496203308253897
0.3938033495969102
0.6595992507582694
-0.06818831476311787
0.046713890508049874
0.5854930052050784
-0.3498283339585774
-0.9439005943083268
-0.6809046308041123
-0.9652700389396303
0.14685856978787126
0.3164549996625966
0.4668996946408978
-0.6312210851935346
-0.7475794444807968
-0.10215714739464625
-0.8437299145963826
-0.071288567034797
-0.2528085089678704
0.21325628190935178
-0.13437456604643738
-0.9544014899482408
-0.17053367226992439
0.05005207458199849
0.16373084496750154
-0.581215148665993
-0.3229681805038496
0.13981082231711292
-0.8672507606402602
-0.6999671970609411
-0.32401300182561504
0.6031186992889364
-0.7510008585756317
0.11864218882487085
-1.0493815863389113
-0.3660476868685179
-0.11066396249303072
-0.5853411314632353
0.5475296840915365
-0.6021293600383987
-0.34103123677525976
0.4945377021149135
0.6546207634365521
0.30718691474983045
0.03549660618002997
-0.31689017020413257
-0.3931919902563113
0.4315421909209432
-0.4456000152824255
0.2220529601841438
0.6288347922797707
-0.27805330463495626
-0.891856146087874
-0.2643389779128473
-0.5979293042600925
-0.4950843497632982
-0.43025305347204207
-0.04994412934496962
0.47466492382932607
0.778813592658842
0.4005445662582511
0.22123072431390742
-0.1093279834688884
-0.40287776434847705
0.03747963357826576
-0.6634464012093523
-0.5147726402403359
-1.0169071016335294
0.3895416923905918
-1.0483309833963999
-0.1501954850238648
-0.9594484860766987
-0.9295619732221225
-0.5664622565199365
-0.4922073371305972
-0.45760532576759666
-0.5595308453401032
0.1790236808112989
0.589228751465013
-1.0450769259021573
0.151736005432342
-0.5227176210069464
0.3531116037483168
-1.1406874573416657
-0.13711793156462568
-0.5568271288323857
-0.43028853450898635
-1.0130438056563746
-0.8709801212853421
0.35838814093460275
-1.1043101063856118
0.19197884612442778
-0.6690366081585905
0.5095393375789896
-0.7260531809103741
-1.2343183952825931
-0.847216912064286
-0.5511850606880428
0.0636757694650772
-0.1029740364479832
0.15969155885585773
-0.21007730730091828
0.45622744606430027
-0.8516515537332897
0.36559227071698625
-1.1781866468732236
0.3113097788952606
0.15023005810360826
-0.6929759403211586
-0.5950268541853517
-0.6175232836628103
0.4907731358569775
-0.23273040228773742
-0.2793078157655556
-0.49250843663298094
-0.12456623156320366
0.016696899415242827
-1.1035237639381563
-0.5218584750290284
-0.3582350139654418
0.41607462594198685
0.32777452191386963
-0.2334838620846456
-0.15351786375808876
0.5815673762333339
-0.059620893205773524
0.3297944187384534
0.556566835367418
-0.26351460571169516
0.533736835605413
0.5298668886567299
0.4791534067175767
0.12214916235936443
0.23589420244056214
-1.0353691788305617
0.24073885223973426
-0.3085784643373194
0.1705342665753856
-0.341615914893325
0.2621351996275207
-0.4590285455573455
-0.11513572522310722
-0.11641702419849173
0.6066192347834092
0.23892610714722218
0.3932530790740937
0.11392152727312824
0.007001280202756653
-0.3322072383148612
-0.8365415956396919
-0.9999478760968269
-0.7363333642028147
-1.0420055798086068
0.22603158585880512
-0.9179031133997045
-0.6236193317826828
-0.15931908614737345
-0.47720133648762453
-0.07706093306571915
0.04585338363197575
0.15731357193435982
-0.8454506798774077
-0.3984358468697303
-1.0284427528545927
-0.3471370712231483
-1.0094096574411542
0.1216528069703231
0.5138032937718938
-0.8215794539502655
-0.027074114392511957
-0.4338641640032283
-0.09875234576460733
0.20228857177104537
-0.972235042304326
-0.9471474113902801
0.7232535613834719
-0.016779185124930075
-0.28380592601301297
-0.44483149842914366
0.15337909505534075
-0.6158962023905911
-0.007413130706507525
0.2412209688764525
-0.8484437103091065
-0.9829459823370363
-0.001410773419458113
-0.3798651511635294
-0.7996180800148289
-0.5359358819573643
-0.6338415734003243
0.10271457926556862
0.12376032779168286
0.3397959951291715
-0.24460916473470493
-0.047013139259659026
0.07679245385904783
0.5778282545282186
-1.1779781004260501
-1.0393920122429972
0.17746172002596125
-1.0733998926740265
-0.40248251063281604
0.7321274520396148
0.6504242444274472
-0.012714030502768404
-0.8390167098759098
-0.9475352316416703
-0.4666097393048127
-0.5922435189280069
-0.16083533044977522
-0.5588203514048735
0.017062151667663214
0.5757430168661963
0.2694606058540163
0.4600738832351358
-0.8791583880705172
-0.8096374861512049
-0.35470272495989097
-1.0348734141862517
0.1632921831428534
0.48337419980184665
-0.3510918042073977
-0.35211222810742654
-0.26120547715346254
-0.168253278438249
-0.7726286188500779
0.21555012550842875
-1.0977697789505807
-0.347459339056713
-0.4700108355390775
-0.8797554435392556
0.2175648693727298
0.2203795565203553
0.19799466986079722
0.2429399616046679
-0.12328717571128099
0.27873698895412574
-0.8649169068087994
-0.10396442967805326
0.20616782597124078
0.03485103872017771
-0.16467767165198494
-1.2462569873543088
-0.6420270115385235
0.2690528635477007
0.43947545583155684
-0.5873842865230501
-0.36700285678119243
-0.5914803556607166
-0.8623181482724692
-0.3917023230510783
-0.42663232768637094
-0.36117683595800004
-0.6545063274776124
0.5359917993526865
0.5205393952559626
0.542492551784472
-0.8367594360403594
-0.5546429436485893
0.03172399616840499
0.020413296124358053
-0.8354179455475301
-0.2975487352901305
-0.4065052814384943
-0.49685015661966186
-0.21164127230799562
-0.8525735891778946
0.5253881402561484
-1.0757620926880196
-0.6674889177900878
0.14854823521268945
0.20538519222982327
-0.009572585656826081
-0.2229166589392455
0.5428513243916994
0.2663048594952521
-0.7077392845206522
-0.3478883769688394
-0.21223853025794884
0.4529286275377964
-0.5188411059303256
0.039315148065387384
0.09141321414094149
-0.6713839866116431
0.4178420974526316
0.17857867282394152
0.40508173968742217
0.5358424069053163
-0.3039964668232912
-1.1495286370672766
0.20716341506043365
-0.8699211963975182
-0.6168061990373274
-0.46106101720316467
0.6321494979630271
-0.17265512001277236
0.4132535636558964
-0.21769343521093035
-0.34552396920695744
-0.817833649754907
0.5568265671655267
-0.0919646320297316
0.20353640086184457
0.3735551058952392
-0.9363647504443107
-1.12093356915705
-1.0030753277011846
0.20227708093120325
-0.38294144004088015
-1.1535909216905096
-0.5293922850124755
-0.15172886907414923
-0.31467496104598563
-0.2047386985368044
0.5702574054268041
0.2890660257567708
-0.7779621513909345
-0.7865207384609585
0.26374939976178285
0.21347543584031844
-0.8606951425286803
-0.6427053780915777
-0.44275267241712946
-0.5025573474467214
0.5033136829595151
-1.010259458517107
-0.42284180727413817
-0.5463581212858432
0.3325852688647659
0.45613551297366717
0.12971352555040794
-0.22002801535692745
-0.9749363428749329
-1.0727866598362426
0.5529693723650252
-0.20416855509466297
-0.6117360785617887
0.09801058665138629
0.46583219339942894
0.5654962269214835
0.4925288111903051
0.8368970978687993
0.25399840724717876
0.08529797053588804
0.5461781620736764
-0.4174206194196013
0.1986110994974482
-0.9786393316177812
-0.6775956274832415
0.35178568680527866
0.40771613565729753
0.5787514907952098
-0.41315671266872006
-0.25241684928228647
-1.0417970815649238
-0.11100313667399092
-0.8736447991681588
-0.7845253109747251
-0.1485217759618281
-0.8994352599585433
-0.5686018665648578
-0.9315846722795984
-0.02574515734806751
0.18248329928846646
0.5494843970635677
-1.0834527827885898
-0.09120215496775955
0.1698026551094904
-0.24540357902822546
0.047282843569357386
-0.4562178938108913
0.4514037258056065
-0.746477431490686
0.4569013264644829
0.5141881259171969
-0.010538539008547733
0.4139308000118286
0.04071115280980384
0.12478979494590947
-0.34600555338325345
-0.4936128171871649
-1.0644238684610743
-0.9732358176635781
0.031167401968620535
-0.9141460035202748
-0.3200366734196581
0.04682699242276702
-0.769277945992309
-0.03261204839463851
-0.5615027647622975
0.34934138679687216
-0.5937503664398999
0.04881155746275563
-0.8201893759482266
0.3852081059486711
-0.19327563900704217
-0.7328155492284951
-0.9859579089053095
-0.3326232758643945
0.11124714154239881
0.28006564974167986
0.24876182935342653
-0.33874435897766336
-0.374651626587296
-0.0028639393526149644
-0.26603586652049643
0.018803371416034477
0.20827777545107715
-0.14395397878238725
0.2139892036132921
-0.4138759618004569
0.4488583632483298
0.4055708005160343
-1.0262283472390918
-0.15976250387236368
0.2244765518164435
-0.6618545283484498
0.3378101151177051
0.41825377771775085
-0.7244842795082046
-0.3377989135654791
-0.2710808574007894
0.46963519249617763
-0.38536860181018023
-0.9694467079278998
-0.157756239177477
-1.099846919880732
-0.10128755981892433
0.1652193970078653
-0.060508783345910006
-0.5379129238669293
-0.9948502229751001
0.11531346581564654
-1.003826188482876
0.26864965357796583
0.022781076654969576
-0.26454387687875147
-0.6928177901028846
-0.11313874219333976
-1.0237187672739065
-0.7611054253524854
-1.222799644856097
0.3487884650902069
-0.7058229181977044
0.30275530015088586
-0.8750928858717467
-0.2109568371744791
-0.4129087823324078
-0.2890869355930697
0.3613862354079946
-0.6101461436426276
-0.026821354942772994
-0.20400905231913458
-0.18794861355654308
-0.26154178338736905
-0.8851543263912959
-0.8032460048952995
-0.6172007041977594
0.2430842805421581
-0.4292932059957734
0.14637953916070356
0.311471171099636
-0.9423464113141172
0.27675138711432656
-0.21628510393881967
-0.43125586577209934
0.25951096446207045
0.05102492602754933
-1.0957639868650189
0.20687706667944605
-0.9379497142204468
-1.0038826098690516
0.1442281901140182
-0.31422352519810326
0.4051835452152789
0.43924280092325724
-0.7589881730296301
-0.5380819150505893
0.05325023951686906
-0.04837655522286871
-0.1379503902743343
-0.839764819667746
-0.719655008297767
-1.012031766606472
0.4411685887552749
-0.09694721278564167
-1.1649943600055315
0.27725180689153295
0.1831917070276428
-0.19564687309733814
0.17849472920576115
0.3003448565746859
-0.7353429617754773
-0.1208025306499754
0.13532827746511544
-0.9749483908555785
-0.2701947684144857
0.2246642171206622
0.5261782112700495
-0.7949590441695714
0.30753023474784663
-0.40871588318100793
0.054199849459175345
0.3016252216051627
0.29217469320665296
0.30220134724426273
-0.38243601774016545
0.48082313716254665
-0.6807893015953921
0.2303991699348349
-5.794065096000021E-4
-0.16659686458791237
0.2257205495606434
0.4346332997261822
-0.9110116514856829
0.27446461325964305
0.568538634325472
-1.102102351093732
-0.4653130557599184
0.20494426521585388
-0.6865128642081582
-0.41659343308283586
0.40773954780356825
0.5404025995712852
0.6400746362877379
-0.20555308289203486
-0.744800048258202
0.44208107294428
-0.9391178793680994
0.21273983556395323
-0.4826676627895011
0.019679774713270162
-0.9047589119603132
0.3733700346065451
0.1375986137254047
-0.479361289369256
-1.1189510204145081
-0.025589196212693496
0.3103144545008886
-0.3999963305060439
0.343546480040739
-0.888541382280714
-0.19393142412716077
-0.2032539193122395
-1.0737771371418066
0.39220602663877085
0.048725952194860755
-0.5429495482275636
0.33872461950282573
0.3825371840453721
-0.4460486395144808
-0.3504851662018922
-0.6318129637718811
0.3578312852077443
-0.5114625042389137
-0.7132592374492858
-0.1595983239740622
-0.4642248262192717
-0.8326308239291728
0.32123096804861556
-0.6179582985137427
0.2770496328893684
-0.34267388402994214
-0.16180978426618653
0.10695543314846787
-0.15040613374814776
0.25295725374772704
-0.25794652023883935
-0.4710373908381735
-1.0499827124765022
-0.7910485710501816
0.4871772670523318
0.4179745275710777
-0.05643564695413632
-0.048292077770052066
0.596857981164271
0.12295608105442554
0.4534112150537392
0.23286264984904542
0.5209492095727536
0.3416287867155847
-0.3199338929205206
-0.8932742998290661
-0.06599152486663817
-0.704270887954088
-0.07501238689978543
-0.19431881824634747
0.5130203169760658
-1.0213106300161108
-1.0853192894778712
-0.3892948627295811
0.19252876382737516
-0.6903360890135622
0.49333567544637796
-0.43861806661382347
0.14985460362851422
0.09149725006470077
-0.25669935290607676
0.5724051905509827
-0.4870461870096019
0.22161380661935678
0.585920591001683
0.45832288351901773
-0.5019865668972545
-0.975774256894843
-0.5038364363004519
-1.257116244113682
-0.8956859340911676
0.33832786473215776
0.21453674799594788
-0.04454665162590494
-0.810867615423541
0.053750903130689594
-0.6011092157490848
-0.37974290054931853
0.3171746102051357
-0.5605653774034314
-0.45529185305765507
-0.9601325281733437
-1.0282935517386609
-0.9478048540324757
-0.8091071775926247
0.23909900232732595
0.744685031864532
0.6091044275336781
0.41722222586787505
-0.6212063267087145
-0.40348022458210403
0.5307608009927998
0.5971612437250258
-0.5252206659554518
-0.0848529381367612
-0.8756738361813687
-0.09929077324518948
-0.5839693997382364
0.17369562402831498
-0.25656197424484983
-0.17354732166950132
-0.612082408840924
-0.15447170232731885
-0.26468412865622865
-0.47275250229447036
0.5302715960495988
0.3687118981403866
-0.5739461129823448
-0.39703563406536707
-0.9234333014841586
-0.5710064741237916
-0.9069921027590903
0.3957321582466301
-0.5795509922812566
0.0918872873997386
-0.4613113885467121
0.23533180426531258
-0.024796522767877204
-0.9334011680169675
-0.529791666355825
-0.9860945478178585
0.359139781169314
0.35865950945008296
-0.5049362972394547
0.6069697898359304
-0.09707501462904733
-0.40050747706579654
-0.0906970030039215
0.23386770512898825
-0.8154144679477358
-0.5551639280749355
-0.9216691850018236
0.5173820629240296
-0.5584284328975556
-0.3679422456755993
-0.7961820395132642
-0.9686152154163923
-0.7805825484171768
-0.07448794924518545
-0.037688119474498905
0.3852765120087898
-0.9931107258788898
0.592885456382637
-0.9734785036292721
0.28973240482042123
-1.0800612998325378
-0.31890445063024897
-0.3908438607465258
-0.8954528305472864
0.20348672004220078
-0.9674562153702451
-0.5362954752471789
-0.3770250136665883
0.5778421425736215
-0.5755894866922097
-0.5500169116754148
-0.14899061291612747
0.2299283956951343
0.5055426720968663
0.5808616369632023
-0.8345437464967432
0.4657100043368463
-1.0209465431989784
-0.4950691565527734
-0.1685095731370324
0.24296314492190282
-0.23533001363983713
-0.7936233307531289
0.3871981991895801
0.316456705095214
0.3675894408048983
-0.8535699819777958
0.6951730384070649
0.7255007520087018
-0.8643214604128595
-0.7778246312015538
-0.5206333999180938
0.38327108605594196
0.006430254334144734
-0.7665711601988092
-0.05478367526739831
-0.5887244076076237
-0.05241662562041117
-0.8280589182942012
0.11637344564462243
0.770456890610402
-0.14015215815719292
-0.7239736804913413
0.48975057800457666
0.1491565627139308
-0.32418364835438784
-0.9430106554223419
-0.8113152123426846
-0.8155303304809436
-0.6825138769505676
-0.4586989247691583
-0.4691791261374858
-0.307198222095838
-0.2610488305191567
-0.02842348665690827
0.4105617832554756
-0.8360214752354442
0.44965766984951155
-0.6241076230317874
0.18316415780968812
-0.4912847966859175
-0.7737698335910048
-1.0384023500845267
0.03630466156828636
-0.34887547657236534
0.09526800670387321
-0.7757424982578577
-0.7564479587529578
0.16055838383432217
0.3655142300070357
-0.37930960927330204
0.48661643981708114
-0.662377923423056
0.28870393325140165
-0.8558694734567733
-0.06399497905865208
0.10465136452077303
0.2603694792218188
-0.6264793178665453
0.3073937029461248
0.4641797865459074
0.4673816578496442
0.6280909935662125
-0.20952368846029829
-0.03928062860271821
-0.5042018495390795
-0.7845022713092811
-0.8201133721637145
0.4480338396115904
-0.4858036252474033
-0.5273867332583424
-0.4557768159852772
-0.9517192190958305
-0.7069384713582905
0.7083272510038261
-0.015541138121460196
-0.08749131374937187
-0.06150097013028952
-1.082340007047802
-0.8495994218732865
-0.7038153631695939
-0.11212296506921905
0.6515612534706329
0.6667240579452391
-1.0912812198714295
0.10727929847076088
-0.6745591246677496
-0.9932768619520007
-0.7594669876209893
-0.6799944514641945
-1.0477110177538689
0.33879671511305964
0.6229085266690562
-0.7508635695658048
-0.7786069497035094
-0.08378446567538853
-0.2556696970667721
-0.2077779315240701
-0.7435164496593719
0.3266666643441298
-0.5506122708740881
-0.6467412444991296
-0.16700326789121467
-0.5230103338886181
-0.13570735395483904
-0.4899083411507085
0.4273158390593712
0.7120645477532719
0.10691049572013009
0.4161747113692217
0.11436909630727117
-0.3420497721058651
0.25718509581181737
0.6741891898332169
0.12663821962433566
-1.024684425874571
-0.10859213220027421
0.29147376715736983
-0.5788777568863517
-0.7747701305726401
0.42002736108981287
0.46387847526046755
-0.6289874153624995
0.3889739900924583
-0.662596990309681
-0.8064302430008135
0.36048917020511206
0.47134541941324326
0.2893293901290357
-0.18223565336515843
0.4938289780851231
0.7176509037904826
-0.5076815233027512
-0.4677983866313747
-1.070736691343642
-1.0548240698025937
-0.0564761039970567
-0.2383746683241608
-0.9877081134544635
0.4164050112786289
0.07787265101897216
0.5169190354680622
0.3362875626915244
-0.7459254187721491
0.2564797232857339
-0.4537364807239415
-0.017736954061240734
-0.5938462600310723
0.5115384065212829
0.6654590799669267
-0.1955547732836299
0.592723333229488
-0.47225823459914035
-0.8352371534528392
-0.3053669497273514
-0.08564310733070184
-0.22630440070193375
-1.0473034840685276
-0.8913544816591996
0.47151721113947237
-0.7684851639325657
-0.7815103632860083
-0.5942890679218574
0.21470209890284578
-0.5944718106950923
-0.8056888480881583
-0.11205986558261773
-0.7264004075551205
-0.8979587615670508
-0.9678033504255292
-0.5710646320250585
0.058701862802338925
-0.09669014138837435
-0.15568001701243617
-0.8574291775329925
-0.966639508606771
-0.5350739904759834
-0.29022837078088937
-0.6119426975928396
-0.41577783613231506
-0.02484171110663221
0.2546645157627951
-0.7629744426810099
-0.8534576468306071
0.6567148543354331
-0.5805910436253181
-0.2589441367408818
-0.8842275825287462
0.306516521691455
-1.0637912298562473
0.12059510462583412
0.19868505003670928
0.5009910256479643
-0.9385378702666687
-0.08228931877439516
-0.09968816798207528
-0.7214064345114548
0.41888615776154414
-0.32800162907239666
-0.8365006157724955
-0.8369229669006806
-0.09344337909052086
-0.27455165269525034
-0.780186510667994
0.3383436271923995
-0.5447462596930708
0.017363728735165812
-0.7093842070130895
-0.08906681208528996
0.7502352426232894
-0.32523248405896066
0.2523260697408489
-0.9614028504360436
0.36511214961972527
-0.29133062335106835
-0.45352528620944305
0.07988763097965468
0.25171804827927496
-0.3168551675324441
-0.8053550117157928
0.07117772780304608
-0.42770096517720213
-0.3698405949594074
0.41990772842871
-0.8116993830828947
0.16213983757531333
-0.16797331480469074
-0.03666454166423825
-0.34820492730165653
-0.16267629291022428
-0.6661951053559203
0.26087488422823046
-0.835911166779979
0.20837646598420326
-0.7889684694738341
-0.6872243434996252
0.22059127027125586
-0.6740045203823065
0.04819188918691342
0.04571263971467984
0.5246373631787464
0.6362147235582454
0.02812235137070851
-0.6220474979572291
0.5897241952475157
-1.0720576598148306
-0.47323998525313804
0.5978488924690087
-0.7947995485411404
-1.00616412814606
0.10468746781484062
-0.015692473245797173
0.551070195019399
-0.4137469401559716
-0.9510891014057286
0.5625843277678066
-0.9477842863091244
-0.9071628890752895
-0.10460690032527843
-0.21004671147371953
-0.03238685310083008
-0.5178424259205809
-0.3493054027655579
-0.42005161143614206
-0.6900257598552034
-0.44865359059794313
-0.8978381751108852
-1.053891749131234
-0.9523565239645961
-0.21801452320180215
-0.8211216392692778
0.3668220484078111
-0.7711719394368018
0.5759087449320519
-0.6327547885029947
-0.05263786630472364
-1.0640184825313752
-0.5681822210672739
0.29016167923525354
-0.0267677942469349
-0.8209355418971604
-0.28115350076271306
-1.0905902241912406
-0.49929228534398074
-0.07339138818364985
-0.14413390664122477
0.808601445107932
-0.6089923510932308
0.2758524263049205
-0.6612077711495994
-0.9935305653903317
-0.25988871169581024
-0.826298070677274
0.498530215003204
-5.949401597659162E-4
0.11673857233428435
0.7358321557387727
-1.0112222481185944
0.6374263898557296
-0.4925804043829703
0.3723432276632461
-0.3107101845863981
0.23584252964216743
-0.7284672398763432
-1.0919008734491404
-1.0088558103169551
-0.6394137740212181
-0.19558828813007922
-0.7691472814721816
-0.7902757718272504
-0.6405222339574179
-0.8396900865149435
-0.11408212670182259
0.20972970305563593
0.03364542258002756
-0.8077164673169798
-0.8241974536812331
-0.09585873021446412
0.220183085666911
0.15749100862109605
0.004028383368434186
-0.49332300183150163
0.2020426845363968
0.6737755508835016
0.6058357372070802
0.405872279793169
0.11175640655865018
0.2568617658500452
-0.9868361498408108
0.3101074232219324
-0.23428906668288152
-0.6426484691372389
0.34490227453316935
-0.06162845082998306
-0.19770556932966996
0.3041308251644043
-1.0056123650672428
-0.06791484681447273
0.32124164475728756
-0.5539210846211081
-1.0055388225917823
0.2013881484772623
-0.2511888366221689
-0.5728951483782085
-0.37645501513188434
0.4180328057010231
-0.7642879943987231
-0.8843376681048294
0.4101711808335666
-0.13261879199903523
-0.330784033677054
0.5013708077744264
0.4413727578202521
0.22316354991313458
-0.18886073178166046
-0.6566493254755966
0.20612984493338585
0.31108250704981727
-0.7404878352660609
-0.67292275117394
-0.0921953233800807
0.19844683845077715
0.19233256839102053
-0.21924296851653197
0.23396608550971357
-0.40402344265417145
-0.24263468900880952
0.1978024076300843
0.03444882295310532
-0.847351840103564
-0.8711187207592324
-0.02904686214543123
0.09795917415290632
-0.41459138558849135
0.38795432615960446
-0.0357712410307647
-0.3071539551188005
0.2394095461298015
-0.012701638671258599
-0.5615137462092125
-1.0096101619294777
0.43717195780550927
0.5608917371972515
0.13514994408747483
0.4592062088788369
-0.7938870582976746
-0.6979216559347757
0.02279096967396593
0.40087434990120735
-1.0156558239783189
-0.4307635729140433
0.27283464648669564
-0.0863058217961003
0.38022129314843184
0.4705606559071545
-0.10746046513153062
-0.06794254899484248
-1.0468781623093057
0.2737137464234191
-0.23469724587440988
-1.1315194586813269
-0.3244992714896949
-0.7961065393183001
0.026545807094602573
-0.9829424067856356
-0.6144484928161441
0.09294291364534073
-0.8630422724925441
-0.9770387100140704
-0.8112490424127393
-0.7649890079778399
-0.6019683421780007
0.47272846903397775
-0.8583978184766046
0.11806480227434861
-0.6622992803724982
-0.017830711692196414
-0.979950418008691
0.10104346063746523
-0.1605416683696529
-0.3731962215539477
-0.25634515031285343
-0.6518347178449965
0.3959138119468792
0.6931979892835117
0.5959424801407305
-0.05302341836173893
-0.2918153190271353
-0.22857361034550058
-1.1932734189028338
0.029031327533175267
0.6080226319089413
-0.3129451866101458
0.0657696332368691
-0.5419438458634422
0.4977528611113504
0.23081026549063396
-0.5262352799642427
0.16274662636751597
0.49336884605072806
0.01423659608024334
0.4711436228777868
-0.6659745835185217
-0.7410445397065752
0.25026227081065044
-0.02716862058509887
0.0044008086869168125
-0.8340768330859644
-0.1789078367165635
0.2798052129841828
-0.7738209934264204
-0.16822759397840445
-0.5019113554805791
-0.7001340085783944
0.07053906098771855
-0.5152953646531129
-0.35236255869969213
-0.712563847891752
-0.11157895879288779
-0.1793430732792792
0.7600876285161763
-0.45435258922969696
0.7142167772997823
-0.6691219424234848
-1.0315813657074806
-0.7075395830053458
-0.40232181656064847
0.2690842324185545
-0.8864281505305636
0.3943257086164398
0.6741846763986995
-0.9444061205110226
0.6656463045469009
-0.054017267092669186
0.42405149154741756
-0.36705486703988827
-0.5828908307621107
-0.5891491872123221
-0.9136000203039141
-0.6830124922435352
0.17151471297751286
-0.25578633290041547
-0.33707033145961657
-0.6644800016552396
0.27075096828805384
-0.8889004301875196
0.29572011296292317
-0.11791414698459898
0.21127134267771683
-1.0332773874059409
-0.5900281121560145
-0.22070432505965742
-0.3275817204404942
0.1949832437611937
0.43728645185625864
-0.9105401532833998
0.27016705626325654
-0.26087306806383637
-0.30599216414667607
0.16212750282218139
-0.8450409156057227
0.09134832449012208
0.417210353726213
-0.3113708384566242
0.5906451020896383
0.0688800377421805
-0.9683532800469363
-0.21065016742916223
0.31947223668679614
-0.9157812160114404
-0.5630574237455149
0.6309466631648871
0.11345665194878085
0.6390819893954401
-5.804084786867614E-4
0.5531091815861241
-0.5824769091084522
-0.8886800050078446
-0.8174416285292216
0.1311727517964557
-0.3312085122078255
-1.0349503954683714
-0.7095488647340709
-0.08663761322896933
-0.44361827716037927
-0.20037364121929307
-0.5161158371565081
-0.5092464639343443
0.5003276858959316
-0.34588810409381776
0.21760622260966284
0.23178150675551332
0.6338842858987712
0.5304689785626259
-0.9799856171341069
0.18353665769788274
0.3246077792074959
0.2637451725979406
-0.9097867091765843
-0.8017395609025689
-0.474788069769558
0.4733883440598929
-1.1045234133618504
-0.2686504461927129
-0.11231016052899727
-1.0736777258478003
-1.0188437306875149
-0.04233453251581408
0.13334551339369133
-0.7283362938291853
-0.10700634884535513
-0.2137691280967627
0.25702035338706763
-0.6512248848213738
-0.5576313548434413
-0.9443241935282052
-1.0257545052537207
0.6963147046403887
0.09753120132174513
-1.044980117749209
0.6388449503659153
-0.6012635285845446
-0.6950115161440545
-0.9059599097724464
0.2528351994588945
0.3155530635074927
-0.4050382688672797
0.2512864012528693
-0.41406962085317983
-1.1145636862685309
-0.2909567836570223
-0.9911049461511117
-0.006484825749545413
-0.17640213255645562
0.27700572198874207
-0.05436146828921373
-1.074253312841943
0.22713874409324464
0.05496186956763647
-0.27139256213855933
-0.8159658368488028
0.24625914272524085
-0.6974550477051639
-0.695093075029849
0.34512878220981774
0.2013411966225052
0.45119316313899255
-1.0495719068098501
-1.0659526986024557
-0.04254384866676756
0.07810254693117073
-0.04628007124439959
0.432072142203139
-0.4843210799976281
0.13904905008271068
0.22242036390444836
-0.5237774590625706
0.6866753544625998
-1.059947547115252
0.5026130016054206
-0.37442579729635633
-0.3326003277780495
-0.9102299494132252
0.5577245073397106
-0.6116986271236109
-1.0293130026148494
-1.1953146666537444
0.023468392242454297
0.1678452578608622
0.22986420332408516
0.4192396227959057
0.16827323763964105
0.22790294253122317
-0.6759670844212478
0.24851800305614646
-0.9950717044647349
-0.38179935464872866
-0.5014312095192371
-0.7481111675917322
-0.6829226523439629
0.47295424720552376
-0.5329536888408587
-0.9880435037255215
-0.7891346529178997
-1.3144821776586535
-0.790138957261146
-0.4461428201089272
-0.24800341153339553
-1.0795108848291253
-0.816682245231152
-0.3482470815473212
0.4774613906474377
-0.870615218411491
-0.5118638026638399
0.2681627463341633
0.06485829371700799
-0.004437758476449482
0.3952883156087657
0.21399343292974643
0.2631814426938374
0.10609507683458
-0.8872121839702074
0.4406707696713914
0.0031218431377864116
0.25374242390476315
0.2593991199135381
-0.5320076240695684
-0.22877031286292107
-0.9443897525959206
0.4168460728276639
-0.857872691508634
0.5694578182628142
0.15144598054580188
-0.03538212826260548
-0.1877062266545872
-0.32775393805023534
-0.5994625555568508
-0.5270396339753073
-0.31505717775565295
-0.8625061452824928
0.4663942196830308
0.45477379992175065
-0.03438992686768122
-0.1695287317673383
0.5614657489152421
0.5687983743890648
0.28909117653054034
-0.2924781398117711
0.10108897581486809
-0.5521848959558353
-0.4247162952637488
-0.4905180754161573
0.39535483542963773
-0.42737869370718834
-0.5105270427083966
0.30337528473127
-0.13873945761006762
-0.8064096742181032
-0.8843544005508923
0.2643752824892927
0.28317980356152045
0.2629678045715273
-0.13049216612564313
-0.04452333582560941
-0.7943442669261589
-0.7207201490857968
0.24808699948020346
0.2073166170557965
-0.38489414880853057
-0.4100413026943216
0.1251231873551409
0.3495554293528104
0.09032763792837302
-0.2269556887240009
0.24008854282196476
0.5543713697373817
0.42443600927231007
-0.787901293223993
-1.1383967911576265
-0.7370504929356059
-0.6263240835957343
0.028638325016671823
0.20784448714141227
0.18617979164395296
-0.4250601016126326
-0.8259762984920752
-0.9776148878597906
-0.29403759371313404
-0.9449246014861259
0.37850631341583374
-0.20046176340163635
-0.4249738420744118
-0.10997950787988985
-0.10838132797419037
0.10715631899467139
0.19333664347890153
-0.14427630679449005
-0.9147185036903865
0.3192373930673708
0.0063282291515179955
0.20446355041848044
-0.22215470671743082
0.2839171836360928
-0.8903423881085935
-0.030874494106521017
-0.7413519688268261
0.13787165986102282
-1.1413450880627343
-0.8447873205439851
-0.8453307834465446
-0.8625480205657848
0.3421375717777239
0.32217320109507186
0.12315726636638373
-1.0147740558782172
-0.2934418333723985
0.3909023313082734
-0.9311105865826799
0.16595161109318388
0.7978136491928021
0.031989956812156696
-0.059851998997547666
-0.15584405101358184
-0.23946170919824367
-0.4549459325958274
0.39810776112018037
-0.24831521232350046
0.15619556529581682
-0.798590077717573
-0.24978517706994652
-0.019879095767639875
0.513468731780344
0.7077534133019449
-0.8201227742421275
-0.9262273957577044
0.037501679499738004
-0.827658132444407
-0.514884919013701
-0.7306286806471044
-0.5924163956794408
0.18288425027939165
0.6558754428690786
0.11951957954688154
0.08747562350646121
-0.33306181532234486
-0.8367512339147759
-0.6503715715458932
-0.859724782677534
-0.4319712206379424
-0.6741503578380472
-0.11206997235977859
-0.45904645946459544
0.3254760570323242
0.6709713328045693
0.286095426692331
-0.09879452619019123
-0.2989207380220233
0.36270576400953203
0.555267051597656
-0.9473278243631582
-0.47604041305139366
-0.5998772007226808
-1.0296155441038757
-0.4751082103850959
-0.8005618442378715
-0.07485838542102292
-0.38857955616465273
0.12496089301815952
0.5295708089909177
-0.6255499428827868
-0.19855510686545372
-0.7266915624846273
0.4369096003596523
-0.7629214799588581
0.39221003810407945
-0.3918045364656063
-0.01146942832835272
-0.6420426153770684
-0.8008573947845258
0.4784396596634046
0.19215137388536027
0.4182623283613219
-0.9810997515300823
-0.13781175596275805
-0.09164808969027707
-0.8211875556642284
-1.0841179724917724
0.14741220500312896
0.10636148604621386
-0.834447030788895
-0.5886122967520525
0.06341529805107124
-0.22849579998892264
-0.8223840944464346
0.10903409275078157
-0.4256621301207129
-0.518361077085099
-0.7446300591127342
0.5076302790063373
0.41617460865266426
0.4783096475898965
0.6866047354354539
0.02153147339774281
-0.37074880022069956
0.4366440915139351
0.3172618116007865
-0.31960429428194276
0.5635333999942583
0.21707629558137825
0.48495183062829594
-0.14380826639037017
0.373481164953063
-0.33004661713255096
0.1675112052589262
-0.20714682965383685
0.4708044061986047
0.3199535893470299
-0.22542431912851724
-0.014137249502944368
-0.9261756195576655
0.4820780844657025
0.7575191010315141
-0.019961742918208077
0.5485172927195205
0.0037770296687737424
-0.5536725090148149
-0.24635929152604033
-0.5866107240415741
0.2710772024368775
-0.3897755496560582
-1.0565378765241669
-0.7425290521663223
0.3974787767413143
-0.6772830231558907
-0.6076205627372254
-1.2399600924005965
-0.7712570103436065
-0.5011081935325253
-0.9492705486052435
0.011401780943081127
-0.6483598154460546
0.3522604414407565
-0.2334717516004691
-0.7508842839021824
-0.5335193683304752
-0.6606641333130149
-0.668605738356646
-0.9136182963541777
0.17074460315205564
0.17303667649915852
-0.011534155787573212
-0.005364159738601311
-0.7881244561903175
-1.242778910333389
-0.33630510010411
0.516212701271655
-0.1601380128876041
0.31425768518389907
-0.5605949613530351
-0.039586720156980504
-0.2751584764980632
-0.9575195509931773
-1.0163903893503814
-0.06978371836815071
0.629926104780384
-0.7965287951684928
0.4358732667542203
0.43021179847843677
-0.17670237838719835
-0.2480994568003108
0.3333206308628668
-0.39139572761761876
-0.4978344362522892
-0.7944846961993598
0.201932612282041
0.5137205071984461
0.43691438446889824
-0.3720718968091256
-0.5180682612248243
-0.42445515483089485
-0.36246648626766653
0.2981866107278804
-0.4797994768777157
0.6939179849468795
-0.4678496431388141
-0.30649036463094825
-0.5912818040671759
-0.5109273380142215
-0.09234569758201708
-0.12824543052859042
-0.8386960525462575
-0.6867903661362913
-0.5187392087816413
0.39846852163387997
-1.0420297962418814
-0.6308284964820877
-0.22409332089535436
-0.01720633567824631
-0.48975817061407917
0.04183986623494237
-1.0381533292924492
0.5223142723687542
0.4307691105212611
0.36083575999494827
0.6422755740364365
0.09519466869670112
-1.0635843028814804
-1.1709775220174523
-0.24548893591814058
-0.41803982640820464
-0.3159619955709426
0.24536308948999141
-0.7248248454725973
-4.4002652992785956E-4
-0.6960741662560899
0.18733303734471612
-0.03660242509187209
-0.6388003430706501
-0.5884841488266244
-1.0977862223776544
-0.2323555495947317
0.021467518711723418
-0.09118159187524842
0.6079789500855184
-0.6420374523344394
-0.14932699449011166
0.24632832262213145
-0.22771976080860556
-0.12604654972122506
0.49951210402081087
-0.4441524889032909
-0.3650138026326376
-0.11970768857018291
0.006858131447512005
0.3263313151758355
-0.7128632375389541
-0.04585666043064199
-0.13462554267566115
-0.8034638479755476
0.25440175685506394
-0.8144679377259563
0.5763581254119198
0.3627180329268314
-0.7016359704273436
0.06328279657427768
-0.13819964369107826
-0.5129054129147134
0.31359746301081
-0.8704736285626143
0.226458594559671
-0.04517674271061118
0.38636264420459365
0.38019535933446985
-0.7727002558032071
0.0017591928022213806
-0.05434691580881735
-0.13745136956621065
0.40744438955054463
0.5285124312314204
0.17863384366013726
0.017508855115665568
0.010271518569148527
-0.22425734940707648
-0.18654851567593556
-0.2882438711517548
0.11690939648025508
0.02966893823090655
-0.4595755146878829
-0.22157949155484521
-1.0367957172168834
-0.7865506058191053
0.426765392570248
-0.11398677496935072
-0.20563288305186367
-0.9036297488874753
0.21256453559485172
-0.6678762454637522
-0.46740175228411435
-0.35087387640721507
0.344681543582102
0.1043254698890462
-0.6175562870693935
-0.6792842187953074
-0.8226078665061931
-0.49510793756447835
-0.40379661938330896
-0.15579454365041773
0.4392813217773458
0.17224491296934186
-0.5980924726828473
-1.609494704918451E-4
-0.7485325713356713
-0.1679195352560874
-0.8399299791902287
-0.26171815798653864
-0.15695805089224635
-0.615311781659701
-0.525416746312704
0.15735116276865851
-0.762408985626521
0.13371311060974808
0.7392459292191312
0.5472987631231399
0.522969632623274
0.44716664798161126
0.6233771606303238
0.35831872165599254
0.6023647202236355
0.6243010602530814
-0.6896028871258194
-0.4671053202281588
0.03621152874965691
-0.28549992667002183
-0.9679997730515231
-1.0261525324784238
-0.27461889821880375
-1.141132311343793
0.13845439024848064
-0.5392033657295913
0.38349794058499054
0.18888209839615666
0.13519359453861676
0.6384973150461349
0.43238545270143536
-0.3924110672615567
0.5603155625580033
-0.6004585744469404
-0.5909806740826398
-0.02906911875681292
0.02241085528507216
0.3352744417994025
0.08079354801267394
0.5305793312863765
0.10217891420850289
-0.9208396782322437
-1.0647945598723803
-0.3539749941224356
-0.06558362561244144
-1.0369508993051564
-0.09414185704796484
0.32471320782566654
-0.880122874099641
-0.23109333047135608
-1.0157723287462566
-0.4630966258751637
-0.8582054932453315
0.14055907271101337
-0.06271724193442516
0.1958693485913434
-0.2641090909255082
-0.1334911903644825
-0.2523279019575758
-1.059981487064322
0.31629228539270215
0.19241481945496794
0.3247795588337233
-0.07451028892977794
0.16019019078777874
0.03764351227584954
0.3881002060821895
0.03897077895669206
-0.6010156249714695
0.3143208303546526
0.03770701746597416
-0.16807985009055576
0.3657740428413704
0.46930017660478435
0.021182350362055256
-0.42761867644570534
-1.0565217519186376
0.18514965342315726
-0.3209014943917969
-0.8040281457852237
-0.5613347730160966
-0.6646627689145305
-0.035133661362149265
-0.8683797881419163
-1.064523251721793
0.12682108110429355
-1.2187367519595924
-0.4180928717102447
-0.9678769795041607
-0.7819689437313296
0.6368891276114036
0.11062023770150732
-0.7931255195678889
-0.02218279497396075
0.09633653236104045
-0.7776887231208379
-0.3240404271173333
-0.9254910936597666
-0.41835484174443344
-0.7512962712757613
-0.5422984239640046
-0.3627741816941922
-0.03554030639730971
-0.5553934055549629
-0.5764327878001043
-0.5716987116642362
-0.6702500123451811
-0.21158444595950157
0.32578249624333033
0.5647834700181223
0.34394318967152177
0.5687070053478384
0.03164622173585188
0.22578980682996458
-0.40962860484916847
0.5185454487975565
-0.7177070934224592
-0.7818997190555816
-0.1504323068016743
-0.5918823624503623
-0.029768318841726732
-1.1667304982336197
0.252606707500893
0.2805182525537194
-0.34662356375641945
0.14196167660595405
-0.8607986029927623
0.22744119229359347
-1.0415948801459418
-0.41135895656539445
-0.24288284494292905
-1.0805296194377902
0.32873095252492696
-0.04758928383713794
-0.9289672179551122
-0.5722879452809977
-0.6612722730691346
0.09565316903789069
0.6009909824453253
-0.873189071573
-1.111453045017607
-0.5341079896302996
-0.1904287228314564
0.2923596547131183
-0.20692397007348856
-0.23190201937015076
-0.3014985994179921
0.1180612423674908
-0.012916468569380902
-0.3760269462451176
0.235310422987493
0.28562493134913314
0.22432709334984077
-0.8014153950982686
-0.6155265843996874
0.05386689201389046
-0.1707048188300405
-0.8064410080900672
0.39457455665985636
0.33575071604795625
-1.1449955281964403
-0.6403828978442871
-0.09483426250867874
-0.1439097933917034
-0.2522645519555734
0.16280401022121918
-0.20125048293232153
0.5116461595395216
-0.4293888235644949
0.46483653893467813
-0.2621190766836787
-0.600590900040542
0.2720657582075715
0.23218941945249702
-0.6911051237579084
0.5142245917762418
0.05979917764862071
-0.0945335268834807
-0.5065446628626097
0.5668573746831987
-0.06713185668678895
0.41030475825053625
0.5563048589146639
0.5357900033337876
-0.7104256566441771
-0.2661888203438825
-0.03841381845162643
-0.3693208730614108
0.42272495775774077
0.35683397439798625
-0.09756108023097963
0.10400583954064467
0.215688189525675
0.3085708969483704
-0.5694612270428845
0.13140472197882622
0.04816131075939424
0.3429236040094714
-0.27441665232867263
-0.748456676366421
-0.2588017243259164
-0.9737196163321147
-0.5824057157705772
-0.4795370423033007
0.8813398862841536
0.5068694509434137
-0.3824289593768747
-0.895219430749809
-0.8697149208407985
-0.22093642356927254
-0.9061955047004514
0.6689824933344641
-0.8407500385794516
-0.4645836777274602
-0.4309744786601144
-0.6657620283679244
-0.3905537420724925
-0.7638112104557263
-0.30300138647650704
-0.19019907394131716
-0.011220958244722858
-0.653127752552397
0.07552894647950756
-1.0425270096124264
-0.44245106793304817
0.3563231495612511
-0.003203725765494587
-0.05490630853620123
0.8228308197672356
-0.35160757188745884
-0.8623442990891009
0.2556872023543468
-0.20128397315026703
-0.0975874504034478
0.5202913518148689
0.19456641394078147
-0.5416501042894094
-0.6545275329227965
-0.09716359214303288
0.38562074798105866
-0.7272570708115572
0.4030628481924639
-0.8643096168907443
0.3608347178281375
-0.3453794090736251
-0.26529648998849265
-0.31084803335425176
-0.4101690720109815
0.4976705300115304
0.007098497697271341
-0.13265428919638467
-0.7113214182042474
0.6369327137786213
0.18156328212973719
-0.2695813079377289
-0.6352368698025534
0.48073189741266653
-0.7595720582546912
0.308696152715874
0.3205271071535061
0.2616657925293754
-0.2794432184280656
-0.9849614133366796
-1.0466802884939548
-0.6692796861651352
-0.9575700188497454
0.7629078776394354
-0.4007686672509606
0.028731428878683112
-0.8966479725137722
0.8507852587799799
0.751572365610303
-0.36801006277150816
0.048346394162993994
-0.5400144155683648
-0.8019433099048885
-0.7093721448225146
0.3816867029476785
0.09666250167936932
-0.4712079757065655
0.6924755376014442
0.23177432840850792
0.6252961721315305
-0.6717468500389949
-0.9082930318776674
-0.8182745771733086
0.16080188525416061
0.471189748673469
-0.36237186152849826
-0.3068510078372757
-0.060604438969720856
-0.24599887628382155
0.2296660771490615
-0.9728520840756949
-0.19310545171654844
-0.2824251233350509
-0.20367998507622856
-0.26723815884240065
-1.0927926118865057
-0.8369187083489724
-0.4578120297280217
-0.6543991605743656
0.004340940614464982
-0.11083060059481381
-1.022517791081372
0.24321001560240532
0.6614809711636496
0.6367175582848443
-0.3632780562736066
-0.7097879105635513
-0.3253156883923704
-0.3742347976756132
-0.4896240788005479
-0.2182714682681238
-0.6145696569733518
0.48318385913509193
-0.3945935630433917
-0.1527777260107919
0.23729890378484703
-0.9177118073984902
-0.7635601542998232
-0.7930637567244786
0.19803988356422247
-0.9648733770819057
0.3198025433751694
-0.7554359691098997
0.22242629281916032
-0.49046624272706413
-0.06755653692495045
-0.06619760073347399
0.32628848847426034
-0.3839458692025563
-0.14043403384592393
-0.13356475529025505
-0.6246253241146659
0.22047225987868052
0.004942902735895496
-0.8328796360780002
-0.45377133210804416
-0.4494717979568453
-0.183627194555518
-0.45622121278003325
-0.7636850717296094
-0.2026085010084684
-0.15673057289978748
-0.5392679689021057
-0.383508087170097
0.3276789118446122
-0.3326253714965036
-0.07881868965101299
-0.4605759726521516
0.32887582100739543
0.1303952942609359
0.6883457774044255
-0.8715055418063973
-0.34987682604626413
0.2191705702632764
0.029488442487388303
-0.6062723758640872
-0.5256734754552397
-1.0427881341233614
-0.03267077233355188
0.18058219841613804
-0.14650908192237255
0.4076203746450672
0.20485856949578896
-0.5025147872064842
0.39205285287449315
-0.6134573105968789
-0.8311122106323688
-1.1606723127541436
-0.06431944365982173
-0.4690912717248314
-0.1946322778713375
0.632521623498515
-0.7683329131215457
-0.5436079988235774
-1.065555827215367
0.3001731733379368
-0.15822411360507613
0.6617353902272263
-0.12034011364427852
0.6420156687550166
-0.42375826090902474
-0.6259403878404564
0.41148971479285856
0.5919274551401095
-0.22108586014600545
0.06276544488500416
-0.1228454919308031
-0.5116567479782759
-0.6706104630441316
-0.08928128513571566
-0.013794505751417137
-0.0688075950205547
0.3160783865786427
-0.2838239619020954
-0.32317853353860077
-0.6336090961594945
0.4907204688954127
-0.640955903069077
-0.25638986882183756
-0.2879572060905091
-0.3142372487531402
-0.7223447599650067
0.53200879154418
0.03346570348471573
-0.32088998486945985
0.10662078663750446
-0.2635770640039483
0.39958786697757004
0.09863663623774344
-0.9977611107348046
-0.3322956283367109
-1.0614088799316523
-0.18298380125588626
0.4576575407657917
-0.48796844486450075
-0.19555956546812686
-0.7319482042479386
-0.4532265472821437
-0.6136865713347803
0.2813298498744934
-0.9977697024659834
0.05618500542447919
0.488958501847642
-0.23478753080073111
-1.0930118408744793
-0.8209979143376053
-0.7430384113791615
-1.2663026144888196
0.6851780389877362
0.5929945178434558
-0.5719095401283236
0.12993146423524676
-0.5816409389896069
0.10951280244294763
-0.5922874402253847
-0.12235371702802175
0.3386829016861128
-0.7985850847085074
-1.1282697271008892
-0.6376760661986985
-0.09059561197795017
0.10280667922082934
-1.0153746583477894
0.016145884701007827
0.47324503456920397
-0.8479425801083346
-1.0743986420106886
0.6068675632345619
0.051015054917429706
-0.7259777708641028
-0.7250484825640824
-1.0413754410504883
-0.9852215937770381
-0.46833454706542726
0.12705550020638015
0.2021956904320607
0.7102411168848125
0.4900133972028013
-0.26897228556197145
0.5140011797384895
0.5094753843180951
-0.8281392136889588
0.6877303802746213
0.5611972490626881
-1.0193601943769877
-0.6667258803333176
-0.2520233436509431
0.4708719617039629
-0.4026939725613895
0.17613308441914663
-0.21007964299983606
-0.41578017116736016
0.10475469532275361
-0.15167888478734481
-0.097002027091036
0.4371892942710493
-0.4355107098719185
-0.33005634778826304
-1.1999722070632015
-0.12651384342734756
-0.8293181920213674
0.08671523013486333
0.21479494215585723
-0.051110915688314475
-1.0179822031022843
-0.6368025938141167
-0.3423767897410227
0.18313691829820158
-0.12879109163298932
-0.05501365920064653
0.2267438135125089
-0.7036562023031349
-0.23792555378746943
-1.2256608152249149
-0.6407909137673151
-0.20236847967994903
-0.3559365416203579
0.06276811142936822
-0.2828510752684673
0.0015978332485324792
0.3557724923880287
-0.5512400161811819
-0.8907710213430781
0.12291265728435821
0.12818757362011482
0.2591725168897217
0.4871580084796854
-0.7651534314746256
0.5373371665051495
-0.7359921900182106
-0.02934482494791856
0.03762763534249194
-0.5314133458108812
0.46668615324213775
-0.9393988742832002
-1.0376307000720402
-0.12696431161073063
0.396825630563149
0.025015001871567945
0.1168110599211631
-0.2915246912522623
0.4381233616989218
-0.7100476656962249
-0.2691564445278529
0.6557268218653057
-0.7499604773184851
-0.6275759467387153
0.15763627420604137
-0.10514869811274036
-0.8921040255123498
-0.039487056198593565
-0.8853081701930646
-0.337927680495509
-0.1511841836957463
0.19128849308788362
-0.34313653168367514
0.1443623576882205
0.386127875605126
-0.7721527265344986
0.561517316112787
0.33887914525737656
-0.4031459150601147
0.230725328068785
0.40416817518746345
-0.4368590319128788
0.06595860507922376
0.40577093672340986
-0.3026630133890398
-0.910816180373789
0.48765166834483525
-0.5146526285994706
-0.7288466821522395
-0.698448633658022
-0.3569063703693049
-0.7371529944076057
-0.11048631074869805
-0.40214611160982194
0.4811669561680554
-0.13077720296616552
-0.2802834354012942
0.5371622684026773
-0.04426258102726143
-0.3809003726211055
0.17033013625979548
0.6551438785992946
0.2655342987817419
-0.7291914055881593
0.25246776870435744
-0.9359530203786084
-0.5141828686891428
-0.21765119223706297
0.30641054941033025
0.16390526547440076
0.07959173561126973
-0.764017191718659
-0.6665657615494817
-0.657409951466271
-1.0811867242349995
-0.30324355218304905
-1.0325222238695775
-0.2546710987613978
-0.5895978616269363
0.2563942148725536
-0.6569399587659085
0.11405124070124203
-0.03292270585182133
-0.1024534890930284
0.27058045313285656
-0.7634181525281315
-0.6690992769889215
0.11650754890249325
-0.6711074607980047
-0.0113296853417265
-0.034870725803355616
-0.790608568868804
-0.3620155898841174
-0.35929032926517623
-0.8798770670540005
0.2654531405189396
0.3786725324513192
-0.9599613643675398
0.49927399327662
0.016665458887256495
-1.0380235801073479
0.1440922200958714
-0.2995435405481455
-0.5833644674641343
0.4342377743468741
0.09348449478016821
-0.07607199818547956
-0.11181083955336525
0.08823427303957129
0.7300657919052281
0.5246500503367
-0.002769474731428566
0.21927843842567432
-0.6606299771646231
-0.13261123608707792
-0.754280898307016
0.031137615791937995
0.6422367234083843
-0.1979012949622839
0.2256524990063568
-1.2110927744832507
-1.0985511297141812
-0.6829724678220827
0.7143331947691429
0.5547106084285268
0.49191206830554246
-0.16963005427440342
0.30119792599313394
-0.4016408955262948
-0.038748923469328775
-0.5784603967180599
-1.0914558713569156
-0.890546858724866
-0.7168874513259113
0.37110608932467815
0.0572213255664965
-1.0714892137593153
-1.029583811234732
-0.6654006364603486
-0.9160769189700306
-0.6593834060699652
0.31684999304026035
-0.7667039859707373
0.38150987545556625
0.5880175697056133
0.1784702767860948
-0.6533713697324703
-0.8545334824174168
0.09249509954530893
-0.5151397418255301
-0.435167738975165
-1.0914137159913642
-0.5956384983017444
-0.538565526256161
-0.7801220428596759
-0.3226628927089424
-0.6478614798774067
-0.74203513623048
-0.2261563401429562
-1.0549250316667214
-0.18676740130069283
0.2863162702817374
-0.5593255322597618
0.14822860537956453
-0.038228278204336885
0.4951481613024622
-0.7414862369918892
-0.6372135583947705
-0.12124874162675268
0.781354850148081
-0.10219857260860933
0.2589786832029279
0.2716894795979443
-0.007968691754235922
-0.34723988970109027
0.4611140970503776
-0.41393492214484023
0.5728688214026438
-0.1917830184177905
-1.1469967911687962
-0.43409104845465857
0.6908051973393473
0.5246546378168714
-1.0002367932084437
-0.8911365538766045
-1.0795767556807825
-0.6411089928026089
-0.5164877025262405
0.19502007094504084
0.5900562126302548
0.6786485725292668
-0.39537834405078714
-0.6069586502757601
-0.4022765043604359
0.4283677791141146
0.5308183478328606
-0.7593892204197282
-0.31103141863064787
-0.021230075084416915
-1.0520577025095308
-0.802510931609845
0.0694438428017205
-0.6602416708444955
0.3971609933050046
-0.08646427198227054
0.14314935533378642
-0.3555176046325784
-0.8658954198920653
0.4934942473568906
-0.10247508500726021
-0.8643685166467591
-0.9960302219080318
-1.2261954167570326
-0.47471946971432316
-0.011584812679912175
-1.0074242877354638
0.5640853287533424
0.06672250177706324
0.4770368686754089
0.8062483839932847
0.44743657101898154
-0.08439159823544208
0.743835648341249
0.66723852885075
-0.25179566276245624
0.16092827630556894
-0.7152227699347862
-0.6507133220567634
-0.04556763640814467
0.5102441291987241
0.03980220289688752
0.14837166078794944
-0.7367330688886469
-0.2204887522116307
0.1320039387948173
-0.11295832049618326
0.4527492300547378
0.6753106295551778
0.24286161189875094
0.1876769730399779
0.5834485739871389
-0.31242939127750513
0.08013337195868277
0.7975736013510764
0.702196025755964
-0.013013672007229535
-0.6681058886019196
0.42167705132704103
-0.11092084461244986
0.6441044901543056
0.2358509822140591
0.6125644636513655
-0.5610000961031624
-0.029417722745640452
-0.3176451281911249
-0.732376787218614
0.15606557156385462
-0.19797385981066645
0.3815361862345143
-0.09528673153747409
-0.10847951610818579
-0.900871029108079
-0.6218353457820739
-0.9749586397552956
-1.123981196502645
-0.39655226350350287
-0.4627974514601409
-0.009755920967379771
-0.2786160981662556
0.3114594657891824
-1.0101865941691872
-0.579635242776739
0.2816336341913472
-1.098489518730705
-1.00220128548805
-0.515959872473944
-0.9090855422894726
-0.14384254750311604
-0.003920804358207125
0.5103948048019067
-0.621764326814801
0.4178088062769001
-0.11906747011065123
0.5093335452663825
0.01581558989155793
0.28754714181872376
0.317103031212577
-0.9748723536787468
-1.0960713866015621
-0.41206497383270674
-0.6859582111728786
0.2819500225561084
0.5534875695084173
-0.44208426647764687
-0.5669288699231225
-0.4833207237898773
0.3110459113882451
-0.024169270221715354
0.5717984165863992
-0.7764566307000097
-0.4776754724316991
0.030577533919411516
-0.7113716105850105
-0.45961822230247446
0.22220886901356557
-0.28581409251051343
0.6871913379083107
-1.004357102157507
-0.39503709266140563
-0.08482383409849498
-1.0000764120664603
0.20733613476457746
0.39171689083014033
0.8123523617897089
-0.1285244234444201
-0.8106106844161548
-0.5826403191834039
-0.29821036265815976
0.16863271482731867
0.29645785773899636
-1.029183988915483
-1.0038589398332496
-0.13418783634776657
-0.8755227066364701
-0.19436575300351722
-0.7363090101260956
0.22407417324355997
-0.3491701104079813
-0.7586238237480639
0.03508821602066197
-0.5728727398705932
-0.845113517043097
-0.531854723560943
-1.0199657529288984
-0.1964396708941459
-0.25803841138464056
0.23986663277022305
-0.9463328021030772
-0.6874652827513292
-0.24381887415837245
0.7480875124808103
-0.22126698281419271
-0.16027661140298252
0.026851412152675398
-1.2014495661736047
-0.45350838735395765
-0.9888627994108865
0.04151952094335781
0.4434343869331045
-0.21601912783676439
-0.7231696918106412
-0.2856147145588583
-0.8285252750497217
-0.4140747360995638
-0.7791320683880162
0.32793287401019056
0.538607249851883
-0.5192012759801656
-0.5785099661821389
-0.2427644432247603
0.6419796498684006
-0.16490855492291948
-0.1828118425039771
-1.0001084886241145
-0.09754878117026501
-1.0300930668255541
-0.8578190548144484
-0.5716687882781456
-0.2977809610802524
0.14277490338270601
0.6109919304652954
-0.8812328699163567
-0.8409962616454268
-0.8536432236016489
0.27962756550977885
-0.40031439612498465
-0.5129365512543711
0.24184502127907118
0.5806007313476613
-0.33955069878842514
-0.43059630590739123
-0.30138331123771117
-0.7538019712409897
-0.6099388626210798
0.10993392128873072
-0.8317713699506509
-0.8735882566695119
-0.9520756990062023
0.32928581300000315
-0.3636794122154307
-0.7907794697953557
-0.8730881020812826
-0.06701797294245185
-0.3193529209842469
-0.20855642110249273
-0.9063356367046199
0.286021286455059
-0.09938075462476488
-0.6524573595916648
0.29191790049743105
-0.2233103662788821
-0.3780322954757086
-0.3741164459876004
-0.4836031715606941
-0.9459705423490906
0.5814702231420885
0.5388421680705796
-0.7311686174084475
0.4570236870333878
0.5522969577417073
0.7785415426416877
-0.12591462516373178
0.026426514417590176
-0.08529834542998678
0.3178867374718259
0.46407764184127553
-0.5427030142044804
0.35417314358680363
-0.38161501570471795
-0.43389813486825657
0.7654211783372382
-0.15822795834394549
-0.7207623974125551
-0.7554668475956421
-0.5511326435967351
-0.7819509573486584
-0.1492336411726231
-0.2290132026772232
-0.31919338905516587
-0.4671111308147278
-0.3997056095271575
0.11512181502003542
0.5964444825557979
-0.7401501670629408
-0.14860685173979235
0.6763160518976579
-0.8568427748911653
-0.4467523188369459
0.6007037214510343
0.2352761807731204
0.4891972508738233
-0.595941041013552
0.6137367208284551
0.36162119299547213
0.7013324374415341
0.2193742934329781
-0.23524940486097698
-0.9950635862443196
0.1928638233298436
-0.29327094012040494
0.6517033807824459
-1.0225440632173775
0.1511655538155221
0.09446297945245961
-0.9377366984732171
-0.18268611330129467
-0.26278343161815715
0.40357642116552395
-0.4678186223405372
-0.27630245123557845
-0.9377098831607299
-0.8387599301981155
-0.29387805938138806
0.5103830474486198
-0.14054975094890693
0.277552903644124
-0.08935292680528252
0.41715479392000043
-0.8868071124958885
-0.532301013216184
0.18876658839658605
0.23819485572260235
-0.1288898231123888
0.5697967174536208
-0.6108116155473923
-1.0677842515196496
0.42711902041856115
0.611719466919106
-0.3696720260557289
-0.07662560959946507
-0.2889982681691738
0.30777691397375534
-0.935689798694799
-0.915166583014292
0.10638961244693129
-0.9404807190990352
0.03190760041351177
-0.9722740371791344
-0.7130206999119512
0.3553427577903334
0.06137692798145052
0.1925501255118429
0.594287934501986
-0.30295995424783023
0.6885366502152563
0.274483556429249
0.775741322231609
0.5115032804328367
-0.8193186416179946
-0.28205879644963916
0.11555369390972801
-1.0352893424266367
-0.8103387446831217
-0.7220731108446454
0.07948871851449946
-0.2833215546003074
0.043956257192271996
-1.001998707213853
0.22379844221600453
-0.2919640990223847
0.2315533733510464
0.3735983102284323
0.17030571907154024
0.21285451708216474
-1.0775641223979084
-0.6102087107906008
0.30217109258237607
0.06127160882030582
-0.46272793867992584
-0.2909602504698336
0.2119611880143325
-0.2696529503917455
-0.04394720936143264
0.7068811628886529
-1.0377789776502244
-0.25898716374182196
-0.7264533892544317
-0.308638944813521
-1.069928038874994
0.542578002726432
-0.841219999864935
0.18745938652395192
0.16344843433307804
0.5376568601143901
-0.23262226041572748
0.7029720733714486
0.44767972786447796
0.02841786631461732
-0.8777910258841216
-0.12223910024804265
-0.7325096333647181
0.17545822947452466
-0.8542634959314798
0.4343970175509006
-0.3382853098386739
-0.19737932638254
-0.6944426371197254
0.6529942041841256
-0.3751451235830627
-1.0420387018425865
-0.6727453938514404
0.5254737422693474
-0.019226734953980328
-0.5060874364968693
-0.7308970439598873
-0.7740840485219037
-0.048938898786044224
-0.9275005071544992
-0.673429063046201
-0.1603486535529523
-0.8922120072337942
0.06661484015218073
-0.01180452064782107
-0.9008231660416898
-0.40894391880711106
0.13383745947624942
-0.9185471240863573
-0.6434798102825161
-1.0763342234194095
-1.0128237505423339
-0.10498021686869399
-0.2626756797820844
-0.01910546681456249
-0.7074831876869541
0.0352164310383762
0.006378695242749856
-0.6739840000380433
0.6153350930867217
-1.0575682705448266
-0.06580257987795719
-0.9691100124206419
0.39967568093090566
0.4424521780094421
0.46656892330512834
-0.8523603821879535
0.27193516736916584
-0.3522948424639116
0.6405003566648051
-0.11236083319217029
-0.49919143881003086
0.24166626914663739
0.12387971834186012
0.36279764942985265
0.29381670380857733
0.23675765271613367
-0.45924576222972974
-0.5505859725457957
-0.30889884451405897
0.11293390716665913
-0.897659588741764
0.11734687643057698
-0.015998716804063243
0.4519604510025882
0.29191202673039085
-0.5674924384446951
-0.36042126229794635
0.0753659703273234
-0.12709895143422983
-0.319538610089546
0.06211657673389656
-0.25621922624421195
-0.6329858305900972
-1.0272406840317452
0.3812375655869587
-0.5516591667067797
0.03333229693367406
0.4398921116141567
0.28953627360350304
-0.8077058245735482
-0.45216537462678374
-0.9066470396905383
-1.1452826384950765
-0.9854554306000095
-0.2865938687466153
-0.77747404183399
0.22371056518862142
-0.33540274980217777
0.5280875418066834
-0.329091830274422
-0.8924287850960541
0.21022387357994188
-0.4098821230662819
-0.6899154269587178
0.48233707229495865
0.5277701032356804
0.8570661672748361
-0.8632059683196304
-0.6034922925195993
-0.6114865255876767
-0.5707739996216773
-0.3154061059714155
-0.8059285805856076
-0.06756993507315505
0.6509645398847798
0.7762894352963647
0.3249314111425323
-0.13438714454663458
-0.45572728513266236
0.5280523157807918
0.7592379264808355
-0.9248058772811047
0.7627332229529371
-1.0429570278690958
5.915879972695944E-4
-0.10780626588593652
-1.0168590839196912
-0.49676382771119343
-0.7757933908328369
0.3404737609223387
0.5627118123726629
0.058608948659333006
-0.10680393508281247
-1.0984663117279134
0.5407349353769093
0.5752674110204884
-0.8253425737035922
-0.32273965306946695
-0.5744664300355281
-0.9638327209036136
0.03471490517279846
0.2570056824983349
-0.020465930398363273
0.5974186594793269
-0.2564169154770335
0.598463801939001
-0.7996787898203807
0.4076400353081197
-0.8871637852564057
-0.3748655865662516
-0.2468935628597252
-0.2898592054069486
-1.0122481401506866
-0.49018900333896187
-0.3122903334838436
0.8294614030460459
0.6420742213318991
0.8193266340932255
0.29510323769275415
-0.43732401264764803
-1.0626300932559576
0.43207888796962224
-0.5892842378231217
-0.4650674433101801
-0.8398650396135727
0.18047174628626522
0.21052942124460033
-0.616714295914884
-0.2878690935637587
0.1697265944498825
-0.9582289691913951
-0.898514716634385
-0.6924184872245828
-0.18553838405776332
0.5597959773177364
0.5220119342629357
0.4969253626131913
-1.015325896331333
-0.3742019453934485
0.4114911509428718
-0.800429755035246
-0.2261389042756697
0.6151343601946655
-0.16168995608848197
-0.6459800052508712
0.31170733119489996
0.6817061901816424
0.4913845457963276
-0.08593199813259428
-0.4684939687598969
0.4139526097095533
-0.8215533512867653
-0.7750296703546747
-0.9872154397790167
0.2615912608565435
-0.4119783469439407
-0.7654453813500913
-0.89873725576638
0.06527194165877402
-0.6035053299411032
-0.6404598614297351
-0.08033368743138845
-0.7376101485159253
-0.4748307075032621
-0.4894380884694106
0.544811031135691
-0.5078727458374324
0.5568065163783692
0.20769051589458049
-0.517025945659646
-1.0924777295089563
-0.6053766427659439
0.010337577504807708
-0.012296809279491575
-0.5019609718295523
-0.5941687173409745
-0.3246372596864593
0.2866069758357773
0.16747621724719458
-0.4728031548177346
-0.8759565887950698
0.3527514903985365
0.44685994571579946
-0.9972507790914107
-0.3921864027977577
0.14997819974373733
-0.8333349345104325
-0.5963606822907611
-0.7639260063651461
0.2658266153126371
0.4911496785947396
-0.5290664985681486
-0.3810301619172564
-0.5694717687445515
-0.8539255320403556
-0.34387358083084235
-0.6289367992270372
0.813960414283153
0.25091403296593134
0.6899468150124428
0.10220634360204024
0.22681154217765181
-1.0712061043788033
0.1974020645835266
-0.9317995904100501
-0.9031027340420112
-0.7219167878385141
-0.7290351315328721
0.6494514525683414
-0.517372019626919
0.42058988294420746
0.6938520396463334
-0.5966475951258483
0.4522205494222728
0.5384347850531938
0.2309702294524691
-1.1710503536519383
0.36134261587901517
-0.8315515687586816
-0.19166080887748443
0.40560809658660024
0.007410587960450947
-0.34126972116753174
-0.9540495512320591
-0.0964462493321037
-1.0049132137537178
-0.13561988617621165
-0.5104343288182899
0.26495508493854547
-0.17511427503991972
-0.6760954049172936
0.4976893219982229
-0.8473114537306649
-1.125210717580701
-1.1080400996638933
0.32978755510409546
-0.6146588940962477
-1.1435075458215176
0.5950161684186898
0.4917807624560277
0.3678124024107546
0.6607745930347998
0.029647911449344443
-1.1665968519751655
-0.6373686377429117
0.1327946822744246
0.5738807697091004
-0.3976238726599347
-0.5501597377978186
0.29187726483413423
-0.6468480857774893
-0.6924117035502417
-1.151659793208196
0.3582614529427617
-0.08523864704654123
0.49063900936514865
-0.9954323987272872
0.1107439849267428
-1.4438817548235878
-0.6051665520617977
-0.7914571576559314
-1.0713917945726124
-0.2353667482162218
-0.623398307817828
-0.757573811174937
-0.6076195367838144
0.22137852029807684
-0.5377881442877173
0.06559474381701778
-0.24537025868386858
0.4961565201435995
-0.4085814869932337
-0.6951368777562597
-1.2925372081896676
0.38118604842843257
-0.6675676525331898
-0.3111551376135651
-0.16708220248626154
-0.32043211275213196
0.21272413302096763
0.5973580715605019
0.1936859895918622
-0.16348183387514018
0.4261082057049305
-0.8800150177418963
-0.6236775373914372
0.1991391265916565
0.41683654785044577
0.4767177826111653
-0.42823319681860755
0.015546248892932869
0.35863802271543155
-1.0462927934561612
-0.47324747288703434
-0.324418106256323
-0.29637674446442214
-0.6801113656845663
0.07800258489205449
0.5791875426372556
-0.19542305201410923
0.22145687239116751
0.011054691054263708
0.5009085949508962
0.35474345414018543
0.4172125029714298
-0.8676576398684084
-0.4603604458232236
0.1490892214987485
0.4418020121286997
-0.5242533976019552
-0.866395890811002
0.1630421670387653
0.08202101855088044
0.14986562026681888
-0.9835854349774028
0.27767212218050086
-0.8505364585222979
-0.7013567488053111
-0.5230137986826715
0.4187805572710354
-1.068590964466949
-0.6376554822444944
-0.27104897299993175
-0.611264788955261
-0.3454861971987318
0.10690087868657644
-0.11270268619865781
0.28919408986464296
-0.806448958055763
-0.05374938024703343
-0.5004165896739987
0.23858433566736126
0.6976808040910057
0.18703002553341444
-0.38938684517502664
0.3915878357574917
-0.45392646510551665
-0.42730105542928426
-0.04846430311772641
0.31044581082840866
-0.9865948919499689
0.3025323628383345
0.1420184879858438
-0.7904284518857091
-0.17007166251605357
-0.9264914442329584
-0.24866486116861297
0.3552916119541771
0.3477218655180303
0.2310187316173003
0.48753643770460975
0.048183058474874654
-1.0588916169949871
-0.708824801614467
0.4669195470334664
-0.7932961672529806
0.20786326757237303
-0.5167026512815369
0.47687438230478546
-0.30376875685481325
0.11129331982738275
-0.19547805943433308
-0.8675436949337063
-0.021256843351119062
0.18522508499059626
-0.16260991543118994
0.41332134861413394
-0.05247395517733379
0.8173637308866049
-0.5648619002941366
0.24169159911898797
0.1686961901119212
-0.5418969154099356
0.15798279893406256
0.2245768914624479
-0.16431271187702068
0.4531088219663069
-0.8910681333231057
-0.7849581007580871
-1.2018670362842212
-1.089586939594443
-0.8716794730445449
0.21530577805618065
-0.33274788506583836
0.3875165400778175
0.5465563927419044
-0.9291780793567486
-0.290347564686977
-0.6411531243415022
-0.6289490156633808
-0.8986040566086335
-0.4512735225630377
0.4599380617623758
0.30551997842103773
0.3776022357341734
-0.7942565099190205
-1.0694978866259985
-0.7645050444573008
-0.6677825055699576
0.034672014570481795
-0.7695440961820609
0.31151917554720515
-0.131343909594356
-1.0652891107399995
-1.1688243165778613
-1.124594470943395
0.3474425944684837
0.4055438351410096
0.19136385952351495
-0.4803572553503157
-0.019317457422710807
-1.0968619306021294
-0.9107404227013759
-0.406609338213854
-0.05055631880852026
-0.8512178263996117
-0.8047053085500755
-0.4555929378478519
0.38653034907627704
0.5812977143954836
0.2284714361114964
0.4364817884454365
-1.0119614280696103
0.012615243460914709
0.7035475451495286
0.0064640272910064505
-0.05877457169830394
-0.11218255222666555
-0.47283424882506253
0.3720970473764342
-0.5208315315440425
-0.8437715233865168
-0.019990033332633717
-0.175314384562945
-0.08018978983076752
-0.5113091234924609
-0.5171985526402013
-0.21133446419600732
-0.6852194921995565
0.44705605109515395
0.45357614493978327
-0.20118530928357128
-0.6213396086307109
0.252889522573005
-1.057766238596584
-1.0975971579728172
-0.4742077708479854
-0.05511636768658926
-0.7082264480603494
-0.1901068053201848
-0.9222760877702
-0.003855229820904701
-0.43178286930006315
-1.086289017096723
-0.01986872757841308
-0.026969933768162715
-0.5593204218197334
-0.18052524688196872
-0.8350636509902101
-0.16201546143196768
0.3243999139555297
-0.22619975205766096
-0.008236120246048065
-0.07392550527198932
0.1544543003849236
0.20260774561114686
-0.9063001118104849
-0.6232485734249233
0.25261306465474737
-0.3742698123555701
-0.009476056687462622
0.18245935678137887
-0.1910110330230019
0.2683726833597034
-0.9499735140047076
-0.7812759039576467
-0.9156815268472536
-0.7574363246833862
-1.0219404179475995
0.2653534569521435
-0.8456292363301603
-0.05936557486154127
0.30786021585388834
-0.9930007146646976
-1.0987826242458738
-0.34469760626279505
-0.5502759382019773
-0.01025648968663003
-0.626823897040064
-0.6236890878029387
0.5216969664205674
0.4169073650593467
-1.05011344774419
-0.06807557380213979
0.5620403349313886
-0.4238032076875934
0.4782813219707279
0.5207523176704604
-0.8563821360029176
-0.6846700960114351
0.0913186881897544
-0.14117032319625328
0.023454781964698197
0.6435075981742625
0.4711287386311738
-0.9883222320042623
0.20874052487497557
-1.0239386486816282
0.4675504183735443
-0.2930771440816543
0.5221695527973935
0.4713427265946817
0.5509721668793054
0.6215598075229827
-0.003937400339290923
-0.5800939896950541
-0.34498499614003986
-1.0166261999570176
-0.20076795836654363
-0.32162922025895085
0.4172315800784769
-0.3282889205015572
0.6383428448399124
0.25679444364916065
-0.43162540027621954
-0.2597585393729167
-0.6248663185065942
-0.16421410136456477
0.28330218769068866
0.2919089614598424
-0.09401140144208707
-0.6182452264828261
-0.5125380600217404
-0.46384990661447645
-1.1512569380196043
-0.8831582019194549
-0.9309977511717327
-0.07098286325634548
-0.7505499803419444
0.35133932070694307
-0.1624996326269439
-0.18641013115569402
-0.521281049524074
-0.041700540085945315
0.30360559156535094
0.2127018105565363
-0.5078212194278822
0.3088489735498865
0.5257440148425324
0.380525285306999
-1.188220203969129
-0.41264770726206895
-0.5887109628134042
0.6090908464862796
0.6179404068807085
-0.7702738051119089
0.16081771236189277
0.10137869822869948
-0.8359391842986363
0.3539726928142384
0.04423162211964725
-0.76992769491206
-1.227200718983439
0.4510172775578155
-1.1306623315196873
0.5746377930232505
0.18563088506939524
0.1653937489407047
0.5373618040504053
0.5627302581328637
0.15182741769744218
-0.7703225685492938
-1.0180115452788159
-0.46305556457550395
-0.8829357978463753
-0.29945671269931795
-0.018279128568038698
-0.38852418292787205
0.6015545893341414
-0.08784190614747664
0.05027842510259139
0.07388740059635272
0.4127772247512804
-0.24702760531607118
-0.22662303140132276
-1.2112004829924599
-0.33688980842824034
-0.8578108811781522
0.06013548832778435
0.43390972662845545
-0.7647150873929871
-0.07170492213464659
-0.11919033589832376
-4.6705954229511737E-4
0.36440630404026636
0.08810864013980073
0.3099189656320749
-0.7151333364433866
0.22534261140052605
-1.0293688639866978
-0.4412885122958405
0.5264390483882626
-0.9893101032745625
-0.060707190889890905
-0.4714113742104599
0.43952739490879994
0.23846276934158886
-0.860985814108985
0.08318531037466617
0.11522181539569057
0.3280587928905245
0.44967342885427913
-0.112742481697038
0.3085770866116824
-0.4728188839667766
-0.22532923739784244
0.3076007700046794
-0.8643093653945908
0.01684612123429726
-0.58372089646251
-0.9038363768331775
-0.13002805214949564
0.18392091295269483
-0.6483708412888064
-0.17557726466642073
-0.9099700376224394
-0.39329620447185404
-0.40771994220345315
-0.4493426749131827
-0.8579992384666613
-1.0834058587374418
0.014651685929989779
-0.1272924731211773
-0.7299293398131967
0.40931543166655376
-0.7514933884025201
-0.5108089746816901
0.18260295239604565
0.5368146983526082
-1.189536216308921
0.05062561857380075
-0.9051617030987065
0.3206296109935499
-0.7573382328039772
-0.6992182562084336
-0.0738515646112887
-0.21789902192067626
-0.6862002997816063
-0.16505628325786126
-0.36386182657846805
-1.0217350701018164
-0.8728771896870032
0.17683782232792608
0.0016261226653251572
0.05531231345804348
-0.5327595080588614
0.3406852503866244
-0.6855846605292352
-0.706227797874472
-0.7439139488188552
0.4989194302454963
-0.572683986237543
0.6711468846834394
-0.7917883675369768
-0.27544506733735913
0.23728735831080144
-0.0025644465884620826
-0.030879312651094847
0.6053224307895704
0.025138947482322226
-0.2148588405970462
-0.4077632585854729
-0.5304036666804526
0.638718529494453
0.741665149087264
-1.041884579208079
-0.11550509966728131
-0.136411626232594
-0.053548021144475766
0.3605150069307318
0.23231738823133122
-0.918190527065327
-0.45094824315844817
-0.04616336438570497
-1.0565147336850924
-1.044533294015569
-0.7518237591573229
0.10016250722567716
-0.3811260293361758
0.5897179240810975
-0.10121341054033045
0.15872938346997628
-0.9341740844002545
0.4958046067484895
-0.7623621635547868
-0.175313802647389
-0.8303982641417633
0.458690807920023
0.43454605947040675
-0.1476573023495474
-0.31612733818399846
-0.3888589982272882
0.5285406819680111
0.024501559767871165
0.7966370283195818
0.4182207484832762
-0.8608877560829834
-1.0366833837819012
-1.1828055581708414
-0.0572839014091507
-0.22965684736217276
-1.1018166750936789
0.22789533089945202
-0.24847723616323683
-0.18287595074155705
-0.32473324088305344
0.18180900054357113
-0.004957841780971552
-0.18615207479125667
-0.26050460985033
0.29918626663891595
-0.8430014233412264
-0.6889911983473491
0.4747816379364865
-0.039122366773846305
0.09146853601219336
-0.662064567626021
-0.05253609356031371
0.23323110624726717
-0.6086933826973568
0.4496166487440515
0.4917694572086114
0.4052754925007985
-0.1516744267949821
-0.17978160992586484
0.13923215220562302
-0.4616848874448544
-0.4625015243172021
-0.4287731347849076
0.6619554984273581
0.6403811018982059
0.38432109151259497
-0.46111979134651726
0.35285808677637703
-0.4157874087760704
-1.053543044835696
0.3730728877719919
-0.9479154955462347
0.42756017832786253
0.4917963113464708
0.044109862143985705
-1.022549866018393
0.30892837287421937
-0.7672758850446224
0.09456802476113893
0.368698490378112
-0.24569988264531245
-0.1963789854131556
-0.31109373856187655
-0.9957261935047651
-0.5759928109107977
-0.7720732761223497
-0.6503905864732289
0.6023130495636377
-0.19710327584389462
-0.7565640311192015
0.23404967144607913
-0.0999787757814851
-0.8702556928667226
0.476582265939136
0.5964021869787273
-0.9801934932269812
0.3028451243790618
0.18230681518967481
0.0759227867255348
0.21581509810631125
-0.17504845958772264
0.23404475431590696
0.2616369983158107
-0.7620948642286124
-1.0115626653465637
-0.3568014651964042
-0.7948687584405786
0.22614300470358914
-0.36238141625077497
-0.879810197668768
-1.122533225706123
-0.3092352183294935
-0.24787875850069338
0.1626246694247446
-0.5386146829579466
0.15716326779439818
0.709123120723773
0.25085183227262275
-0.7618887278484808
-0.9724076269985829
-0.49391635058330097
-0.5429563694270907
-0.4503190112425313
0.4608393656792637
-0.7985875877763784
-0.6666584121442399
0.3500197769070296
0.4476037439475297
-0.02534233080565176
-0.3153375841559514
0.4579275682764663
-0.1752876660131315
-0.20703159805797847
0.06901153620414893
0.16445286897570666
-0.017704930889151763
0.011693739390135838
-0.4921295113031989
-0.1488079462847281
0.49879966161270617
0.30917795388983915
-0.2693437712407782
0.29263361139784166
-0.6670457110073851
0.3849665184748997
-0.6773545695214973
-1.1261571027141712
-0.9495397276070068
0.12447011370242062
-0.9181597316051633
-0.37761457540767923
0.012672745439841999
-0.3375035634881866
-0.7505439046359665
-0.2437184204370014
-0.8078183705102813
0.3549376077896751
-0.7228619658404768
0.35101393992001323
-0.8900957126228632
-0.46159228448463124
-0.4961751037839544
0.4466407134108755
0.6970099922066506
0.46252590956617945
-0.33027787274103154
0.11375048062523826
-0.3695066980757278
0.5722505583347776
-0.7975668379578842
0.6567635022868294
-1.054191701987018
-0.40780632820944496
0.33877643745065933
-0.14436515986085866
-0.8734596331448633
0.09953216611056243
-1.1238512781613226
0.08051138640912006
0.22321854913010486
0.1020836317694389
-0.396687022378345
-0.2859378820923076
0.3127263029437243
-0.9671745881715039
0.07635310245311593
-0.5823580047139979
-0.8631082491667881
-0.49182755821066815
-0.3136489791743347
0.05876788365142172
0.05859975691230361
0.5267446443640749
-0.013580476143425316
-0.4509539927399671
-0.14694787763617204
0.23896393663508386
-0.9277988303537027
-1.1269147236375208
-0.8504666827530215
0.30571727942727606
-0.7902761346895352
-0.11591045975947224
-0.9222213841564093
0.18712069230327602
-0.36431030692082017
-0.8551733032300624
0.6087846772837302
0.27435866190572894
0.03821262549226058
-0.9628698725223459
0.33516248045799213
0.06148878443730798
-0.6629376067950568
-0.04331258959150393
-1.1831770561474513
-0.9488332838925926
0.3864641465239127
0.513218452213218
-0.9259927517538392
-1.1253078749761127
-1.178943986834881
0.42255619053440013
-0.11421432007851684
-1.1504569677113645
-0.8371111561081314
-1.0259039212209269
-1.1905486794211164
-0.38760976399491587
0.36964354424907225
-0.01827677106332632
0.17075981245915617
-0.3254178892450037
0.342154331810973
0.037139562358607825
-0.2301965880003529
0.482215411310004
0.5057906456428792
0.3950226499373994
-0.06346489203628745
0.6751675472575825
-0.15850093679937183
-1.2247630063741972
0.626637490438064
-0.0016681924930475331
-0.6568668432297905
-1.060303488936891
-0.8176879746934911
0.3158152770326005
-0.528390690822797
-0.12698266473746253
0.5346356809266812
0.01941215941284853
-0.646817170567233
0.1663830228346838
-0.47471542734260697
-1.0269873083091745
0.024626746373025258
0.15019061728859
0.38987245048308844
0.27128034439888543
0.42971518622822663
0.6983689420579606
-0.44636522726340816
-0.7331036399485786
0.47010596613320993
0.07759279666689836
-0.2725646522417973
-0.6779072356764585
0.23845947522419764
-0.4231461865028969
-0.3495703875238124
0.3399893721108971
0.1756338782339914
0.2981778010858084
0.2684250733188709
-0.647858969131283
-0.09375481280436627
0.19465565587166453
-0.7838798414422213
0.23312170656576806
-0.8828118672596387
-1.0488088010137628
-0.8259247994931762
-1.0746406371914967
-0.19470834067842172
-1.075764298811936
0.3644354270297877
0.2880619276981092
0.601665170371863
-0.3404885329936365
-0.6641217662631104
-0.8621229385872511
-0.17444882161453262
-0.6382854118951389
-0.6252620831636659
-0.7737102134743725
0.7113489741553193
0.4077642780438629
0.2750658865651314
0.6478785862498538
-1.0513385231447123
0.1511399837354743
-0.7711679806555107
-0.5399960803269452
-0.5786276306488309
-0.015003820128645748
0.44598396857439215
-0.9915629161775826
-0.34921975085141477
-0.3803381977705672
-0.26528691138911104
0.32149208736333024
0.15234005423985547
-0.9913216053989529
0.32786638954299346
0.04237030213441669
0.5643975282125784
0.41527164808936695
-0.9997237634292778
0.14413736203761623
-0.19937500277638215
0.5150521191476055
-0.2000820882262371
-0.7678321824412965
-0.7701469235024958
-0.8709901391036315
-0.8040004899755726
0.6792711164116939
0.09706351956249305
0.4801131464183129
